# shape: 32 32
0.0437324867 0.211657628 0.305610657 -0.438612044 0.0902943313 -0.351274133 -0.0950114951 -0.277813494 -0.131737754 0.121079519 -0.124401398 0.222059771 0.0199571624 0.111782335 0.0793862939 -0.361952603 -0.0820344836 -0.025299713 0.259061843 -0.213937372 -0.232591495 0.110952206 -0.0500355735 -0.202030659 0.00176503218 -0.0788577795 0.215651929 -0.0801413134 0.208522245 -0.271428168 0.151887044 -0.0741534382
0.103319049 -0.0229016785 0.347562879 0.0954714343 0.174952492 0.317121744 0.109113678 0.138558447 -0.0795260966 0.139958665 0.193810612 -0.0821366459 0.0299027953 0.00160583365 0.345249265 -0.333140194 -0.204291984 -0.141934842 -0.240261108 0.261786133 -0.0720564127 -0.00390727445 0.266682565 -0.197020784 0.0750810876 0.13586387 0.135438874 -0.0959450006 -0.155459434 0.0499882549 0.111201383 -0.36428985
0.12974447 -0.0644546896 0.262358308 0.151871964 0.206344113 0.0552830286 -0.0863063484 -0.0395970121 0.0483040921 -0.0607192405 0.0607360527 0.184632942 0.00183485344 0.139533192 0.171207771 -0.0590904802 0.23480393 -0.114085302 -0.14830251 0.113968447 -0.187071532 0.295089781 -0.191047117 0.0781070516 -0.0852326825 0.305214733 0.177655801 -0.286858201 -0.0104131 0.0541733801 0.0430143364 0.132199332
-0.205850616 -0.132199883 -0.0562815517 0.0412274711 0.119130313 0.166837052 -0.131065026 -0.271443307 0.320749879 -0.132488698 -0.117579944 0.0819738433 -0.211018577 -0.0934317186 0.0743224174 0.0277601406 -0.138294071 -0.195646003 -0.12839511 -0.270804584 -0.113797627 0.150316432 -0.106952459 -0.167092368 0.053987287 -0.0373781621 -0.28327781 0.369222075 0.184839666 -0.0666343719 0.0721066594 -0.20277904
-0.011057796 -0.149554193 0.153053224 -0.0398906134 0.0471728779 -0.184941381 -0.149295211 -0.0115174009 0.430941582 0.0163514428 0.126695544 -0.0747468248 0.162331238 -0.248636588 0.132261068 -0.0496172048 0.201521516 -0.113076039 -0.383687854 0.0634234324 -0.0869119391 -0.0960993096 0.229606867 -0.00116214587 -0.0182357263 0.100027919 0.0843957588 0.0675805658 0.0270600189 0.0557229407 0.103574805 -0.0226934478
0.169541165 -0.170016766 -0.104357034 0.0628399998 -0.171385288 0.059095528 0.263632298 -0.280718297 -0.25161621 0.302532107 0.110001154 0.173750445 0.0652321428 -0.0700811893 0.000292190263 -0.163253576 0.158022821 0.0857608616 0.0580564924 -0.0706182346 -0.198852301 -0.0544012934 0.183213741 -0.0431619696 -0.00373728899 0.158636346 0.217439696 0.0268849954 -0.26289919 -0.198291302 0.271593094 0.242178068
-0.168837696 0.0257638171 0.149302691 -0.143661961 0.0335711576 0.16968675 0.0239968207 -0.159612954 -0.0183512699 0.293656558 0.0369173475 0.133428723 -0.0971997306 0.142188177 0.0819990262 0.153772309 0.148353055 -0.096058622 -0.150549352 0.127557561 0.210017055 0.174001664 0.0551441573 -0.0250439327 0.165817246 -0.0671823248 -0.115218036 0.213596746 0.0520414785 -0.137480393 0.0506974794 -0.0860106647
-0.0120148761 0.168222532 0.238466159 -0.0872598514 0.201451674 -0.00613288628 -0.188680828 -0.0154618109 0.0191358924 -0.169485152 -0.0177014805 0.218870133 0.023104867 -0.0997467861 -0.226629242 0.288372606 -0.176774323 0.059320461 0.00471717818 -0.176401898 0.137953252 -0.280093491 0.225377142 -0.0815160125 -0.424606353 -0.251583993 0.0891643241 -0.374506772 -0.205185294 0.0940482542 0.256737649 0.058415316
-0.305366486 -0.0321194306 0.0206499137 -0.055471044 -0.24496533 0.0594076142 0.310651451 0.0208978448 -0.0433590971 -0.0562551767 0.189700589 -0.20077683 -0.0401735231 -0.228445619 -0.106790952 -0.204841822 0.171233848 -0.251168877 0.320679963 0.063030459 -0.1013465 0.0359407105 -0.318557799 0.0150953848 -0.11223606 -0.0869383141 0.14481394 -0.0880738273 0.0180063825 0.073056221 0.170615867 0.0517438725
0.276241899 -0.165987 0.213404745 -0.213543773 0.0793910399 0.0599365234 0.281506926 -0.126705334 -0.253448397 -0.198241442 0.240679845 0.0446117297 -0.181471854 -0.122209601 -0.0628782958 0.112945393 -0.023631582 0.138463229 -0.0315401815 0.237730026 -0.0297587328 0.0569654852 0.0664182082 0.161849111 0.174637362 -0.235424653 -0.236302286 0.177127182 0.1609364 0.186963677 0.038127616 0.189742327
-0.324273527 0.0262136757 -0.185936272 0.0152147794 0.0326777175 -0.150505573 -0.070322223 0.0515097342 -0.213248029 0.253905982 0.0819322243 -0.232431948 0.232604429 -0.162080392 -0.15766108 -0.182588533 -0.136237666 -0.24129574 0.161781475 0.248895407 -0.0902760178 -0.113749065 0.0188822281 -0.123941369 0.0422106721 0.0444108918 0.0258530937 0.0134418663 0.161319524 -0.0180817414 0.0422869399 0.0374384187
-0.0809024125 0.113518 0.153421953 -0.0826190114 -0.232299387 0.200363398 -0.247397989 0.0631157234 0.0161491446 0.100081958 0.291451097 0.068536751 0.240202829 0.301265925 -0.15043214 0.251848102 0.0629775077 0.33483246 0.0640036836 -0.258323848 0.0189756658 -0.239123672 -0.314845949 -0.224575713 0.149415106 -0.0613605939 -0.158110529 -0.113565631 -0.0821534917 0.100891978 0.237700403 0.0383882374
-0.106677473 0.107459038 0.322840452 -0.153469086 0.0438407958 -0.246615723 -0.236468017 -0.000294750062 -0.0815846995 -0.160968035 -0.00996368099 0.180161685 -0.016835371 -0.00422477163 -0.100750111 -0.246796325 -0.166171402 0.161050946 0.122298993 0.170990095 -0.149208069 0.0151059944 0.0619281232 -0.415637434 -0.0577423573 -0.16355443 0.0909928232 -0.0626367927 0.380149215 0.0429807045 0.0986091197 -0.176800147
-0.156662479 0.119561672 -0.0756804645 -0.154588997 0.0620549396 -0.13052614 0.138942644 -0.244918957 0.204874143 0.0984930024 0.0113318739 0.103431754 0.169799775 0.0622229613 0.107802592 -0.0278912261 -0.108652003 0.0090276422 0.0460286401 0.199785575 0.0815794095 -0.164941058 -0.182987735 0.220018595 0.150923088 -0.248369873 0.00576276472 0.290688217 -0.0562657118 -0.222415119 0.0651914552 -0.0872593969
0.110132754 0.0701746717 -0.127970383 0.323259175 -0.0285340305 -0.287980109 -0.279532492 -0.103508815 -0.0908146054 0.275625497 0.0522797368 0.0627610534 0.111052305 0.251241207 -0.022244975 -0.152263135 0.0696906894 0.145106345 -0.131928086 -0.0696614832 0.0678725392 -0.115526631 0.169913501 0.0194296669 0.061916139 -0.0400396734 0.0489121228 0.0705805719 -0.202974826 -0.17716904 0.353843033 -0.191899374
-0.109879062 0.223884523 0.00971654896 0.0257505942 0.0138127469 0.185144722 -0.309960186 0.166045859 0.130136222 -0.117582478 0.0692063645 -0.122806445 0.309271455 -0.154765368 0.0321535021 -0.0341208205 0.0201425534 -0.0487045124 -0.335178077 0.2101693 0.166947871 0.12437018 -0.0413043872 -0.125014886 0.303747922 0.0842302293 0.370573521 -0.00390862674 -0.065519385 -0.158664361 0.0908321664 0.254652262
-0.194270521 -0.103937954 0.141026214 0.314098448 -0.0188822281 -0.0975759998 -0.0712525398 0.113540322 -0.158172205 -0.289514959 0.0762448236 0.146734342 0.150891304 0.051553607 0.164709121 -0.189566016 -0.0703327432 -0.141126782 0.114305913 -0.102351077 -0.148916051 -0.0412516631 -0.385982007 -0.205691949 0.368455172 -0.0701959133 -0.0111736385 -0.0873823985 -0.11912246 -0.0451408438 0.296378404 0.35680905
-0.00883508101 0.187309012 -0.00459730299 0.0828527063 0.381072551 -0.100880109 -0.0844333544 0.055317767 -0.0271780416 0.0612232611 -0.0700166896 -0.0452497452 -0.211240053 -0.102993265 -0.0295417085 0.0756182298 -0.285710007 -0.0428490192 -0.328438491 -0.126838475 -0.102657959 0.0758533776 -0.19166939 -0.0316513479 0.248476446 -0.0989497676 -0.0190920662 0.284791738 -0.219332024 -0.0774770454 0.207991496 0.204292163
-0.0662512928 -0.241303384 0.00626320345 -0.23039344 -0.19280678 0.327688187 0.0841642618 0.228940919 0.117468655 -0.214921534 -0.230244428 0.313193738 -0.222703263 0.296055794 0.31727761 -0.28634426 -0.08943896 -0.0528235696 0.157894775 0.205166981 -0.00324525102 -0.0736392662 0.291114658 -0.250025928 -0.239486679 -0.0477385372 0.00192720594 0.0905170739 0.0311487261 0.0361072756 -0.0549277626 0.126693428
0.187069237 -0.21866414 0.0327015631 0.213614419 0.182880044 -0.278372943 -0.0886079073 0.0302134138 0.138556212 0.104523584 -0.0458219908 0.242522925 0.236559272 0.0672706813 -0.262284428 0.0601385608 0.0910581946 0.026078444 0.063297987 0.0341235213 0.259917557 -0.0762767792 -0.0309170727 0.0574203804 0.154774532 -0.06894622 -0.156641275 0.0646077991 0.257038087 -0.231838375 -0.201550975 -0.268175244
0.0797570795 0.10804598 0.259403437 -0.183015719 -0.0782705396 0.00858911593 0.069738254 0.309491605 0.0233135335 0.0603173077 -0.365463614 -0.0769912004 0.126203924 -0.0221699104 -0.233554453 -0.301821887 -0.0674674213 0.323041648 -0.256154418 -0.360873163 -0.0688679665 -0.0254717078 -0.20825015 0.187066436 -0.171878502 -0.107267238 0.313132733 0.2297979 0.0888627768 -0.210610703 0.0254024491 0.0979714915
0.150073498 0.0955586731 -0.0212507565 0.195171922 0.431361943 0.317724168 -0.0130422255 -0.291980058 -0.1876349 0.0785288736 0.0263073407 -0.0393412299 0.21311003 -0.246154785 0.385482579 -0.140800282 -0.163721129 0.17502661 0.183722764 -0.2903741 0.0207869466 0.0193666611 -0.261711419 -0.0224169753 -0.265210032 0.118997149 -0.17748341 -0.201902851 0.0670507923 -0.126347467 0.387901843 0.145588025
0.098588869 -0.011114818 0.228579313 0.175482303 -0.0825809613 0.239383772 -0.0683391988 -0.137046203 -0.139684066 0.10487356 -0.110913813 0.291846037 -0.325706571 0.301602662 0.208270654 0.248186439 0.0337653048 -0.122373119 -0.0282728598 -0.0228832364 0.0606207363 0.154500753 0.0406683385 0.0667287111 0.135235816 -0.00917248428 0.279991537 0.284489274 0.155878395 -0.264222026 -0.045171123 0.285911173
0.294117808 0.278279215 -0.0741222352 0.19310832 -0.0676677972 0.0340071991 -0.193252355 -0.222019866 -0.317923576 0.0191424266 -0.343201637 -0.294784576 -0.0504353829 -0.254304677 0.293864667 -0.0908012763 0.159519047 -0.130036846 0.0498166531 0.108245857 0.353788376 -0.101001389 -0.244307905 0.0853872523 -0.0423443206 0.23617436 -0.166993603 -0.294192016 0.399310082 -0.150136098 0.176030353 -0.16971381
-0.255942404 0.171861634 -0.124072067 -0.304628611 -0.051965151 -0.157218412 -0.294544995 0.0854035467 -0.0822501332 -0.0175337177 0.233565703 0.0348419063 -0.0762410015 0.327955395 -0.251862317 0.162575275 -0.153352946 0.180277318 0.0812342465 -0.0338076055 -0.00253893482 0.327503145 -0.241559371 0.0372884981 0.255978048 0.167912528 0.188943192 -0.142564356 -0.0298902187 0.0108368583 0.0606231391 -0.135838553
0.240511954 -0.122783601 0.188173488 -0.154342771 -0.214785188 -0.0169865284 -0.121896707 0.132353768 0.0157001112 0.118891388 -0.260859638 0.160070375 0.108836003 -0.406402886 0.211091414 0.0533277839 0.124629319 -0.191399485 -0.146586433 -0.250029385 0.278452873 -0.172320455 -0.237561584 -0.166248173 0.490130395 0.111061923 0.269734949 0.00849350356 0.0389826894 -0.062232729 -0.133650735 -0.113198385
0.0229126438 -0.0626037493 0.189426094 -0.0167831816 -0.219611973 0.0620745718 -0.0409969985 0.241292343 -0.208181411 0.0630566552 0.0942563191 0.348246396 -0.163885504 0.112932116 -0.188264683 -0.00425210828 -0.0279770531 -0.0312078781 -0.170070738 -0.0142181898 0.155478746 -0.0957558006 -0.232832327 0.0692630634 -0.0252238009 0.368143022 -0.200178191 -0.154780045 0.220343009 0.113053977 -0.141917929 0.204663292
0.0851022974 0.0167458896 -0.0502442196 0.144670725 0.12517269 0.223768085 0.364338785 -0.101513542 0.45106411 0.156473398 0.237053066 0.159611464 0.0956636742 -0.104229122 0.0327214934 -0.538905621 0.197796181 0.205671206 -0.0915876031 0.0817604437 0.199133262 -0.18490538 -0.256450474 0.335962832 0.199101821 0.31374836 -0.183619529 -0.129830495 0.0694053546 0.227631047 -0.270536453 0.0729635432
0.0171526708 -0.00920481794 -0.263483912 -0.162633762 0.264918715 0.233247414 -0.0321397036 0.154188797 0.199615866 0.110203288 -0.158068687 0.00432203896 -0.139808536 0.126288205 -0.0709704012 -0.187113523 0.000623838336 0.356907278 0.139445081 0.031378109 -0.0331065282 0.135678247 -0.0329440571 0.331689864 0.0756020546 0.274683863 -0.216683909 -0.080414705 -0.399530739 -0.0428102352 0.200330138 0.218146846
-0.112766437 -0.10949149 -0.227517158 -0.208365008 0.149228528 -0.0114729563 -0.140018806 -0.221714079 -0.127723977 0.0120456694 0.150062948 0.110587642 -0.097253181 -0.254314095 0.0532779023 -0.00496321497 -0.19576402 -0.0671128109 -0.237111866 0.296598822 0.153081805 -0.133492693 0.0315138809 0.242102996 0.220126793 -0.153514177 0.286089748 -0.0578234494 -0.0869107619 -0.171730906 -0.152035043 -0.0909982622
0.0844898447 -0.0511985756 -0.0898016021 0.082040526 0.257380486 0.0926470459 -0.23768577 0.242002547 -0.0514858067 0.0745361745 0.241423368 0.15662095 0.231450006 0.280562401 -0.0573697202 0.247657984 -0.152559936 0.125990823 -0.228857964 -0.21491316 0.134305432 0.103841536 0.0365423039 -0.0571432337 -0.134687692 0.011034417 -0.0379492454 0.0666606948 -0.00816525053 -0.309268832 -0.39765206 0.151066899
0.253376991 0.104439728 -0.0957840756 -0.192982331 0.217542648 -0.0647479147 -0.167530298 -0.135283634 -0.28642863 0.0929321125 0.309058815 -0.100797214 -0.0990839526 0.316469789 -0.15508838 -0.0730643868 -0.185854569 -0.0586753488 0.230972752 0.0498682894 -0.0947476178 -0.33119607 0.293541402 0.0223951731 -0.133859545 0.104086801 0.160583228 -0.00470128842 0.0349158011 -0.213858992 0.0407525897 -0.0626005158
