# shape: 32 64
-0.159682468 -0.110371605 0.29915607 0.136539862 -0.0894315168 0.240114689 -0.178893685 0.06022425 -0.311110854 0.232000768 0.0659436509 0.401086241 -0.150899097 -0.194408491 -0.100599684 0.0127596585 0.224839672 -0.0767227113 0.0481160805 -0.187091276 -0.227967083 -0.151045591 0.147551 0.227469712 0.328188658 0.311122894 -0.144977212 0.0718622953 0.116735771 0.121195152 -0.0346939601 -0.170619816 -0.0230207946 0.200902402 0.050465025 -0.115955852 0.197802663 -0.114277489 -0.0374346673 0.256408066 0.156076103 0.0837348029 -0.0613020509 -0.101065367 0.125080124 -0.258165359 0.217137858 0.145088091 0.173794284 0.417356879 0.0905195773 0.231660083 -0.336360544 0.0193803962 0.0543936826 -0.0362954624 -0.172221616 0.462585807 -0.125439897 -0.128460214 0.0984780863 -0.0312856734 0.174052119 -0.0631664991
-0.0198794734 -0.201305687 0.072448343 -0.106095202 -0.133964151 0.235236987 -0.0410276353 0.134212345 0.133916587 -0.0540405102 0.0397199094 0.0208114535 0.0364332013 0.130042404 0.201960936 -0.0628575832 0.157080352 0.0612476245 0.0896827728 0.191048026 0.0551822782 0.19242391 0.0138810277 0.357838809 0.113955006 0.0488277487 0.586281598 0.269479394 -0.0133273974 -0.0225365292 0.182725012 0.456769198 0.190428317 0.552136481 -0.0068101096 -0.0368846394 -0.0638522431 -0.131250739 0.196627453 -0.139352083 -0.242732853 -0.0171795171 0.00971829798 0.205548659 0.283912897 -0.0996367112 0.0487097092 0.176141828 0.393470496 0.114454284 -0.169573441 0.13186951 0.312938392 -0.0768164471 0.103199735 0.057128109 0.0247676205 0.15827848 0.0579571128 0.270244598 -0.0235683788 0.343845129 0.0175876785 -0.146208644
0.178522393 -0.204752639 -0.0531947277 0.127722025 0.1524636 -0.275386512 -0.0656138659 -0.0316219106 -0.323098332 0.204292253 -0.293869764 0.191216096 -0.166093066 0.25040713 -0.401595563 0.0918297619 0.0802375004 0.0819317251 -0.110655077 -0.0347566716 -0.555777609 0.0885971785 -0.00670297816 -0.0695836619 0.057337705 -0.0694046542 0.00912109669 -0.183279544 -0.352322161 0.177904591 0.000676955271 0.112768918 0.157048702 -0.474458426 -0.116114378 -0.0410272777 -0.00532558793 0.13332969 -0.455397576 -0.13876389 -0.169544682 -0.116359085 0.10732948 -0.155563369 -0.0604408644 -0.0593963973 0.0132582514 -0.292286694 -0.0211611632 0.0543182977 0.253125101 -0.147431478 -0.0499940403 -0.0147126289 0.0528791547 0.32174015 -0.219522417 0.117522791 -0.0700500682 0.148796126 -0.11556565 -0.0861026794 -0.383727461 0.0334770679
-0.0678250864 0.0329653136 0.302982956 -0.263889462 0.110392652 0.217606217 0.328290969 -0.0775448456 -0.119346514 0.25630042 0.173210934 -0.294338346 -0.16478695 -0.101295471 0.41124469 -0.17376101 -0.313025504 -0.128621489 -0.247359291 0.0319395922 -0.160288826 -0.0855002999 -0.21726504 -0.300738066 0.328529298 -0.164085835 -0.497259676 0.239700928 0.275871813 0.138723418 -0.175438449 -0.266229302 0.246477738 0.268161088 0.154147774 0.107467629 0.165286198 -0.113804422 0.253245175 -0.228736177 0.144363493 -0.0385552384 -0.288173974 0.0566294827 -0.222735465 -0.170162499 -0.17842938 -0.283748657 -0.0770401582 -0.140079185 -0.0862507448 -0.284769386 -0.156027362 -0.122106031 0.202376276 0.105582491 -0.154158562 0.292855233 0.147637501 0.31186673 0.0269439258 -0.266733736 -0.187359557 -0.072858192
0.0402818881 -0.00193918135 0.146964878 -0.0137573406 -0.357783914 -0.413761556 0.0526521243 0.163390473 0.342731148 0.184635088 -0.365937322 0.0702267811 -0.33205682 -0.195714697 0.108667947 -0.0723387375 0.279452771 0.367268234 0.0251442399 0.231640801 0.297721624 -0.075404793 0.295885742 0.357300609 -0.0402490646 -0.209173098 0.106277071 0.196932808 0.234357029 0.189610496 -0.047475405 -0.262118608 0.195670381 0.244663998 0.387750804 0.045657374 -0.00723307626 0.0692988113 -0.0789599046 0.215866089 -0.239459664 -0.210811168 -0.171492472 -0.157834679 -0.04667845 -0.0916088596 0.13328667 0.460028917 -0.0846084058 -0.00730153499 -0.0957478806 0.0767779127 0.116305515 0.31227088 0.258775681 -0.250584662 -0.0947731882 0.0700351447 0.304098755 -0.320889294 0.0582504272 0.244886652 -0.0208701454 0.323135197
-0.0367420018 -0.0236992519 0.103819683 -0.238697186 0.0877580941 0.198772684 0.0265821908 0.0906153023 0.214243233 -0.242922783 0.482472897 -0.154718876 0.048596371 -0.0141926333 -0.0712993145 0.102660686 -0.195488319 -0.0286000855 -0.3249515 -0.0448791608 -0.0328060985 0.182067052 -0.0985302404 -0.0172504969 -0.144849911 -0.143401206 0.0902533084 0.456577361 0.127234802 -0.400138617 0.407950908 0.260245413 0.109486938 0.051787965 -0.40079546 0.00833237264 -0.148072571 -0.186358944 -0.259709179 0.231896266 -0.136977538 0.530768275 -0.137210131 -0.202287927 0.037871331 -0.338291526 -0.10539189 -0.115072437 0.106231481 -0.345682055 -0.172020838 0.149779454 -0.274873435 -0.159775913 -0.0469619296 0.089984417 -0.180962175 0.20105727 -0.204649672 -0.0847793818 -0.00884659681 -0.258743703 -0.0317469724 0.295858264
-0.0864476115 0.167688206 -0.171034217 0.0751617998 -0.0170149934 -0.0129560297 -0.0844118446 -0.20610179 -0.120674223 0.305255771 0.278657407 -0.590870857 -0.00991601404 0.00418591034 -0.110917889 0.00175612397 -0.0981537327 -0.0330689661 0.326835424 0.228692546 0.0353715494 -0.154858112 -0.237946525 -0.609749496 -0.131362677 -0.287038058 -0.057030078 -0.347360343 -0.312217891 -0.0685997233 0.0222587679 0.316589981 -0.0481256992 0.127795234 -0.26452297 0.0534478985 -0.048844669 0.124759443 0.119798072 0.0418139286 -0.118708894 -0.403175712 0.232148647 0.173490018 -0.0542334206 0.417646229 -0.00866557658 -0.243397564 0.284471899 -0.0380988829 -0.0400803871 -0.0194204878 0.118286133 -0.172944441 -0.456597954 -0.166909486 0.220244035 -0.162667379 0.305541217 -0.245135829 0.120114341 0.0432920009 -0.123990923 -0.196014866
0.0345597193 0.36566478 0.0889999717 0.314221889 0.0371670648 -0.350436211 0.241366565 0.0996730402 0.397187233 -0.080955565 0.123523891 -0.112641595 -0.254774004 0.169722885 -0.264918953 -0.305611134 0.0628589988 0.325371236 -0.117444195 0.118665613 -0.329252869 -0.175041601 -0.0904019848 0.078127943 -0.195657507 -0.220171914 -0.139290184 0.00510038389 0.26347968 0.159569949 -0.0945049748 -0.0126151787 -0.18063131 0.0548317134 0.277671576 0.0143005848 0.2464104 -0.000872394419 0.110363282 -0.261831462 0.13975288 0.0136501314 -0.0144614475 -0.38090378 0.42241168 0.125088304 0.128790036 0.318280846 -0.0258986223 -0.0706044659 0.0723213032 0.495953083 0.291824102 -0.121792555 0.490144581 -0.0800317302 -0.00350387907 -0.00148604391 -0.0728587061 0.485097528 0.0127108842 -0.181637809 0.35487628 0.114353746
-0.168690547 -0.021194594 -0.0565196984 -0.102014393 -0.337492466 -0.201586679 -0.233472034 0.130683243 -0.371776462 -0.221953526 -0.162010178 -0.218350142 -0.0846604705 0.00499817496 0.219787732 -0.15331614 -0.0771438852 -0.26283443 0.0696145594 0.0616148598 0.0825696364 -0.293389887 0.00726172281 0.184404567 -0.408589691 -0.280664295 -0.200280473 0.0256826263 -0.0281404331 -0.100417458 -0.220089182 -0.134903699 0.277545959 0.0458145887 -0.169810474 0.215560511 -0.233213052 0.155543342 -0.0484581292 -0.0609718896 0.0687899441 0.0618583933 0.102823041 -0.374298871 -0.0813133419 -0.0277108047 -0.257732034 0.24115777 -0.177653566 -0.175874025 -0.437848091 0.19523716 0.0431658775 0.0150944376 0.124856047 -0.319603473 -0.173277155 -0.301469922 -0.254946351 0.0485315435 -0.213443384 -0.215907991 0.273427188 -0.046299208
0.159980774 0.136016205 -0.137977377 0.0194136947 0.173516706 0.0387761332 0.162053987 0.185159057 0.264885664 0.135998949 0.0893830657 -0.00563235627 0.18498081 -0.000304840942 -0.196761489 -0.00322959479 0.13993068 -0.177492663 0.0761136487 -0.201316223 -0.0983830169 -0.202486247 0.064507857 0.0574966781 0.344598114 0.214933068 -0.292189747 -0.143677235 -0.20341152 0.331953287 0.0877455994 -0.188387766 0.387106448 -0.185258508 -0.112049274 0.0783950686 0.11985001 -0.049804274 -0.147121325 -0.443745255 -0.231147707 0.0701306239 -0.236242995 0.213949546 -0.199825078 -0.0540304109 0.0514063127 -0.0276035219 0.322543293 0.213384286 0.0434489772 0.463262528 -0.0174433291 -0.299712539 -0.439382434 -0.193584412 0.075289689 0.0202787798 -0.255586863 -0.0201788042 0.293667644 -0.215423122 -0.138712451 -0.172496259
-0.179430023 0.504353225 -0.0222357623 0.0711501464 0.135669112 0.523521066 -0.0839507729 -0.178883538 0.225148037 0.279270291 0.515358388 0.169065207 0.0262269937 -0.0689922944 0.133353502 0.213277861 0.203095034 0.0103992205 0.367303163 0.171594545 -0.0128128733 -0.0434897207 0.0291076135 -0.149497405 -0.222982302 -0.139886081 0.214893058 -0.0607409589 -0.095928669 -0.0538596995 -0.276904076 0.212001875 0.252539426 0.523066163 -0.0395919643 0.0784751102 0.195543185 -0.0185859688 -0.17691581 0.309359103 -0.0152323423 0.0615096092 0.0299277287 -0.0146247037 0.0832294002 0.184531659 -0.218858466 -0.0174254086 -0.0453957617 0.148036003 -0.013216286 0.334229797 0.412502646 -0.0377824642 -0.025879493 0.152310148 0.0469390601 0.0355472416 0.218510732 0.39123258 -0.180925623 0.493432194 0.529219925 -0.115910985
0.148992941 0.294511437 -0.189066887 0.0765314326 -0.254865408 0.275505811 -0.127117991 0.0797760561 0.260705948 0.114825591 0.307415634 0.0500744767 0.725308597 -0.195838168 0.200775743 -0.143301055 0.295032382 0.34009698 -0.0330093279 -0.141561478 -0.126892075 0.163287714 0.339749992 0.228499234 -0.321734101 0.0655912608 -0.00438288087 -0.0842716992 -0.121057503 -0.0671728477 -0.0499302633 -0.159176156 -0.039780803 0.069601424 -0.111074291 0.107098624 0.122607194 0.180626929 -0.0286468174 0.0408342369 0.169720873 -0.0922163948 -0.135669991 0.393435985 -0.306090683 -0.017900357 0.284383118 0.062824443 -0.156731084 0.205686659 -0.371784776 0.304588139 0.0804172531 0.190648362 -0.247628435 -0.143426567 0.442760438 0.0615107268 -0.283164948 -0.03916407 0.0980897322 -0.231262177 -0.260107756 -0.0990595371
0.0127098942 -0.130680367 0.428120226 0.213071302 0.502608836 0.0739258006 -0.132059127 0.337324023 -0.0121274395 0.0539597645 -0.25303334 -0.237772152 -0.0188618004 -0.269970208 -0.337942332 0.344890654 -0.0638473108 -0.279244989 -0.213046536 -0.438200384 -0.114594616 0.0216351282 -0.107305653 -0.235091269 -0.241117477 0.102730937 0.226311132 0.304100811 -0.0456930734 0.311277777 -0.167743444 -0.00241091521 0.0397779383 0.256663233 -0.351297796 -0.0376589298 -0.227500871 -0.490778983 -0.0191522911 -0.0932516679 0.281128138 -0.274794042 0.0196399391 -0.12716049 -0.0950186104 0.0780699402 0.0126470383 -0.403525025 0.438223034 -0.311849892 0.096029669 -0.371329337 0.0504538938 -0.0613822639 0.448665649 -0.186514065 0.0843853951 0.180995136 -0.183991775 -0.28362456 0.319293678 0.296100259 0.223783702 0.237935811
-0.164194584 0.267282665 -0.034645889 -0.0386606418 0.379697829 -0.0273779538 0.129397735 0.241023347 0.503853202 0.04458021 0.140827358 -0.0129050715 0.225962609 0.0878886655 -0.151342824 0.383404016 -0.117682606 0.203985721 -0.0252492633 -0.215142891 0.220234379 0.0555423796 0.387766361 0.300035924 -0.00497708051 0.210259482 0.15192537 -0.0930459872 -0.221439719 0.0761216357 -0.034884423 0.423931062 -0.149689302 0.0332728587 0.151481912 0.447085887 0.326816201 0.292454511 0.0149748204 -0.0248558894 0.0502961874 -0.138108805 -0.120386258 -0.117596745 -0.257003337 0.0373533405 -0.0321303457 -0.0943501145 0.135113001 -0.162932724 -0.236277401 0.394036472 0.16482389 -0.117726497 -0.0105400281 0.261855781 -0.0202313531 -0.152696073 0.3015863 0.134777188 0.235718593 -0.154603884 -0.0412266664 0.00736197084
0.165076792 0.184908152 -0.170670271 0.440231323 0.283474773 -0.0422593914 0.0659006462 0.0991719663 0.237676591 -0.0470633432 -0.15756394 0.177315533 -0.0991998613 0.34884873 0.186829016 0.0175383426 -0.0890963376 -0.144023642 0.0481773727 0.583473802 0.0354406163 0.25294593 0.251338691 -0.121476427 -0.0585709848 0.0871651694 -0.240512043 -0.188955784 0.338674366 -0.199843824 0.31109184 -0.00319229928 -0.183970869 0.288109213 0.309829712 0.0943800062 -0.381053865 0.0766018704 0.041734267 -0.0331089497 0.423549294 -0.0482308492 0.116685122 0.121059522 0.343764096 -0.0759183988 0.371813327 0.234039694 -0.0985349566 0.443860859 0.112393416 0.290002614 0.2271415 -0.0149459234 0.194533557 -0.151927471 -0.155688241 0.33226645 -0.277514726 0.292516649 -0.0280746948 -0.0772637203 0.150569201 -0.218319893
0.136954173 0.0158301815 0.193542734 -0.00273363758 0.208565652 -0.379473954 -0.261953294 -0.18727167 -0.0445018858 0.359544277 -0.253022641 -0.136124715 -0.16087915 0.0261107497 -0.183298871 -0.44941631 0.0584641173 0.0286103711 0.129745185 -0.243594959 -0.189444855 0.250844032 0.0365585983 0.11726258 -0.228243917 -0.0949460417 0.0207576491 -0.227344915 -0.370366216 -0.272924274 0.0370533168 -0.110274538 -0.0514693856 -0.421890795 0.155550942 -0.217848659 -0.119976871 -0.359699517 0.0670520738 -0.17330794 0.322534561 -0.212582126 -0.193135172 0.0258490089 -0.360925287 -0.380671173 -0.345196486 -0.338626504 -0.145746499 -0.161367476 -0.0768091232 -0.190373808 -0.238749728 0.0833655894 0.00979028735 -0.0256237052 0.150551975 -0.128027096 -0.264292389 -0.0671223477 -0.303907126 -0.433175921 -0.322841287 -0.240954578
-0.024628086 -0.175845221 -0.180989265 0.0727636442 -0.35661599 0.0295732152 -0.134107962 -0.272960454 0.200085968 -0.227521792 -0.203651473 -0.0915625319 -0.00579456287 0.178724259 0.295143008 -0.108624227 -0.117592052 0.275345266 0.0804022923 -0.0316001885 -0.0112707987 -0.356304348 -0.041661948 -0.036434155 0.0738468319 0.123379737 -0.0511009023 0.104771487 0.0477986746 -0.0724240318 -0.144668281 -0.0565020181 -0.27024141 -0.157220721 -0.072101891 0.287820756 0.210113928 0.051288195 0.0250862129 -0.0794355646 0.297224402 -0.234001637 -0.0525120907 0.102579162 -0.0452350304 0.229990244 0.303770512 -0.0508778617 0.0664250776 0.16382277 0.399017811 0.263164729 -0.00220646756 -0.132675067 -0.0176357385 -0.00765361777 0.0778769702 -0.139155939 -0.116908379 -0.421477348 -0.30553326 -0.207843184 0.20667994 -0.0724911392
-0.0324526988 -0.277206898 0.154083967 -0.300838292 -0.0726260245 -0.0376825295 0.311047465 -0.301159531 0.0106635168 -0.19266127 0.129833415 0.0247568656 -0.00958462898 0.348347068 -0.267972469 -0.00345255178 -0.00565266376 0.119664878 0.102844901 0.0227684379 0.185111567 -0.448093712 -0.102437094 0.0482528806 0.0427680165 -0.21287331 0.0750451162 0.0152217932 0.234512851 0.038280502 -0.35691154 -0.222330078 0.00699360948 -0.218333349 0.153241143 -0.243544161 0.0177009981 -0.299582988 -0.0693987906 -0.328412414 -0.371833891 -0.0450310521 0.0327943601 0.0838025287 0.0261471812 0.28976661 -0.116230182 0.145985648 -0.0808225796 0.166152298 -0.0479527824 0.172264844 -0.194095284 -0.0337617174 0.134999275 0.270956486 -0.0196000952 -0.291697592 -0.201266199 -0.540630579 0.108274534 -0.0134262629 0.369430333 -0.0798197091
0.140253633 0.158610851 0.013311442 0.271950245 -0.451771349 0.139643267 0.305776447 0.00531814899 -0.204913646 -0.12533699 -0.246799842 -0.336445361 0.0970605612 -0.270527661 0.0872270539 -0.36943537 -0.120281503 0.088312678 0.0841136649 -0.28466931 -0.198091313 -0.37204358 -0.110017285 -0.371104479 -0.131202087 0.085856244 -0.575778365 -0.182090998 0.0864504278 -0.238006532 0.0465385392 0.0944287628 0.0124565149 0.012382783 -0.347381532 -0.23951903 0.0925651193 -0.205580726 0.240215749 -0.00669208588 0.0750057995 0.0379022807 -0.161499351 0.129680395 -0.183227867 0.0317726359 -0.0941626132 -0.198043779 -0.107322894 -0.205674857 -0.0266914442 -0.0352682173 -0.345394313 0.0893088356 -0.468733549 -0.150864452 -0.0936631411 -0.669857979 -0.0946957022 -0.0950842574 0.266068399 0.263774633 0.20714964 0.134578615
0.288365096 0.0740334019 -0.303566784 -0.0171186402 -0.367776543 0.166807979 0.354264289 0.0415208936 -0.0264770221 -0.347677708 0.33807075 0.0853731185 0.014218621 0.0744672343 0.0761747882 0.0587026812 0.256168604 -0.267661303 -0.247402519 0.199567437 0.0342198163 0.14474231 0.117509983 -0.168562412 -0.175470427 0.125898153 -0.298259705 -0.0440556221 0.190802798 0.0413341336 -0.298825234 -0.0783123374 0.189329416 -0.0571910292 -0.216536075 -0.118363366 0.198394418 -0.127423167 -0.0249192491 -0.0064194533 -0.283151627 0.0846314058 -0.227294505 -0.126832455 -0.0841151252 -0.181027129 -0.169043109 0.483191252 -0.129462779 -0.744065821 -0.109780654 0.179047957 0.0732566416 0.315462202 -0.0463941805 -0.0557864606 -0.0558491461 -0.311340541 0.0717091933 0.0144157205 -0.441846669 0.170623913 0.190730721 -0.196750835
-0.00372104323 -0.10976398 0.23562859 0.249520555 0.032150995 0.225696519 -0.253870785 0.350315839 0.0297516994 -0.0242817067 -0.162813857 -0.184883609 0.201402575 0.291166306 -0.345941573 0.0481973551 0.248477578 -0.0767985955 0.21790354 0.0984033421 0.268507898 -0.143797964 0.18912518 -0.0349032953 0.255059391 0.395089149 0.260241747 0.35924232 -0.269108295 0.0167602319 -0.333385199 0.0771734118 0.422559768 -0.254172564 0.0555176809 -0.162126958 0.0188989509 0.0647918805 -0.325009495 0.187468335 -0.288810104 -0.150141612 0.0120327203 -0.0298725497 -0.454915434 0.0806589499 -0.250640661 -0.110220179 -0.0887622237 0.0387223288 0.315405697 -0.17023547 0.0517694689 -0.112002775 0.0233634897 -0.0351934247 -0.188778535 0.502430856 -0.469988823 -0.0710436702 -0.144628823 0.213496745 0.0913676322 -0.147984043
0.064844124 0.0196928773 0.144178286 0.185148269 0.115417682 -0.472664088 -0.131999016 -0.0376801342 -0.0268073175 0.292043954 0.298547864 0.0148343071 -0.211299032 0.287629783 0.401109606 0.0318433493 0.254138112 0.325409889 -0.0680667162 -0.238080621 0.297183156 -0.0848957598 -0.21234104 0.0838560462 -0.140891045 -0.276739031 0.201386154 -0.147616982 0.00218792469 0.00151857105 0.137599438 -0.127329424 -0.364171416 0.0752201751 0.31071946 -0.217122763 -0.0755410418 0.227356836 -0.148040354 -0.000660358695 -0.109170035 0.325866997 -0.00782567635 -0.0550771877 0.179212973 -0.356411308 -0.231990308 -0.128319502 -0.247229144 -0.0367568769 -0.360708296 0.329990208 0.186553091 -0.0305722244 -0.313508928 0.0854638815 -0.240617231 0.0288485195 0.0282514971 -0.163217872 0.13168402 -0.0949225798 -0.386080205 0.016544586
0.0952972844 0.0751695409 -0.132286429 0.283284992 0.0651763752 -0.174802214 0.248071387 0.024385538 -0.195718825 -0.0783124641 -0.0635951608 -0.128661424 0.0238406379 -0.255735487 0.0473207496 0.31696555 -0.0737325549 -0.142666176 -0.128995046 -0.211389586 -0.31267938 0.206244141 0.402518213 0.22194688 0.0647315159 0.113073781 0.0339531898 -0.119966067 -0.101108111 0.00939663593 -0.00114962331 0.223370895 0.0274130814 -0.208280295 0.219062299 0.298553705 0.25832808 -0.0618760139 -0.172327325 -0.148064688 0.189067736 -0.348800004 0.0120049315 -0.1161144 0.466886699 -0.0999850631 0.578660965 -0.11825446 -0.160709232 0.017779639 -0.0236143675 -0.235267401 0.230320632 -0.084343493 0.347445011 0.0246324353 -0.389858902 -0.264612824 0.0313324742 -0.0818745866 0.219211772 0.163203642 0.0646496266 -0.0961677507
0.170590043 -0.192531422 0.147379592 -0.101699628 0.129786447 0.132431328 0.315060884 0.26472941 0.206902117 0.245188043 0.339956343 -0.0395157821 0.0577390604 -0.0351361781 0.310800761 0.440545559 -0.122674838 -0.129425809 -0.00595998624 -0.0202493872 0.0262176171 -0.0201151036 0.190856516 0.0483968481 -0.0754469186 0.146171004 0.0826689228 0.325597376 0.073902905 -0.144110501 -0.0767044798 0.0935036168 0.400281906 0.257419735 -0.0277651288 0.286555022 0.136623845 0.267350823 0.024742743 0.32982105 0.222180858 0.127381101 -0.118175805 0.126396537 0.00260628108 0.108718723 -0.11576689 -0.0947174802 -0.0184152648 0.110258982 -0.0492357761 0.0486184917 -0.03672719 0.105468228 0.0665509701 -0.0512819216 0.0225191154 0.143042281 0.093436338 0.090955168 0.221375838 0.075375028 0.408265859 -0.138368711
0.0734556541 -0.0539358929 0.116704002 -0.307731062 -0.376671165 -0.221742615 0.0222079027 -0.164240241 -0.160119429 -0.132842854 0.167316899 0.227380633 -0.240196213 0.0623143315 0.163595662 -0.0624732263 0.224298328 -0.0707526952 -0.214267567 0.235281274 -0.260395736 0.0602996089 -0.483436614 0.115809575 0.126308098 -0.245905221 0.0834592059 0.3994596 0.257230103 0.219345585 -0.160050601 0.0854603276 0.252017409 -0.141258061 -0.0940561444 0.20917967 0.115782425 0.226665035 0.111691527 -0.0395099446 0.284347802 0.141401142 0.0767547116 0.0962191597 -0.0692749843 0.190460518 -0.28248471 -0.254310161 -0.144007817 -0.145912141 0.00123337447 -0.0154491365 -0.162226275 0.113272458 -0.377018273 -0.14707844 0.345006168 -0.121067934 0.357909948 -0.110738978 -0.461002499 0.247286305 -0.0654494539 0.305594742
-0.118091494 0.398430645 -0.100097522 0.142687783 0.0315098129 -0.0239675045 -0.063951537 -0.0374636166 -0.220443815 0.0113068493 0.356932342 0.392444283 -0.111118585 0.10509792 0.264632165 -0.00774711277 -0.223004803 0.153166816 0.0328870378 -0.0449218899 -0.451250672 -0.0733951852 -0.315008938 0.187401533 0.259961575 0.273202688 -0.0513459854 -0.272497952 0.0712541118 -0.205155984 0.300256073 -0.036856588 -0.322057307 0.18046841 -0.174640745 0.31649366 0.094103314 0.151770353 -0.38914907 0.0926877037 -0.0653778464 0.0242166184 -0.0112256762 -0.11547447 -0.103699557 -0.394978732 -0.337654352 0.0963615477 0.286365062 -0.273043275 0.172367632 -0.152799204 0.22386767 -0.0259213168 -0.0338690355 0.011918542 0.137432069 0.0709741563 -0.0403643101 0.319186509 -0.233876675 0.181281283 -0.13136223 0.152917013
0.150071815 -0.128734291 -0.0677868798 -0.0418378524 0.00924842432 -0.370189101 -0.0867961794 0.0321504548 -0.470417559 -0.160104975 0.304344445 0.10373529 0.0063674082 -0.523935437 0.161897689 0.0877495557 0.199268565 -0.0761264786 -0.384097517 -0.0733653232 -0.0373416059 0.216156274 -0.114435576 0.0763721019 -0.221974805 -0.0745530054 -0.0743729994 0.0431088433 0.0453228019 0.188183218 -0.27694875 0.203554824 -0.164398834 -0.0935892835 -0.210793853 -0.0147706158 -0.579950452 -0.552214921 -0.0892733485 0.280651331 0.269402474 -0.219578803 -0.488435954 -0.236135378 0.224707305 0.0250413604 0.0363084152 0.0604479201 -0.188729495 -0.00160941877 0.177555963 -0.166251272 0.0874071047 0.116593868 0.0835529417 0.25117752 0.0260723941 -0.186535776 0.317603827 -0.2953071 -0.390924364 -0.239848867 -0.105600245 -0.278222471
-0.02982454 0.190840393 0.114333734 0.0859149769 -0.0684581175 -0.417269289 -0.0960613787 -0.0329261534 0.258085698 0.189833477 0.199256748 -0.194326684 -0.276378006 0.227153033 -0.294816375 0.125073344 0.0952053443 -0.249956012 0.349767357 -0.393918037 0.0140219824 0.0735511705 0.313083827 0.00383099611 -0.204553932 0.123361066 0.191163227 -0.187787786 -0.128944099 -0.448850214 0.156995252 0.353941053 -0.321485281 -0.275388151 0.0488754511 -0.0745825469 -0.266871691 -0.0929068998 0.406045437 -0.188610032 -0.355849236 -0.256212205 -0.0448908471 0.069150649 0.049775593 0.0841878951 -0.0588507988 0.134165734 -0.381612986 -0.130658105 0.119840786 -0.143526182 -0.0532584712 -0.0275195427 -0.246733859 0.352172434 -0.467122257 -0.423721969 0.0535101816 -0.0317639485 0.106866322 -0.00523593929 0.122374579 -0.0826828405
-0.0225015171 0.114804253 -0.00710555352 0.182219565 0.110520892 -0.125713214 0.0653313324 0.0458486862 -0.0380211957 0.00402467279 0.058906775 0.333139718 -0.320260823 0.299449116 0.144427195 -0.118637793 -0.250649899 -0.170974404 -0.101892799 0.147724628 0.2509875 0.102586851 0.076540038 0.0203790907 0.381558686 0.0118064936 -0.152881011 -0.162666112 -0.263734162 -0.013939661 0.254964679 0.0678298101 -0.159101129 0.0929524153 0.175572306 0.244977668 -0.110756628 0.217557251 0.145109609 -0.302964211 0.353496909 -0.253447324 0.217265666 -0.056134969 0.325194627 0.389257103 0.00421451358 0.210698754 0.142995104 0.0990068838 0.416600198 0.192413896 -0.393712759 -0.230887249 0.0716636404 -0.224036515 -0.0822202787 0.144987449 0.205653742 -0.243275121 -0.558084905 -0.238473356 -0.107722387 -0.152521178
-0.277546465 -0.0361665487 0.166315824 -0.0187080186 -0.0216683093 0.364042968 0.0587821938 -0.261742115 0.146265835 0.134700432 0.179953948 -0.130904362 0.0630043745 0.0207340233 0.240616053 -0.308720589 0.154251978 0.126157984 0.252964079 -0.23562637 0.0183151364 -0.323925972 -0.14827092 0.184838906 0.191178456 -0.0790952295 -0.015182809 0.153853595 0.294000387 -0.284034133 -0.00201362488 0.321426272 0.338052332 0.0639704913 0.357726395 0.141866803 0.157776341 -0.294437766 -0.126285091 -0.178898826 0.0847974569 0.42140907 0.41130504 0.0275227409 -0.335461974 0.171181664 0.253593028 -0.366417229 0.0934285074 0.130400881 0.0294820871 0.175284103 -0.0322213322 -0.025038138 -0.289577067 -0.258576274 -0.35882166 -0.0903559923 -0.0205984525 -0.0621084422 -0.078026548 0.0536685996 0.200806811 0.0342671387
-0.293316036 -0.248827696 0.0278442353 0.27302134 -0.281371295 0.0784567744 -0.00913323741 -0.306347668 0.2327393 -0.18118839 0.128467306 0.226072088 0.183400765 0.00298653124 0.176355094 -0.335646421 -0.319454849 0.238993868 0.182745546 -0.182593882 -0.0453884229 -0.033381097 -0.426027745 -0.2049665 0.166247368 -0.470286995 -0.0515381768 -0.190551445 0.174633145 -0.0428724885 0.204453602 0.266736835 0.0918309465 0.170506388 -0.0627509654 -0.358771592 0.0707540959 0.311693102 -0.211798161 0.0701544806 -0.0392371193 -0.376695752 -0.00497291051 0.0441338755 -0.274281919 -0.470620185 -0.415788084 -0.0214077812 0.176691875 -0.203674808 -0.293196589 -0.0839485079 0.321429789 0.0135747036 -0.312757581 -0.051129546 -0.101989284 -0.0716383308 0.0989505798 0.285744399 -0.0542338043 0.149691001 -0.186188653 -0.0217034444
-0.221064135 -0.205652282 -0.030506935 -0.290483296 -0.139154091 0.165781468 -0.0167278741 -0.193694547 0.199064597 -0.260703802 -0.281228691 -0.339464039 -0.00450172462 0.106870309 0.0304412637 0.425861239 -0.0731950924 -0.106690422 -0.305794656 0.13991639 -0.158766225 -0.0763949156 -0.317826897 0.0588667169 -0.0418073535 -0.156280965 0.235087082 -0.325517774 0.207754359 -0.125928685 0.184717998 -0.15354386 -0.0984305963 0.0131162647 0.145310923 -0.241229177 -0.0235876571 -0.453753442 0.0818737745 -0.0956325158 -0.23619087 0.216763556 -0.292892963 -0.0258093458 0.0199160874 -0.108562261 -0.387372524 0.141322464 0.217288852 -0.029319752 -0.0240633991 0.0744213685 0.00575725222 -0.179294989 -0.0079169888 -0.067590259 0.186110929 -0.0571281053 -0.268259704 -0.212761134 -0.115213931 -0.092000477 0.218058884 0.176510081
