# shape: 64 32
-0.0428015292 0.180227295 -0.159049422 0.10471455 0.00345206144 0.149718836 0.451504558 -0.16730012 -0.0974858105 0.283924639 0.219975978 -0.255822688 0.241638333 -0.0609825477 0.0141259627 0.292402953 -0.184347749 0.302187771 0.375907451 -0.0706200898 0.0507274754 -0.214595452 -0.235987544 0.219678357 -0.0172445476 -0.0828813985 -0.219290495 0.354281157 0.107353553 -0.206701949 -0.324928612 -0.00702125439
0.0424043462 -0.107687123 -0.0248438828 0.100662559 0.0658091605 -0.223202467 0.242118716 0.0729598626 0.171342403 0.0189819261 0.188164175 0.0713509619 -0.231237262 0.352208674 0.0286573563 0.0204163902 0.187701419 0.18865557 -0.277903825 -0.0569855943 -0.132846624 0.0326216221 -0.00929971505 -0.0485335812 -0.188207999 -0.211729988 0.257882595 0.0156576168 -0.0164220352 -0.0518180206 0.224881113 0.143175617
-0.00319131929 -0.236433625 0.154232651 0.198007911 0.126146778 -0.146212459 0.0501448587 0.223466769 0.158583581 -0.00620516762 0.0778581128 -0.0857936367 -0.0125234397 -0.0289650485 -0.188166484 -0.133870393 -0.257876843 -0.061461892 -0.0657655001 0.388776153 -0.0757270902 0.292993367 -0.128952459 0.150017932 -0.305181146 0.425403416 0.164499536 -0.234165192 0.260397881 -0.0218069702 0.113774255 0.282513082
0.014973389 0.290607989 -0.190461457 -0.0351648256 0.0306431446 0.127856627 0.142307535 -0.229123831 -0.217148617 0.0318422094 0.261743188 -0.279217243 0.147713065 0.188942045 -0.382666051 0.333973736 -0.0588499159 0.148634613 -0.0822569132 0.123620391 0.140633956 -0.272368968 -0.275111675 -0.0956607834 -0.0862883925 -0.0913695768 0.271068841 0.210464165 -0.268379718 0.0367146507 0.0172905009 0.121847399
0.214879349 0.0679577067 0.411912292 0.36847502 -0.0957896635 -0.0250523295 0.134382337 0.00809945073 0.266100138 0.0692861006 0.0605804138 -0.0141787743 0.04065907 0.349383652 0.0239107274 -0.243124485 -0.124666676 -0.0141772237 -0.0612419844 0.0627845824 -0.0847226903 -0.497304022 0.135250077 0.057608597 -0.0762951374 -0.0483512767 -0.077852942 -0.0510752834 0.00151863298 0.0416314453 -0.259001702 0.0158770029
0.0808888897 -0.225165993 0.0199092198 -0.211198866 0.437476724 0.0649045408 0.169903666 -0.0373090431 -0.220086426 0.298250318 0.191455841 0.0566928051 0.13800934 0.238970354 -0.139036819 -0.393927813 0.132325009 0.155636102 0.305096805 -0.0151764974 0.151771665 -0.177787632 -0.165443689 -0.0454935841 -0.343400538 -0.275076509 0.194807842 -0.202184156 0.0287337508 0.224026531 0.258410364 -0.187448502
-0.327877611 -0.14953506 -0.0395128205 -0.204586998 0.419244409 0.159592003 0.171423033 -0.377698809 -0.173876971 0.0152294105 0.192778945 -0.197980911 -0.192768961 0.328644484 0.13519071 -0.0306298248 0.176510707 -0.265373737 0.258734614 -0.0327005051 0.199253097 0.2780568 -0.112148643 -0.0080415085 -0.239935726 -0.0797474682 0.245389879 0.147048965 0.23386775 0.316849649 0.261751771 -0.330278784
-0.173623219 0.318042725 -0.139127448 -0.155691251 -0.0222275555 -0.0129531762 0.0273857359 0.174308583 0.237658128 -0.0977622494 -0.29576984 -0.127901867 -0.0481092818 -0.117174417 -0.20653607 -0.102460541 0.18988651 -0.157378569 0.323166013 0.197742745 0.0201784819 -0.0679762736 0.0612921454 -0.106283322 0.0807440728 0.17794016 0.288530409 0.221321926 0.112030245 0.236399785 0.0506484844 -0.344457
-0.07140591 -0.240763873 0.426382303 -0.0247209221 0.118560173 0.060691651 0.0657593831 -0.359080642 -0.010580441 0.380906701 0.421794444 -0.214742497 -0.0181104485 0.148181826 0.165429324 0.266828746 0.0264786351 -0.0950389281 0.165522888 -0.0334096663 -0.0615895204 -0.0358066335 0.427992284 0.0604863651 0.00950007234 -0.344167054 -0.0849395171 0.217776537 -0.0485705063 -0.261401802 0.051369749 -0.0422572233
0.0806649178 0.034990292 -0.131442875 0.241518661 0.208079562 0.265885741 0.143826202 0.128152043 0.133611187 0.00641566329 -0.0675711781 0.0485949665 -0.188137606 -0.159413084 -0.0851932168 0.0260380264 -0.151859835 0.276216209 -0.0222310442 0.0489228591 -0.0376230367 0.230941519 -0.14665778 -0.0757673457 0.0951813087 0.277742803 0.264428586 -0.0643900856 0.0224000048 -0.0744629949 -0.246273175 0.0394584201
-0.0836808383 0.0627936125 -0.228743747 -0.135484412 0.285149962 -0.00162491284 0.12679936 0.0644970983 -0.00404990604 0.184414402 -0.312583536 0.207679957 0.122719079 -0.185976088 0.11011935 0.245912731 -0.0932239294 0.0773528367 0.177927941 -0.028903747 -0.16593878 0.154668853 0.137174234 -0.403836578 0.279672861 0.17365019 0.129312739 0.0226027556 0.124331102 -0.107789747 0.284629166 0.25285092
-0.0749537125 -0.0631199703 -0.0634306297 -0.108885594 0.295307487 0.0310978871 0.126443222 0.0731900856 -0.216334313 0.00569604943 -0.0794352368 0.0616215467 -0.162720978 -0.252171993 0.276420563 0.354678601 0.284125805 -0.105974771 0.135356665 0.0434838794 -0.00166643132 -0.122065574 -0.132118568 -0.165006846 0.367049783 0.190050557 -0.0524181016 0.229837298 0.0744930953 -0.394163132 -0.158961803 0.432760745
-0.145918533 0.0906248391 -0.283715606 -0.0970017835 -0.0208706073 0.177750453 0.106690705 0.0124703823 0.0227185804 -0.357550174 -0.345157057 -0.167853206 0.130531549 -0.0498622693 -0.0591206588 0.0933825001 -0.218367636 -0.0346955173 -0.179500788 0.217923418 0.302521437 0.170306578 -0.0639669597 -0.0553583987 -0.0999173224 -0.17645894 0.0250065625 -0.323346138 0.104326926 -0.487357974 0.0770894364 0.140805677
-0.192305729 0.227391347 0.106261574 0.0267276336 -0.0934634358 0.0183802843 0.0876061246 0.00849126279 0.223588362 -0.491343975 -0.0544926412 -0.0810384452 -0.126589939 -0.163237482 -0.101955429 0.0964007229 -0.0415087305 0.320582449 0.114230588 -0.0687046275 0.0290077701 0.0364619642 -0.141693741 -0.0141964415 0.031621743 0.169395968 0.00866899919 0.14324069 0.346438885 -0.308316231 0.279308528 0.0074184793
0.0834034532 0.438942015 -0.0834124386 0.133516654 -0.137349218 -0.0294273384 -0.0201847497 0.281426579 0.143519759 -0.134583771 -0.217880368 0.0781002492 0.0813331008 -0.0087088393 -0.119368307 -0.0995804891 0.184616834 -0.367703468 -0.143175051 0.18034716 -0.185859904 -0.419280857 -0.175155163 0.00777901383 -0.0867583454 0.341394365 0.106655829 0.169406459 0.38559413 0.0603447556 -0.0676071122 0.189661443
0.257752627 0.199555188 -0.277531266 -0.00934564881 -0.267627388 -0.216023475 -0.316273063 0.0241972059 0.348535061 -0.47465381 0.0873114541 0.0151523547 0.35831216 -0.15472272 -0.0827817246 -0.0588673539 0.0138174081 0.0998169556 -0.118458316 -0.119113393 -0.0423547886 0.0673540384 0.160460338 0.136079699 0.155776411 0.134446651 -0.10908851 0.12112876 0.0643921643 0.136319935 -0.0269448739 0.013342673
0.216710821 0.145661131 0.365822762 0.155109882 -0.238338977 -0.443865031 -0.102573052 -0.00500712218 0.237492427 -0.159287646 0.103694968 0.252997398 0.285055757 -0.172531456 0.0502342097 0.110325217 0.304910302 -0.0693916902 0.0842462853 -0.282385051 -0.332845747 -0.226644188 -0.0368298739 0.0878499076 0.00510827312 -0.133766398 -0.110314205 0.0406309552 -0.145570368 0.0408097953 0.0428072698 0.00793415308
0.170760676 0.1882651 0.155009702 0.155685797 0.0632597506 -0.0376012363 0.162410691 0.296393514 -0.04424854 0.328734308 0.239525408 0.19466044 -0.171518728 0.40456304 0.102794036 -0.146290824 0.133450717 0.143436015 0.0183782242 -0.532837272 0.00464842841 0.28721109 -0.0555993356 0.148250774 0.184689015 0.0282528885 -0.00300531136 -0.0862986669 -0.0800917819 0.282133371 0.175209418 0.160364136
-0.141697899 -0.13979508 -0.0672644898 -0.433645219 0.241287231 -0.0661774874 0.208803073 0.31500566 -0.03534941 0.0235000029 -0.217733622 -0.0655859187 -0.079874672 -0.160452291 0.193630487 -0.384014249 0.18043223 -0.225358963 0.239896014 -0.160157591 -0.334578037 -0.169051826 -0.0156495124 -0.20059967 0.0586778298 -0.0772718787 -0.0819615349 0.532278359 -0.161819384 -0.0404012725 -0.138467371 -0.110293858
0.091359891 -0.200085998 -0.248328045 -0.0402161032 -0.225129575 -0.244189978 0.36870122 -0.0947297588 0.109696306 0.0697567239 0.298166007 0.0503958389 -0.0819049627 -0.0688256547 -0.0801155493 -0.00602038344 0.0196845066 0.0834572539 -0.0860515758 0.314431667 -0.210072473 0.048011899 -0.0295440704 0.323208988 -0.397516876 0.130059868 -0.37403208 -0.197173059 0.21826008 -0.236691251 0.292379618 0.25698179
0.363685012 -0.12180911 0.416595608 -0.127141491 0.0774042234 -0.00793419406 0.0365774371 -0.224286139 0.0126953116 0.146213844 -0.22251147 0.0334481187 0.257816315 -0.200620592 0.244608253 -0.0552016385 0.0630988106 0.112683773 -0.0459292717 -0.0961989686 0.244395882 -0.182713315 -0.141603038 -0.164513409 -0.397790402 -0.023108989 0.273360491 -0.122580588 -0.00488218525 0.0380618088 -0.045110818 -0.0386167727
0.284966081 0.206226498 0.0797820613 -0.233082414 0.0401665568 -0.190440819 -0.227797508 -0.0992770642 0.151650816 -0.0165960528 -0.221511483 0.360650152 0.182427764 0.260495663 0.13760674 -0.415302843 0.452322602 -0.00779907545 -0.00834619626 -0.26060307 0.100096352 0.153596491 -0.017875392 -0.0785997137 0.18279542 0.388487607 0.0621025003 -0.173813075 -0.0853073895 0.278541416 -0.126135722 0.37358737
0.129526198 0.0375620201 0.12923871 -0.0531919003 0.20856227 -0.437837839 -0.131339028 -0.0663047209 0.168451875 0.0883586034 0.251859248 0.0707764253 0.126345783 0.0104412157 0.152554214 0.192694426 -0.157600939 0.260890663 0.242768183 -0.084914729 0.169837683 0.217034042 0.0671679899 -0.332524538 -0.118454844 -0.189837739 0.195728987 0.129727408 -0.22237359 0.307346374 0.0958260223 -0.0565122552
-0.257540941 -0.107483201 0.187105715 -0.0160902776 -0.0234207362 -0.0723584071 -0.161641717 0.158993483 -0.372399062 0.239224523 -0.394068092 0.0409307405 -0.12041501 -0.259484023 -0.210812971 0.0154241277 0.141430557 -0.0313180834 -0.116903342 -0.223796695 -0.113934122 -0.152214974 0.226075217 -0.099136658 0.0654446557 0.0818940476 0.159249544 -0.240990743 -0.171762526 -0.279478848 -0.126814663 -0.0374745354
-0.150476173 -0.320255667 -0.0796839222 0.00752608338 -0.0416351482 0.0949835405 -0.0308099594 -0.000766797282 0.0906483904 0.178364769 -0.0294063687 0.137223989 0.19964163 -0.352235079 0.323137194 0.0222187862 0.192595825 0.554884613 0.370641261 -0.341264248 0.289164454 0.160933882 0.292797118 0.0323801599 -0.290585309 -0.114405446 -0.0154312449 0.357266247 0.0177795757 0.378340781 -0.0448567048 0.00835052412
0.261168063 -0.0758945942 -0.37487042 -0.466015726 -0.198683217 -0.0268280096 -0.286498755 0.263398111 0.12450517 -0.221148089 -0.276463866 0.215002522 0.0101520773 0.0982869565 -0.063993983 -0.179782927 -0.355764776 -0.17043741 -0.087360099 -0.106749639 0.0787840486 0.165080696 0.320783615 0.0730357692 -0.188747004 -0.280229658 -0.176901981 0.136542365 -0.125834271 -0.0876229852 0.182724267 -0.325925529
0.0827617496 0.246696889 0.0479047932 -0.29867962 -0.0629560947 0.122330785 -0.431446165 -0.329120398 -0.120010965 0.0101393703 0.25066331 -0.0949681997 -0.133244947 0.254074574 -0.111657612 0.0683663934 0.369231254 -0.0564539656 -0.0132660866 0.267513454 -0.177578911 -0.0883117542 -0.310681492 0.0617239997 -0.19758074 -0.0591537915 0.0388442576 0.0475870185 0.0375137515 0.320463568 -0.448267788 -0.0271990001
-0.132212624 0.242580265 0.0706444159 -0.0336717293 -0.0622810237 0.0445708334 0.109082326 0.267847717 -0.12080808 -0.193643942 0.080565244 0.116647683 -0.13549161 -0.133501872 -0.1992663 0.0257571451 0.286146104 0.0169514548 -0.319470555 -0.0326475576 -0.241118953 -0.00975455716 0.0851797089 0.15252386 0.303323925 0.247154608 -0.117855929 -0.421561003 -0.0525295958 -0.122741006 0.244530216 -0.0314216167
0.034865573 0.250368446 0.0559964813 -0.0447349176 -0.211527199 -0.257735878 0.026368659 0.294342071 -0.218753889 0.0824002028 -0.155619681 0.140675902 -0.186370939 0.088144742 -0.105211899 -0.0727200061 0.34605822 -0.181004658 -0.253982693 0.212805033 -0.459822446 0.063740395 0.237167314 0.146257564 -0.00956008025 -0.19363749 -0.00553628337 -0.177737787 0.180150375 -0.350064009 0.107890733 0.419067711
0.0495255403 0.0715981051 -0.0481022522 0.173027575 0.0156867001 0.285297215 0.0416339524 0.153690532 0.000566051574 0.135694385 0.15711835 -0.0997021869 0.157401547 0.0815430507 0.162508219 0.235571444 0.133008033 -0.135108292 -0.0741726309 -0.202871621 -0.138321638 -0.338787794 -0.01318995 -0.00658816285 0.025366839 0.303754896 -0.0300425254 0.490869462 -0.0451297127 0.210836872 -0.26216504 0.00790674333
-0.493371904 -0.10210678 -0.444788128 -0.232065141 0.563952506 -0.201681137 -0.222496048 -0.0807128921 -0.31065014 -0.38439253 0.224515975 -0.116269976 -0.0114353718 -0.117921434 0.186010331 -0.0793118253 -0.131065667 0.325514376 -0.058172036 0.0999437422 0.290597677 -0.354204625 0.156161591 -0.163511023 0.00745908171 0.403643161 0.178380206 -0.223493665 -0.305943072 -0.127350569 0.126414493 0.357413203
-0.282618403 -0.197615936 -0.0142697208 0.00266192574 -0.11314366 -0.144648865 0.104023345 -0.0960001871 0.162040696 0.126447588 0.152237639 0.18108575 -0.0529285446 -0.109379046 0.0638716295 -0.0813425183 -0.151153266 -0.0472845957 -0.0824098736 -0.282471269 -0.190393239 0.375121146 0.225175157 0.0915951058 0.0400493778 -0.124742307 -0.0310277455 -0.351518184 -0.0420764647 -0.0676782578 -0.0791902319 -0.0844523311
0.27149874 -0.467541635 -0.107999995 0.127620906 -0.0469975397 -0.05657956 -0.204281613 -0.226544276 -0.0374255963 -0.0116884885 0.0515613779 -0.118725054 0.135341868 -0.0908048749 -0.291495085 -0.0694565251 -0.273630321 0.177389488 -0.0675403401 0.0140217403 -0.148294687 -0.0631734431 0.0478640683 -0.126066908 -0.241611198 -0.383703291 -0.188209355 0.0156246126 -0.279264152 -0.0265662186 0.037510667 0.107431158
-0.0187709387 -0.300039381 -0.0762897581 0.0247055832 -0.0342690349 0.176822662 -0.0442540385 0.193363637 0.0601617843 0.17476514 -0.195290804 0.181382924 0.0301297344 0.161701471 -0.288793921 -0.0991786867 0.280537009 0.0623270012 -0.244420454 0.0445747524 0.18408592 -0.0445640758 0.259439856 0.0530324243 -0.400360644 -0.237774327 -0.163821504 0.179353088 0.198474631 0.128129318 0.157526433 -0.0403438359
-0.0664805472 -0.235827535 -0.0761287659 0.0521677658 -0.211349413 -0.0718677118 0.0932630524 -0.266307145 0.0119384443 0.270009756 -0.0459207185 -0.138860077 0.260114163 0.0854957998 -0.227208227 0.275428981 0.164116457 0.459671736 0.523617506 0.130265787 0.0981242508 0.230668142 0.233641759 0.039359767 -0.173391864 -0.172214016 0.24982205 0.444806367 0.0168641899 -0.0916473046 -0.0644399077 0.119012415
-0.151657537 0.00427676504 -0.111953549 -0.0399763621 0.291377455 0.0404381827 0.138944283 0.155320093 -0.301003516 0.0420327857 0.191884175 0.241703451 -0.0335099883 -0.317301363 -0.0600946359 0.0570769422 -0.0844494551 -0.0289186612 0.207252964 -0.280937731 0.420695007 0.0980026498 0.143226221 0.33485207 0.0543325283 -0.202852085 -0.158323824 -0.0999476239 -0.313066155 -0.055780936 0.22935392 -0.0478429347
0.0301734116 -0.262014985 -0.015458487 0.0609277412 0.320052713 -0.121129088 -0.149672553 -0.27801311 0.205050498 0.228154451 -0.28443566 -0.195504025 -0.142196029 0.0970901772 0.00227708789 0.233717903 -0.242574021 -0.128745586 0.13501215 0.180007473 -0.113533229 0.0500200689 -0.082959868 -0.269826174 0.382541984 0.105920456 0.272898495 0.0216454864 0.225557432 -0.207532093 0.148112893 -0.271433383
0.141052127 0.0488634259 0.302155554 0.106887884 -0.14525713 0.330320299 0.0244287401 0.176664904 -0.182007015 -0.162994787 -0.372932315 -0.0514563695 0.0193812493 0.233618543 -0.107146524 -0.0242848676 0.263301909 -0.00135976146 -0.233919799 0.242427185 -0.046049729 -0.305896193 -0.0862591267 0.196496218 -0.379320681 0.36096862 0.193529233 0.32112202 0.206432447 0.105806984 0.0791181847 0.150257409
-0.288452238 0.0734839737 0.0214095246 0.379130006 0.0651557818 -0.0459991992 -0.101164058 0.0507483408 -0.134840876 0.247878984 -0.0505891368 0.221436426 0.0132751949 0.0219888296 -0.100638337 0.087351732 0.355103701 0.17856206 0.203214467 0.201665938 -0.243369132 -0.142547831 0.0877459422 -0.0174487382 0.0515694954 0.0519926958 -0.117254905 0.220470309 -0.387688249 -0.0205102935 -0.374132812 0.0673171133
-0.153721318 0.140003949 -0.387526602 0.00524948258 0.181320935 0.464950442 0.219975069 -0.190030679 0.106204093 -0.259705395 0.0447457954 -0.348199964 -0.312051833 0.0396997817 0.109983802 0.362137586 -0.411747456 0.38816607 0.137595788 -0.0678074211 0.092751056 0.0664348826 0.00684890011 0.327684075 0.068340756 0.190071166 0.0727786049 -0.214109749 -0.275001287 -0.0527351163 0.194219515 0.026535606
0.0111509291 -0.0267103724 0.263778776 0.203539729 0.174468949 -0.350258946 0.271959096 0.0975472778 0.0587342083 0.25650081 -0.164868042 -0.264459372 -0.204059392 0.178731874 -0.107842974 -0.184854999 -0.245047212 0.0948853344 0.0504246689 0.16152896 0.0401154608 -0.0152861411 0.243657112 0.161081016 0.0605395325 0.171021104 0.127680227 0.0741097629 0.281685531 -0.159021139 -0.139382944 0.0452072285
-0.101770282 0.0568999834 0.237367138 -0.0910085812 -0.0458247066 -0.106295615 -0.182257771 0.241661221 0.0363862775 0.323056966 -0.0310939923 -0.030773716 -0.141159683 0.0251086913 0.00933651533 0.136059016 -0.226648673 0.102224633 0.397886872 0.303847194 0.16740714 -0.119137272 0.183531344 -0.480469435 0.220870033 0.121623382 -0.257291079 -0.0763250366 -0.179437637 -0.0921408087 -0.0992502943 -0.115890794
0.0456963517 0.0889424309 0.0744755194 0.0574687794 -0.217183501 -0.232721537 -0.0993666425 0.0302096438 0.116889745 -0.16836679 -0.228668347 -0.218165636 0.238372952 0.0596910678 -0.182461753 0.233723715 -0.142554909 0.0363803171 0.201124758 0.24732092 0.159354582 0.049333185 0.396186233 -0.361762315 0.110642582 -0.232707649 -0.153694034 -0.150166273 0.0719598904 -0.0756099522 0.0589064583 -0.456531703
-0.111293241 -0.290969878 0.290093601 -0.113526247 0.215358734 0.194766298 0.205830336 0.0112057496 -0.122626103 0.175043926 -0.0851474926 -0.285158247 -0.226410821 0.135098323 0.0883493498 0.0718089491 -0.0756472871 -0.246942908 -0.192968845 -0.0679335371 -0.242171541 -0.111539349 0.0755421072 0.248599172 -0.150842831 -0.00679112505 -0.0386777781 0.161589727 0.0472143106 -0.0199470278 0.187575132 0.109384507
-0.111294433 0.159834936 -0.146941751 -0.143751442 -0.330199689 -0.0284277443 -0.279842675 -0.102553204 -0.362568527 0.000318686973 0.159583047 0.280225426 -0.224338189 -0.231223688 0.14434655 -0.00362271699 0.402811855 0.160267979 -0.493315101 0.158732995 0.430927902 0.168161184 -0.0833074152 -0.0824227706 0.273226172 0.276260585 -0.166764304 -0.210173234 0.122574568 -0.524544954 -0.166335568 -0.148586273
0.108317897 0.216896981 0.132816002 -0.143826276 -0.251541048 -0.0362968706 -0.0737219304 0.275945067 0.283041 -0.0193727929 0.187665328 -0.00633699819 -0.0460672341 0.158403337 0.0455320328 0.357527226 -0.0921262503 -0.0895864591 -0.252229989 0.225843012 0.0172086675 0.140571311 0.0159160737 -0.0587784052 0.179600403 -0.105035163 -0.00521654682 -0.300467253 0.171936899 -0.203149855 0.0520683378 0.19918637
0.242524162 -0.140406072 -0.226181641 0.131852388 0.29074645 -0.120278515 -0.285102457 0.0669866726 -0.233311892 -0.0275530647 0.0944079384 0.0190841388 0.106121935 0.0734212175 0.12975511 0.0673727319 0.032084059 -0.116733581 0.293723404 -0.366953135 0.431031555 0.264033854 -0.23741971 0.239374712 0.112929873 -0.150381401 0.240136668 -0.215004981 -0.307704449 -0.130330369 0.237954527 -0.186349809
0.0236652736 0.209390476 -0.196309775 0.0309416018 -0.563482523 0.0957012847 0.288026661 -0.0446595848 0.0715803504 -0.314128578 0.0529133156 0.181288138 0.137966558 0.0567975082 -0.34930262 0.286514729 0.119263619 -0.0116998814 -0.155994579 0.0231884252 0.125252157 0.259084791 0.124423586 -0.0143933641 -0.0407552011 0.0557691678 0.127934903 0.300635844 0.256531864 -0.0698247775 -0.109713756 0.0625244677
0.0904591084 0.316128314 0.189442202 0.169842795 -0.396762788 -0.110337935 -0.04207284 0.440708667 0.125947177 -0.0791637078 0.202435046 0.107397079 0.15916574 0.275268227 -0.160389304 -0.232431695 -0.0773167014 -0.37529698 -0.194686919 0.0760182887 -0.287141651 0.0501991436 -0.191430241 -0.0634483248 0.189390525 0.177824393 -0.395528853 -0.0111024957 -0.116195336 0.114647523 0.0205127597 0.209398463
-0.0325524546 -0.274219394 -0.201886192 0.0258143004 -0.389686942 0.354855597 -0.00888395216 0.188653395 -0.000673171598 -0.00746763172 -0.0371587165 0.196311593 0.36502099 0.0915640593 0.0939675719 0.108875409 0.265267819 -0.342301339 0.237868205 -0.232348517 0.369883329 0.247502998 -0.0105853202 -0.327514857 -0.00631159311 0.0102641033 0.00616538804 0.130430803 0.166827247 0.432745904 0.144035652 0.000395313313
0.0741055459 -0.214516938 -0.112949446 0.20802103 0.123226427 -0.199612558 -0.142046139 -0.0495010838 -0.063332133 0.297050893 -0.104948916 0.036728505 -0.177287519 0.0344245993 0.0986103341 -0.232697085 -0.0974839181 -0.115177475 0.379842371 -0.233879492 0.0771462917 0.0611416437 0.114404261 0.047929775 0.266434938 -0.174985349 -0.111643136 0.151897132 0.0883606896 0.0677795708 0.255552948 0.00169757509
-0.214672714 -0.0582506582 0.288179636 -0.0883888826 -0.0190361533 0.213720813 0.19085826 -0.237368762 0.211288542 -0.310424596 -0.342785746 0.154401645 0.175537959 -0.21081315 0.182494655 0.226723462 -0.216826171 0.0451164208 0.31459707 -0.180625603 -0.0564184524 -0.110605069 -0.258742034 -0.0869764835 -0.343824297 -0.0974287316 0.246447951 -0.146319628 0.158115819 0.148814306 -0.0169291571 -0.179736212
-0.0289029498 0.300794184 -0.0147392647 0.0889364406 -0.0395201109 -0.0488805808 -0.337554485 0.254636735 -0.267880499 0.270036072 0.27653566 0.266723692 -0.305488944 -0.158766955 -0.00433646748 0.242737383 0.310099632 -0.212681472 0.0849720463 0.137738854 -0.136954293 -0.111794807 0.0427246243 0.174960867 -0.036162328 0.298167288 -0.236885533 -0.127434462 0.297733486 -0.0910210013 -0.119730718 0.0642986819
-0.260500878 -0.0344507806 0.188435867 0.303605795 -0.0219187159 -0.209843144 -0.22509861 0.0709385425 0.274285644 0.0902742669 -0.190187901 -0.0773232803 0.444706559 0.0793254673 0.0732121021 -0.0285967421 0.0796120316 -0.213128135 0.10676308 -0.507314324 0.204052612 -0.44524771 -0.130600065 -0.0170894116 -0.110709287 -0.194651589 -0.278994113 -0.11876297 -0.0602340214 0.156359181 0.149986699 0.360034287
0.233119532 -0.0255857259 -0.198679328 -0.0372354537 0.260826111 0.188133612 0.156901717 -0.0543811433 0.367044598 -0.170581758 0.138373658 -0.259327739 -0.328597963 0.118439749 -0.366930902 -0.0718292147 0.0141685009 0.323795259 -0.00703699887 0.315249175 -0.125285625 -0.125671774 0.082579501 -0.156804353 0.13863112 -0.0429321714 -0.347980887 0.0172120016 0.259112 -0.308214962 -0.174543113 -0.212934405
0.0382930934 -0.242151886 0.228346542 0.056172993 0.0098543223 -0.184973434 -0.13904804 -0.255301803 -0.15912801 0.382483006 0.0921940804 0.229641065 -0.311656386 -0.0359249376 0.0311660301 -0.0585103668 0.186805233 0.152098298 0.0705511421 0.0146704726 -0.0185358524 0.329283446 0.210151643 0.0600588061 0.332265615 0.148253992 -0.18468526 0.144166231 -0.0871254057 0.000910058327 -0.0618003234 0.237448826
-0.255999565 -0.0136150131 0.160054594 -0.376902461 0.274454594 -0.319529504 0.236160159 -0.450862139 -0.128130049 -0.067758061 0.176684991 -0.193556026 -0.188703761 -0.190374136 -0.0434211381 -0.205568358 0.152636871 0.0462187044 0.269015312 0.0169012304 0.159464985 0.424585432 0.231769964 -0.379832417 -0.0696839392 0.0706700087 0.347646981 0.069909431 -0.199117362 0.0316653177 0.0986717716 -0.0927301198
-0.13118659 -0.302382737 0.084054336 0.385474354 -0.122294731 0.242585108 -0.0234763175 0.189696416 -0.233651832 0.35042128 -0.240937203 0.0520303771 -0.106703542 -0.150479004 -0.0901512206 -0.0173937641 0.386731267 0.0866427422 -0.171648562 0.0936185867 -0.0534517467 -0.089263849 -0.0723890066 0.0595222004 0.0680545643 -0.291427433 -0.151781231 0.312522769 -0.233928606 0.0730372891 0.0787356347 0.212805003
-0.291519463 -0.142211795 0.00122461317 -0.0405489765 -0.0206267461 -0.156558082 0.212611139 -0.268638343 -0.261301935 0.160553142 -0.0304099899 -0.182252005 0.0352491885 -0.23299107 0.378025115 -0.150440142 0.00808923412 0.151772514 0.244284734 -0.307333827 0.0950298384 -0.165086627 0.245369628 -0.056100864 -0.0722167194 -0.20918861 -0.151750475 -0.417637706 -0.214042172 0.193557069 0.105671138 0.0136054708
-0.158692792 -0.338103384 0.0566203222 0.206298381 -0.19439435 0.177495927 0.240104079 -0.287682235 -0.172946319 0.156696782 0.139316484 0.0813546479 0.261642247 0.00279575982 0.00860853307 0.268011987 0.175977618 -0.0461301729 -0.172463894 -0.144405589 -0.114308707 0.20020631 -0.046320457 -0.0756035224 -0.403836489 -0.352823913 -0.24551703 -0.144153908 -0.111273661 -0.017797403 -0.122565903 0.169366762
0.191426039 -0.0128682731 0.218825638 -0.107093252 0.015268825 -0.0367440507 0.0642601922 0.0530930907 -0.129768044 -0.0177879203 0.0213712249 -0.160691753 0.0697302967 0.103103228 -0.0385470167 0.109935001 -0.0430557355 0.182478786 -0.250614673 -0.231546596 0.352526188 -0.270443648 -0.276226074 -0.249652147 0.155293941 -0.0942431986 -0.120127462 0.0180958249 -0.255545765 -0.11725717 -0.462094903 0.297526419
-0.144526169 -0.160012841 0.113193229 0.0566755086 0.126180142 0.127621412 -0.104062371 -0.15030542 0.110125817 -0.251685143 -0.130436376 0.127971783 -0.186225221 -0.160390183 -0.0517729744 -0.107190557 -0.0905395374 -0.0164691899 0.0865683332 0.0665040314 0.0864534602 -0.159218103 -0.0691509023 0.203763053 0.0985286534 -0.255591303 0.109444387 -0.0959425345 -0.207119808 0.190417275 -0.083927758 0.04278595
0.270147949 0.118317559 0.0917501375 0.121569693 -0.118509285 -0.371488065 -0.274069875 -0.0742284432 0.0134784924 -0.0969551578 -0.0299342759 0.0300470013 -0.0615801103 0.0645582229 0.171953395 -0.182013825 0.0511000678 -0.119577155 0.139002532 0.201947823 -0.0454877093 -0.407301515 -0.0883129612 -0.157325059 0.182454944 0.0836776122 -0.0305151548 -0.161871389 0.0708392635 -0.0166426729 -0.09775424 -0.188833117
0.193482414 0.0283405893 0.101505928 -0.171719059 -0.278615922 0.157777756 0.135277301 0.0997263566 0.190260753 -0.375961274 -0.134738371 0.0472352467 -0.0798458531 0.0353953876 -0.168849543 0.306453496 -0.11071413 0.361186713 -0.268534869 0.342409194 0.143820465 -0.16890344 -0.367144197 -0.0922168568 -0.162647799 0.207862899 0.254251003 0.0104169277 0.041293595 -0.0292243864 -0.155434579 0.194687843
