# shape: 32 32
0.250272393 0.172770917 0.119971782 0.141922846 0.267620653 0.0176120941 -0.117871769 -0.198873445 -0.185679898 0.0611028522 0.149950489 0.0126611283 0.0450253226 0.237719834 -0.451805323 0.17569837 -0.026734896 -0.120719582 -0.122771144 -0.143168092 0.105054252 -0.330868363 0.0853148177 0.350514531 0.141770273 0.287645549 0.199919224 0.0561380945 -0.211216062 -0.133394018 -0.374811411 -0.381329954
-0.106355958 0.0609777197 0.117456049 0.317192107 0.0677508861 -0.0619054921 -0.230057299 -0.420326471 0.160913259 0.14519459 -0.171108365 -0.275985926 -0.14817363 0.148441643 -0.215611905 0.00104301213 0.00342129287 -0.0955389887 0.121288106 -0.0399166085 0.0161646772 0.0691064 0.00442633498 -0.203923166 0.0832965001 0.298725754 0.308489978 0.217115402 0.548873663 -0.0817884654 0.14018333 -0.0214633457
-0.227883026 0.0512118936 0.116363525 -0.282897025 0.257376581 0.137146473 0.216987446 -0.131416142 -0.336356819 -0.00253089983 0.208086088 0.0563856773 0.0287574623 0.2059194 0.216130704 -0.119242772 -0.25676474 -0.0769532546 0.145722732 0.20630838 -0.0179823749 -0.295566678 0.199094042 -0.311275572 0.0707681626 -0.101530164 0.0707398131 -0.0270290524 -0.383312583 -0.0901550353 0.118242107 0.215373933
-0.254819185 -0.0234176833 -0.41274181 0.0224958081 0.212153614 -0.00684635993 -0.16083762 0.175416008 -0.118455559 -0.295062602 0.339832813 0.253337473 -0.0995356664 0.267365247 -0.0927173793 0.106384583 0.3427082 -0.321763158 -0.14235796 0.232755378 0.381951213 -0.0619136766 -0.0461526141 0.128983021 0.210707843 0.170298308 -0.0927654207 0.232555658 0.271149993 -0.0454093441 0.0452459902 -0.305110127
-0.0896004289 0.425875157 0.0317753926 -0.255026668 0.1086426 -0.318445206 0.0765173212 -0.222520262 -0.107550889 -0.181453079 0.430752873 -0.248930842 0.240512073 -0.0690489858 -0.130263835 0.0685346276 0.128844902 -0.0889537632 -0.091251038 -0.0902207866 -0.0240159035 -0.308653235 0.134108961 -0.223918587 0.274192601 0.481984109 -0.0557796322 0.355506033 0.0408056974 0.0788326263 0.0886867046 0.106950857
-0.0628279522 0.0712057054 -0.129942521 -0.0213440917 0.294285327 -0.105133742 0.0379987508 0.245144635 -0.160845816 0.0312707238 -0.305855334 -0.00661224453 0.0571790822 0.420295537 0.0351259634 -0.30416128 -0.203065753 -0.113295801 0.176052913 -0.0188552309 -0.395223588 -0.362235993 -0.029321678 0.0706996471 -0.270651966 0.134037614 -0.0376656838 -0.0958471075 0.0102442764 -0.142188713 -0.164460018 0.229822144
0.041706752 0.236125052 0.114252828 0.315675169 -0.48957181 -0.226303652 0.268625021 0.404305607 -0.251079679 0.00651761051 0.251583517 -0.40556553 -0.0730147213 -0.280540258 0.23095654 0.185814887 0.441906035 0.138476342 0.174043804 -0.119694673 -0.260550082 -0.185144171 -0.110177219 -0.0854970217 0.0899747908 -0.0837476104 -0.20773612 -0.389235973 0.504773796 -0.170092538 0.279617459 0.192420274
-0.194364861 -0.244914591 0.20971036 -0.217259601 -0.105354145 0.273217618 0.178313732 0.0264167469 0.352385372 -0.0804501325 0.475565225 0.288437963 -0.0335728452 0.326684564 -0.252035648 0.200902939 0.0178551748 -0.134440675 -0.0814610496 -0.213751674 0.119676583 -0.543626308 -0.294999152 0.0628475025 -0.204573438 0.231568396 0.202271596 -0.176468983 0.287572533 0.0366301499 0.0831748918 0.148412213
0.333776474 -0.227988273 0.0660909638 0.218129247 -0.00293146446 0.268272728 -0.222264618 -0.103953734 -0.179822534 0.535028279 -0.26195544 0.707471669 0.253018618 0.424803525 -0.335014194 0.087959066 0.0810611546 -0.0575842038 0.364479214 0.417194366 -0.179774612 0.0151603371 0.0858998671 -0.00898030028 -0.0583788194 0.0778049156 0.0151914377 0.0405426696 0.33434397 -0.45325464 0.145658299 -0.0561388806
-0.184309095 0.0288703255 0.0162390787 -0.277126014 -0.252763808 -0.19146046 0.0949023589 0.382043719 -0.0511160642 0.314400166 -0.29150635 0.00498538604 0.39430511 -0.125596717 0.256564409 -0.2203293 0.264466375 -0.23367779 0.275356203 -0.300391972 -0.0475356281 -0.262890339 -0.1210953 0.34783107 -0.244332746 -0.0277277827 0.0757267252 -0.174450457 0.0895343125 -0.343700022 -0.33716318 0.177308708
-0.2413048 0.121434659 0.218474895 0.258052528 0.263331085 0.0730907172 -0.246676132 0.264853537 0.106609516 -0.226244673 0.292477876 -0.0493698157 0.571923852 -0.175735861 0.0652125105 -0.369448066 -0.378058612 -0.413445681 0.253929257 -0.241868511 0.18501389 -0.152745575 0.0672459975 -0.0577243082 -0.0840740204 0.00618149294 0.000558826781 -0.252708226 -0.419415623 -0.0917041078 0.0993141383 -0.169601977
-0.20427382 -0.0252395719 0.276067376 -0.210373148 -0.275916934 0.100387283 -0.275941789 0.01873013 0.144521251 0.11572098 0.181022987 -0.141347677 -0.111403316 0.0302798208 0.204517365 0.16005981 -0.194844723 0.134539291 0.0908388942 -0.198329061 0.248338103 0.300281137 0.0821613669 0.354046464 -0.323564619 0.0134017039 -0.182424709 0.0796444491 0.0304042492 -0.101799034 0.399126172 -0.356437266
0.0998857319 -0.165289402 0.463614434 -0.119363755 0.0785818174 -0.190562651 -0.186710685 0.12562418 -0.291719764 -0.0257644355 0.097236678 -0.369481474 0.25057146 -0.192503616 -0.0094319135 -0.27801156 -0.338800102 0.240348563 -0.165977776 0.0704839155 -0.0231110808 0.40924561 -0.151109055 -0.237353966 -0.0163884405 -0.0961713567 0.0899857432 -0.0331688263 -0.34027493 -0.25812766 -0.0133881122 -0.144402534
0.123832002 0.0349153541 0.251032352 -0.193517491 -0.128161117 0.246320829 -0.040615961 -0.146489516 -0.0809486061 0.20776695 -0.376139909 -0.153203443 -0.045899298 0.453054816 -0.246880457 -0.328900874 0.090567261 -0.503700733 -0.0572605096 -0.241526231 -0.36749962 0.192967266 0.106064349 0.305436164 0.310645074 0.305610508 0.0908580795 -0.437314451 -0.248676941 -0.0881233737 0.231747791 0.310513794
0.0619716533 -0.0703901425 -0.329440802 -0.0116586322 0.369664907 0.129855901 -0.284486651 0.000212961852 0.18418251 -0.282315075 -0.237142205 -0.134480461 0.219548181 -0.350218564 -0.136703327 0.125157773 0.199951202 0.508479714 -0.138921574 -0.261421561 0.00890713371 0.0364777148 -0.404459119 -0.169785336 0.18226327 0.0274196304 0.0676222444 -0.448282331 -0.0072538103 0.00862630829 -0.176255777 0.478210181
0.156089351 0.0833718926 0.277055234 -0.231902733 0.119820267 -0.208893538 0.034039665 0.192329988 -0.0234428979 0.0258046594 -0.0156265814 0.0318664834 -0.415584445 0.2790232 -0.0850744247 0.403425932 0.362651765 -0.0189339332 0.189375073 0.114728004 0.195462421 -0.218890384 0.384381801 -0.17142342 -0.273472697 -0.107136786 -0.307997555 -0.0177391153 -0.0785881728 0.258972466 0.326613992 0.339795798
-0.0498563685 -0.0812255889 0.37385723 0.0578496754 -0.166438371 0.00781711657 0.329509199 -0.0555220433 -0.0289411787 0.18996805 -0.340127319 -0.285784692 0.250849932 -0.0964754745 -0.277559668 0.0473644286 0.0323825777 -0.370813668 -0.448214322 -0.175922543 0.120136157 -0.0382664502 0.220734939 -0.200360239 -0.268863529 0.240646362 0.0689408034 -0.0183587465 0.132968128 -0.18883495 -0.123435751 0.0673875511
0.0169170499 -0.322897643 0.426492721 -0.409407079 -0.142210186 -0.042441491 -0.195113182 0.164671689 0.331304371 0.167049304 0.0652152821 0.287590325 0.238766938 0.0807593763 0.0183902942 0.0753108263 0.142304912 -0.221951574 -0.182010993 -0.11498525 0.149508566 0.287133515 0.128754541 0.0471662767 -0.38636744 -0.223013058 -0.00574401719 -0.1813595 0.0413306355 0.164411679 0.161447257 -0.17328009
0.236906454 0.234900787 -0.0349870585 0.168912455 0.117039733 -0.261453182 -0.527088642 0.0406963937 -0.111433886 -0.104409583 0.147775099 0.154697329 -0.315658122 -0.30889672 -0.0408847667 -0.276127368 0.0701953694 -0.0525463261 -0.191293329 0.384107202 -0.359439671 -0.323907256 0.285040677 0.44104597 -0.0704161376 -0.0561038181 0.23315084 -0.0605753884 -0.159646988 0.0198700186 -0.0441968851 -0.21259588
-0.367027134 0.284161508 0.215904951 -0.160203561 -0.132039323 0.225963145 -0.103011049 -0.016806636 -0.37589857 0.155110762 -0.179087982 -0.177418768 -0.191991717 0.135602638 -0.403448224 0.0396476053 -0.206388608 -0.498418957 0.0318475254 -0.240800098 0.259775102 -0.169789389 0.133421987 -0.333619952 0.255705863 0.285150856 -0.102267712 0.0611189045 0.103708826 0.257508874 0.0232035778 0.424767762
0.439381897 -0.21626386 0.381040126 -0.0279174503 -0.0545628406 -0.298355043 0.206540883 0.392834514 -0.212137923 0.330120236 -0.319506794 -0.178129345 -0.241219416 0.0576230995 0.180246547 -0.1945896 0.273798943 -0.0874003917 -0.161605507 0.143178046 0.0203687195 0.132736102 0.145510018 -0.27459988 -0.0200340077 0.311246991 0.313179523 -0.17743516 0.155910417 -0.0168004129 0.258929372 -0.202038094
-0.270440876 0.100502163 0.112461567 -0.385242969 -0.197599992 -0.236969292 0.257632673 -0.258291483 -0.0406956486 0.288871348 -0.134281337 0.505838394 0.19722496 0.12303444 0.382421345 0.312055439 0.33482042 -0.263394147 0.248182803 -0.0603901967 -0.345589519 -0.0482902266 0.0984146893 -0.318830907 -0.116212375 0.137931138 0.198042437 0.298489481 0.0143153714 0.0399441309 -0.296959788 0.347880304
0.24642542 0.645470738 0.300913125 0.272176087 -0.217375651 -0.15265815 -0.0115702264 -0.121253274 -0.131116197 -0.147331417 0.400707513 0.00659810472 -0.0382709168 -0.373878956 0.0847852379 0.256683528 -0.471337348 -0.242766425 -0.435471654 0.180581182 0.0808799639 0.154912576 0.18820338 0.135467932 0.0475562885 0.0266406257 0.176188529 0.240887865 -0.131703362 -0.179114327 -0.276359707 0.29347232
0.0604451448 -0.081359826 0.272360802 0.13637583 -0.139077783 0.129543424 0.313139528 -0.461309135 0.0470947102 0.178616494 0.390143216 0.309090376 0.194880024 0.119134277 -0.428952277 0.0455885753 -0.365735263 0.359531879 0.147646055 0.592992365 0.170444384 0.00812266301 -0.0506179817 -0.374942392 0.0898715332 -0.324191779 0.398426652 -0.136013687 0.0710736737 0.119479589 0.0506415479 -0.201393396
0.178234652 -0.0447086059 -0.266566515 -0.432183892 -0.2010943 0.0370292999 0.297063977 -0.37078321 -0.117358081 0.00119534298 0.349264145 0.146147713 -0.255174011 0.0637390018 0.175372273 -0.353426635 -0.0523618311 -0.14774996 -0.231059805 -0.259245038 0.124157235 -0.0830078349 -0.174433842 -0.302741438 0.170236185 0.506795645 0.000927938614 -0.0599151738 -0.124142744 0.21138595 -0.0336106271 -0.191739127
0.0486230031 -0.064335309 0.230561972 0.0583618768 0.0481274314 -0.0401760042 0.0883229822 0.244820833 -0.498303622 0.282787502 -0.1384532 0.226215661 0.059211757 -0.239832014 -0.464078456 0.289421827 -0.358356237 -0.077993229 0.152662575 0.112898432 0.161937296 -0.118584864 -0.0641196147 0.117907889 -0.116928883 0.081230931 -0.216202423 0.415923387 -0.681125462 -0.706101835 0.0893359855 -0.152677953
0.19080171 -0.342225879 0.266781062 -0.122263655 -0.468212485 0.218898505 -0.182715416 -0.132310078 -0.141550303 0.00200958247 -0.0813011527 -0.191832006 -0.432563543 0.201967224 0.204050124 -0.41204527 -0.11525628 -0.0436431393 0.351746321 0.263628066 -0.00327822147 0.00662779063 -0.441251099 -0.00764313806 -0.329952747 0.309263557 -0.367006242 -0.273238778 -0.0294008162 -0.228366941 -0.0541134812 0.0593790263
0.227798745 -0.473660499 -0.147664666 -0.353856713 -0.242563054 -0.108071327 -0.0328201652 0.2601946 0.156044662 0.113402784 0.238023043 0.289807737 -0.105214387 0.0425466858 -0.211521998 -0.548682809 0.328479499 -0.00648540119 0.43238169 0.409484982 0.0434284955 0.142315358 -0.0400609523 -0.388572127 0.00524192723 0.330372393 0.143456221 -0.108540326 0.244836435 -0.100452527 -0.111156397 -0.196581811
-0.00677700993 -0.310602754 -0.307062447 -0.174173921 0.162053391 -0.226369396 0.0621617213 0.279192626 0.135456815 -0.270562738 -0.126333043 0.270686626 -0.0750954524 -0.278416574 0.453668088 -0.171515316 -0.0558675863 -0.190916374 -0.122581869 0.246562108 0.202346608 -0.365402848 -0.145867154 -0.0493597016 -0.153540656 0.128344193 0.0244481359 -0.161479488 0.153633222 -0.349067122 -0.422924608 -0.0774032548
0.023745304 0.193045348 0.0784197152 0.0277786162 0.0700737536 0.275823385 -0.0810514838 -0.402679384 0.0691142678 0.184117913 0.227719173 0.126124173 0.175282687 -0.213378593 -0.305502772 -0.203743458 0.283010334 -0.238527626 -0.101467147 0.0775077641 0.100305982 -0.467319787 0.046948351 0.275363714 0.360714495 0.205968663 0.0953932777 -0.04819322 0.0510961898 -0.222631484 0.168045551 0.100432955
-0.188000485 -0.0492945686 0.134696096 -0.488217264 0.162152514 -0.100935124 0.299114615 -0.444734693 0.169717357 -0.172242105 0.189975038 -0.202044815 0.311626136 0.493452609 0.170207217 -0.2521438 -0.201889575 -0.190225512 -0.208556682 0.198005214 -0.122119308 -0.0361710712 0.128634796 -0.254241168 0.107549503 -0.0882004276 -0.0467661619 -0.0462504737 -0.382886648 -0.101484999 0.233622596 -0.0057486752
0.0204618406 -0.0168957897 0.455264688 0.421018422 -0.0993908867 -0.209888011 0.559476078 -0.104972124 0.0264356341 0.00924012065 0.528249502 0.0280562099 0.00746416673 0.321494102 0.310076237 0.0122383991 -0.311768413 -0.316754013 -0.0391859338 0.169304416 -0.247512326 -0.183755919 -0.247337535 0.186898693 -0.211508825 0.448447883 -0.469086766 -0.131373033 0.100201584 -0.237603679 -0.312406123 0.055924423
