# shape: 32 32
-0.364045471 0.00109577214 -0.166344747 0.100056179 -0.0137068769 -0.236075178 0.241706699 -0.176016226 -0.206463933 -0.158962637 -0.270592868 -0.126275793 -0.0332271717 -0.15750666 0.326873124 -0.0488474891 0.0753874853 0.0613748841 0.0145014636 -0.0160121527 0.260856271 -0.0900499597 -0.0943054408 0.174943626 0.192984223 -0.0641634688 0.100815304 0.422713816 -0.0798533559 0.205603465 -0.0360554196 0.255180329
0.231672689 -0.139830634 0.265576541 0.190494895 0.0505376607 0.0681951419 -0.289918125 -0.333254188 -0.198672697 -0.1477779 0.240923956 0.019753335 0.479542524 -0.254610598 -0.250668079 -0.240417346 0.1578594 0.247390255 -0.242490381 -0.342690885 0.458179265 0.170548558 -0.347861856 -0.108495593 -0.032322228 -0.253830224 0.207662672 0.133150816 0.248179242 -0.526750207 0.0261153337 -0.352547258
-0.0424183495 0.0962805972 -0.151367441 -0.0739036873 -0.083681114 -0.00630815933 0.270151168 0.0818450376 -0.311437875 -0.233400717 0.0810902342 0.354636103 0.0456431732 -0.0667424947 0.264166474 -0.173648313 -0.247544631 0.125924125 -0.239054441 0.198916852 -0.202614233 0.0982746109 -0.137513608 -0.228316322 0.328933448 -0.367301196 -0.183498636 -0.147101894 -0.0806395561 -0.0382699631 0.163891315 0.0728610978
-0.211314321 0.00747093046 -0.387074798 -0.0260827951 -0.202866733 0.230796739 -0.136567697 -0.137127757 -0.270164162 0.0799927935 0.0746070147 0.213061735 -0.189120576 -0.120481148 0.169783339 0.33257398 -0.0727066919 -0.220299006 0.223891556 0.136566743 0.077313453 0.411952943 -0.166017771 -0.181126431 0.191454694 -0.211930096 0.143343508 0.308503032 -0.127726704 0.108576305 0.141377985 0.155251488
-0.0783838704 0.160261273 0.105752669 -0.161729008 0.00751904538 0.293248832 -0.101779439 0.155095831 0.365614623 0.0461908318 -0.0773684904 -0.345901757 -0.0835807174 0.416194171 -0.0749761164 -0.129128888 0.0484707952 0.00126100075 -0.216051891 -0.204384431 -0.294309109 -0.257052392 0.130223885 0.111945696 0.0981666818 -0.323571265 -0.303751856 -0.0534569249 -0.527533114 0.0420025252 0.349709094 -0.390590906
0.31093803 0.153058052 -0.164591476 -0.103698336 0.315288782 -0.0830082074 -0.283483297 0.0824593604 0.070684135 0.0736094937 0.031516213 0.125090361 0.0171906278 0.131576255 -0.165693074 -0.0110369455 0.165264189 0.0286909994 0.0738192797 0.0281164963 -0.228481025 0.122450896 0.12293338 -0.13521561 0.0442732088 -0.0927428082 -0.096486263 0.180229947 0.340571314 0.182189405 -0.0562769957 0.17570442
0.233469203 0.384349555 -0.00492233178 0.292134106 0.148321301 -0.0276311282 -0.122708149 -0.106810778 -0.044782944 0.0544319078 0.120471314 0.172039762 -0.051449161 0.0467320643 -0.154035941 -0.167142436 0.0730557069 -0.0704015493 -0.107751764 0.358175516 -0.210207716 -0.037242122 -0.127273142 -0.436298937 0.00869773515 -0.133621886 0.228652388 -0.187123388 -0.218662918 0.0583703145 -0.150398403 -0.219590396
0.114682727 0.186882213 -0.012498497 -0.176907286 0.278596669 0.0305685848 0.270851821 -0.336241782 -0.148426607 -0.170026749 0.0228807461 -0.137296647 0.263068825 -0.278405935 -0.0435508713 0.147902995 0.116677903 0.0981885344 -0.133570567 0.0848473981 0.312128007 0.225772738 -0.10666655 -0.0464606471 -0.00343235047 -0.093047753 0.339356989 0.285377979 0.268961221 0.0114411237 0.112666227 0.239609763
-0.0934110358 -0.364201277 0.239509985 0.0858742446 0.325694442 -0.140960217 -0.0460846834 -0.17538105 -0.288775712 -0.236663267 -0.0766405612 -0.193593517 -0.0572020374 -0.160568446 0.314335227 -0.0381266773 0.420958996 0.397777975 0.141770273 0.37247178 0.311980665 0.236300081 0.198526561 0.0357291773 0.18596445 -0.00203811401 0.173066795 0.15805757 -0.199260071 0.29043594 0.26986292 0.154441521
-0.0595840588 -0.030193096 -0.231482521 0.0277205408 -0.100200787 0.16378966 0.21318683 -0.103401169 0.075098902 0.440783024 0.251161307 0.140002698 -0.337561339 0.0142496908 0.135658666 0.239285246 -0.135282442 -0.171656445 0.185256615 0.17404449 -0.449174583 -0.127556726 0.19168295 0.0209196974 -0.0126193948 -0.210765541 -0.0233578943 -0.254170865 -0.0571170487 -0.0602516048 0.102086194 -0.176519364
-0.183485284 0.0163608473 -0.01699147 0.00429139379 -0.0804190338 0.12366455 -0.199338675 -0.234542519 -0.00080594368 -0.134069398 -0.221037611 -0.140414074 -0.230239183 0.272925645 0.170461282 0.159196004 -0.0620534532 0.201772869 0.0770938993 -0.0420664139 0.0480111204 -0.246530414 -0.0685575679 -0.0739756525 -0.347437233 -0.234100223 0.0809438229 -0.198466137 -0.0200431272 -0.0566408671 -0.233789563 -0.392295539
0.0878344327 -0.351790011 -0.196715161 0.0319637954 -0.0232755132 0.300911307 -0.0956228003 -0.232982337 -0.0927544236 0.183252811 0.197499022 -0.113203041 -0.0772877112 -0.151638985 -0.0806383416 0.0168302767 0.0528485402 -0.339879245 -0.0894790664 0.0403933227 -0.167124316 0.05555005 0.369936973 0.209541276 0.276267409 0.325505704 -0.0581545942 -0.186487526 0.228805259 0.0958118439 0.223230004 0.207818314
-0.295314342 -0.286365926 0.0804846212 -0.114244573 -0.199307993 -0.0724817663 -0.171585888 -7.64847646e-05 -0.219452292 0.314507931 -0.208904848 0.36438036 -0.0230268706 -0.226417631 0.0156797227 0.361655682 -0.29131642 0.0331541188 0.0707571805 0.0952444449 0.155563191 0.10897845 0.122250944 0.489703745 0.231089056 0.0215801019 0.0920865312 0.277084023 -0.0530758388 0.0608210228 0.0215392299 -0.352690995
-0.0744401217 0.120414637 -0.262343407 0.284762144 -0.102345973 -0.0299840663 0.344999731 -0.113856658 -0.067019321 0.0481820777 -0.256266922 0.0419080034 -0.0147024821 -0.280608386 -0.050564304 -0.206633031 -0.024657378 -0.0270415638 -0.0435026363 -0.204925627 0.192465201 -0.0416862294 -0.0421451107 -0.13049911 0.130734146 -0.0474861637 -0.202212572 -0.0170876235 -0.10009928 -0.109151423 -0.184397817 -0.154564768
-0.0867212564 -0.109181583 0.0402620547 0.0990038216 -0.218818769 0.0538556129 -0.257808447 0.079624474 0.184602708 -0.330702096 -0.353125542 0.152247235 -0.211315632 0.224057123 0.0578832328 -0.0163709912 0.23463659 0.118954249 -0.45401597 0.219547167 -0.121375591 0.20047611 -0.113088228 0.215390831 0.0819096491 0.0282916222 0.0593615472 -0.194553733 -0.120467983 0.180955708 -0.0990821123 0.203303739
0.0736305118 -0.274481297 0.222296581 0.248468488 0.0922916383 0.116631523 0.00898251962 0.316054225 -0.0784809515 0.0906172171 0.351611674 -0.133278117 -0.297124743 0.119656213 -0.0105014378 0.0330038518 -0.144823059 0.147198409 -0.179115564 -0.196196064 0.244079962 -0.212517127 -0.0575113073 -0.0870357454 -0.153013736 0.210945323 0.0796951205 0.0102239586 0.0958779454 -0.257330686 -0.113401867 -0.0673301518
0.145896912 -0.00794535968 0.117216386 0.186338857 -0.0254520532 -0.015897138 -0.0951262489 -0.132206902 -0.029795032 0.0375110582 -0.0242567919 -0.0961961076 -0.17402859 -0.256498545 -0.138682932 0.0763965473 0.15493606 -0.325269371 -0.118176393 -0.271279514 -0.0975107178 0.135732949 0.12865296 -0.13086313 -0.112839475 -0.00025861559 -0.224750191 -0.145778686 0.0132550774 0.0153668988 0.175933465 0.320557982
0.114568487 0.141293824 0.140033171 -0.0359484851 0.0822801888 0.41899395 -0.310510874 -0.10087394 -0.126017958 0.112542272 0.105302081 -0.031580586 0.145246431 0.354457468 0.223653272 -0.0669508055 0.165672973 -0.205192551 0.416888207 0.0512131974 0.144754767 -0.34664911 -0.100875653 -0.0671672896 -0.046621643 0.133060738 -0.241554588 -0.000926343899 -0.125903308 0.479349941 -0.376963973 -0.630922019
-0.124786533 0.0598586276 0.00364312925 -0.20345743 -0.315972269 0.142849222 -0.269177347 -0.348338783 0.241492748 0.0775931925 0.148789793 -0.146609813 0.353531927 0.218766794 0.129243121 0.0544816293 -0.00746086333 -0.0271589793 -0.339910716 0.364462018 0.0504493862 0.0455414541 -0.177548796 0.0456585251 -0.0378470458 -0.0149611412 -0.314532101 0.0287084132 -0.27116552 0.0598386824 0.0387020335 -0.527639627
-0.0637531504 0.0109421769 -0.0642957538 0.00181606226 0.321385652 0.121348575 -0.0447796099 0.185849279 -0.376799345 -0.0245048143 0.103617877 -0.142951727 -0.106418915 -0.139441848 0.208882883 -0.34113276 -0.411353946 -0.190037951 0.0595647916 -0.213887006 -0.32447955 -0.0301029049 -0.380460531 0.090404287 -0.0574613735 -0.247248605 0.256469905 0.270152181 0.133192375 -0.00342093175 -0.131786898 0.0926949829
0.358610928 0.184024841 0.0402368829 0.286147594 0.0933692977 0.183506623 0.051979091 0.102295347 0.329934865 0.196585521 -0.184774414 -0.290420234 -0.136381641 0.298148811 0.0407234766 -0.189885616 0.00216467492 0.139275849 -0.0893933252 -0.00470022624 -0.144369572 0.314682543 -0.153861046 0.426588178 -0.247433394 0.289494365 -0.091519773 0.166909084 0.0993605554 0.154719651 0.239176035 -0.28501761
0.0561906919 0.0698820725 0.0183477141 0.161501184 -0.290047258 -0.00925662462 0.00189303537 0.254691064 0.149082333 0.204319686 0.0361116566 0.060958799 -0.118705466 -0.0935652182 -0.20874846 -0.0414984562 -0.0383379124 -0.117543362 0.392198712 -0.161419883 0.071019046 -0.26859358 0.704793274 0.19237569 -0.249032855 0.116539232 -0.0184554197 -0.370566964 -0.0599643067 0.0604426339 -0.1341912 0.141172111
-0.0294580534 -0.242548525 0.0330723748 0.079694733 -0.237224758 0.181464061 0.0689084828 0.11439421 0.0880162567 0.0742623284 -0.254102856 -0.0676891357 -0.132603571 -0.199310511 0.13107352 -0.159692392 -0.081803076 -0.220229015 -0.0665435493 0.182370722 0.10603141 -0.226362631 0.0454736575 0.0573607422 0.0482669026 0.184797212 0.136957824 -0.100508451 -0.204395652 0.156186968 -0.194158882 0.23737824
-0.0726182163 0.433024108 -0.177336723 0.101285174 0.054793831 -0.231679678 -0.180205241 0.149426475 0.00670557888 -0.378710479 -0.211321592 0.340812832 0.0236720648 0.317091942 -0.204413921 0.166100115 -0.0100900689 -0.13227877 0.0823928341 0.196419537 0.177543536 0.0913305134 0.0108918175 -0.224835411 -0.298207045 0.134050101 -0.121743172 -0.231750444 0.146726668 -0.224733755 -0.0207146462 0.00522892037
-0.270883441 -0.271859229 0.188505143 -0.276209861 0.162189662 0.355951548 0.376457214 -0.0524808578 -0.162046105 0.376439571 0.169240251 0.0299796239 0.166436225 0.202627257 -0.41182822 0.35235095 0.171819255 0.0551050529 -0.302717865 -0.163554579 0.168160677 -0.231633499 -0.121414237 0.103567883 0.171100035 0.154783189 0.398373067 -0.030269783 -0.23791483 -0.107990138 0.100007758 0.325572997
0.118959732 -0.0837615803 0.108094655 -0.153232083 0.136781543 -0.0385044403 -0.0670247599 -0.251764148 0.0952387452 0.11216224 0.423780262 -0.22569111 0.193576202 0.112326123 0.0721862614 -0.594438553 -0.325708717 -0.176229477 0.0958878696 -0.348844916 0.0496698767 0.164072439 -0.222126052 0.0467741117 0.172106922 0.0373658873 0.322016031 0.358149469 0.273375839 -0.0219757017 -0.0445210524 0.247517884
0.0349117294 -0.0462452434 0.104538269 -0.17471008 -0.100879714 0.139002591 -0.231267795 0.0713795871 0.0557983704 -0.15674597 -0.293682873 0.017138293 0.00808199309 0.14888829 0.114461295 -0.00772355078 0.0241062641 0.0602908134 0.043269895 0.0475781374 0.229890108 -0.0097183641 0.154866815 -0.194420755 0.0747855157 -0.108835913 0.286771327 0.0878112912 0.156738564 0.0885570571 -0.0994085148 -0.125311449
0.0398844406 -0.136488244 -0.141437322 -0.245544374 -0.243947983 -0.242540091 0.300272614 -0.0313480832 -0.0217868499 -0.041293174 0.0417040698 -0.108191557 0.0702097937 0.22600472 0.252007365 -0.0785667375 -0.015110991 -0.221212998 0.338022619 -0.146944299 0.146871895 -0.0692857578 -0.0109103816 -0.130882084 -0.310509056 0.392370552 0.172178417 0.156074896 -0.0402654409 0.082017757 0.0351687558 -0.0123897241
0.171972036 0.111770004 -0.174353883 0.301318377 0.220064461 -0.255929559 -0.125365973 0.335126668 -0.300272405 -0.168793887 -0.0401689969 -0.260782301 -0.229177073 -0.326752782 0.173900828 0.180541366 -0.0127907293 -0.242361262 -0.0527137555 -0.178666949 0.18944934 -0.112897493 0.142987296 0.197320685 0.079393819 -0.234363854 0.081797488 0.222534731 0.301602542 -0.109139718 0.120556355 0.280502945
-0.00197145646 -0.111661077 0.00165143341 -0.0429642498 -0.165928602 -0.0610136464 0.0401847176 -0.18698886 0.251799881 -0.0409290828 -0.264294982 -0.190407082 0.168748394 -0.185941249 -0.117617652 -0.0957929641 -0.0594523661 0.167419776 -0.0909158066 0.0661792085 -0.078491576 0.055670362 -0.0889497623 0.0467031896 0.0376676805 0.142298684 -0.0159867536 -0.220077425 0.0602271892 0.0504669286 0.366690367 0.224159926
0.103102438 0.00884719752 -0.0493989214 0.318192482 -0.145895869 -0.0214823801 -0.0891832933 -0.199720725 0.258241832 0.0844902396 -0.278761953 -0.0416950509 0.0253033843 -0.220591858 0.182807967 -0.0154553521 0.150971666 0.343185037 -0.0528830625 0.0928781554 0.125348568 0.264652759 0.341508448 0.0292960275 -0.0529980958 -0.162216932 -0.164397374 -0.0438599735 0.032292895 -0.040230982 -0.183818668 0.163433433
0.0276383311 0.165650949 0.114924923 -0.115976714 0.114907965 -0.119989648 -0.138594911 0.144704327 0.104439497 0.27759409 0.0258809887 -0.135577321 0.0474960469 -0.0124161784 0.213382736 0.0762128234 -0.405012071 -0.375657737 -0.0366957858 -0.234627441 -0.00441671722 0.103884131 0.106704041 -0.128830791 0.317332357 -0.265330911 -0.0431133918 -0.0758897588 0.29107222 -0.0558776632 0.260102451 -0.101413831
