# shape: 32 32
0.179063275 0.319178134 0.198342592 -0.0750650316 -0.131630361 -0.052826494 -0.252873242 0.0081917448 0.178320453 0.00438687485 0.220169634 0.00740181468 -0.124679036 0.274949193 -0.0971740633 0.154123887 0.0371714905 0.0765103847 -0.00992265623 0.165483385 -0.110363439 -0.188272059 0.003791383 0.277406633 0.0553344451 -0.156257764 0.0151438676 0.0694515333 -0.0892999545 -0.0135514513 0.0623456687 -0.188222304
0.0356041044 -0.0464390106 -0.160553709 -0.151181474 0.194206357 -0.085818775 -0.070549868 0.0662637949 -0.0108190048 0.0657984242 -0.0853063464 0.244439393 0.155824408 0.103275217 -0.27653423 -0.270351291 -0.00237430306 0.176803663 0.230517253 0.0389627255 -0.0679309741 -0.225869551 -0.0461514629 0.00452110497 -0.0271903276 0.0297347009 -0.00625282712 0.0709596798 0.138455257 -0.0276897959 -0.16903235 -0.0683379993
-0.249303818 -0.238560885 0.20800522 0.194856435 -0.0875274017 -0.144450456 -0.0440209098 -0.0861051753 0.0720346346 -0.0422021821 -0.0687346235 0.243280247 0.35058254 -0.212219954 0.0281291101 -0.135595769 0.184935436 0.194441199 0.117550656 -0.0643563122 0.00959983654 0.153910503 -0.00471765269 -0.0262458995 0.209789276 0.220673576 -0.178801641 0.232718408 -0.030059563 -0.0425702408 -0.00631493237 0.124925666
0.0334630013 0.0987921506 0.220631093 0.228159413 0.0281098615 0.232098669 -0.143405452 -0.260567784 -0.11713358 -0.0532716624 -0.173405215 0.0146308541 0.240408361 0.0662379488 -0.0574952662 0.0629001036 0.0820283741 0.0602767989 0.0381403938 -0.392911673 0.0238267276 -0.281799436 -0.0613481551 0.131157205 -0.0672651306 0.048690863 -0.151087388 -0.154570028 -0.0417396575 -0.217158198 -0.300442547 -0.226639092
-0.127617538 0.233739749 -0.212834969 0.146547273 0.16586794 0.0484267659 -0.286299765 -0.0668247715 -0.0853797048 -0.00749932462 0.126566216 0.095412001 -0.374383539 -0.0623838454 -0.140868604 -0.176439136 -0.0262317453 0.090065144 0.26455909 -0.149615109 0.167099386 0.289695293 -0.0462699644 0.124631271 0.118167572 0.171920553 -0.226829767 -0.075300172 0.0294922944 0.334743977 -0.201392993 0.0363965854
-0.000217118897 0.112620831 -0.127643064 -0.0225647856 -0.227744356 -0.186138839 0.0835223272 -0.045044452 0.106933519 -0.236158118 0.206162497 0.0964546576 -0.0878706872 0.018421093 0.159798011 0.0543167852 0.176758885 -0.0430546328 -0.0489784181 -0.0180610288 0.0358364321 -0.0382989869 0.164923936 -0.0490656458 0.158118278 -0.0509038903 -0.272546887 -0.17451027 0.0402212478 -0.105092153 0.170967311 -0.0698974952
-2.63806942e-05 0.282402575 -0.108834252 -0.103910498 -0.0173632819 -0.138761193 0.07152839 0.227877557 0.0354484841 0.0569210909 -0.0753557086 -0.0508522429 0.0191906132 0.0369811282 -0.00714192679 0.0757949948 -0.0883527175 -0.151269063 -0.0354063287 -0.128151998 -0.255178064 -0.0848732367 0.19595395 0.0801463947 -0.110946618 -0.0463078469 -0.181919307 0.203230038 -0.113695659 -0.295454681 -0.07706137 0.0797098354
0.0280684717 0.0588711388 0.0629709587 0.227520868 0.0751679391 -0.136366993 0.222005367 0.0695831329 0.0659222901 -0.0584102608 0.242226213 -0.321738034 -0.223015592 -0.0833302811 -0.15363504 -0.0470655635 -0.0201732982 -0.103817344 0.15240714 0.0679970086 -0.0857615992 -0.207130253 0.00121942919 -0.177078977 -0.312359214 0.125856757 0.248741567 -0.127188012 -0.203825414 0.253073186 0.0823777691 0.173983455
0.0724330097 -0.0325259678 0.03866053 -0.20153597 -0.178113624 0.0333680995 0.0323159881 -0.123522386 -0.0759550408 -0.367228448 -0.129457697 0.0184314456 0.072638616 0.00856139045 0.164714083 0.175750583 0.101248287 -0.122907571 0.000381123711 -0.0518690683 0.132944226 -0.0360305831 -0.0686746016 0.0767161474 -0.0229962561 0.0194227211 -0.205200687 -0.0869925469 -0.103441998 -0.0832645744 0.0446945727 -0.00082446204
0.146995932 -0.320910633 0.093841441 -0.0124537591 -0.142604381 -0.210745052 -0.278282523 -0.0608102977 0.250372171 -0.020990802 0.0348705463 0.125619233 0.118084565 -0.0953261256 0.184082255 -0.0667094886 -0.115058802 -0.15027529 0.0754284114 0.213914007 0.050567288 0.316938043 -0.0100584878 -0.174043149 0.0398979485 -0.299929708 -0.124140024 -0.127819642 -0.0248042475 -0.0308034923 0.249135271 -0.0204548761
-0.013444677 0.0709316805 -0.00224881736 0.19173041 -0.0417237803 0.0597924776 -0.276115507 -0.205687344 0.125127003 -0.15421176 -0.0691396445 0.15125747 0.0322846547 0.136373118 0.0962815657 0.0200102646 0.295273125 -0.149280369 -0.0654339492 -0.144402981 -0.00825541001 -0.259225279 -0.173333034 0.160015211 -0.0370844752 0.0118972342 -0.190742791 -0.105645075 0.130568728 -0.067453213 -0.0366180465 -0.0201383457
0.0864048153 -0.143518046 0.14964284 0.191055089 0.166691989 0.00137155352 0.0677436963 -0.139230847 0.0063641523 0.130588278 -0.0667451099 0.139973998 0.270972699 0.0319936164 0.150160268 -0.115334474 -0.452981025 -0.106696688 -0.169059008 -0.0104272952 -0.0275740605 -0.210852265 0.0203291457 -0.0112702688 -0.27161333 0.161589593 0.208475083 0.133148938 0.0974771157 0.143526912 0.0872537196 0.137807935
0.0275673121 -0.293149859 -0.197897539 -0.213565946 -0.230858475 -0.0651228428 0.240733922 0.343237191 -0.0588850304 0.00817129109 -0.0729081631 0.0219780467 -0.147075966 0.119501814 -0.164158016 -0.016449457 0.046483703 0.387281895 -0.111629806 0.0624108687 -0.0931385607 0.0926564261 0.353354454 -0.0493785813 -0.0719509795 -0.134144843 -0.114729136 -0.0793568119 -0.212167755 0.0215364601 0.0912761912 0.165833309
-0.0929909348 -0.0760107338 0.0186092891 0.182313561 -0.014069112 -0.229206964 0.0163489357 0.173673406 0.1765517 -0.0894319788 0.0643969849 -0.106731467 -0.113762088 0.099801518 -0.0795731992 -0.202886671 0.0505276099 -0.152541205 0.090546079 0.00533610443 0.23020038 0.124984786 0.178862989 0.137594819 -0.11242047 -0.268327981 -0.1234487 0.0323363729 0.220109835 -0.0379150324 -0.0249394551 -0.0731996149
-0.0799956322 -0.0748376921 0.0828223526 -0.137758583 -0.111401103 0.143758506 0.104493499 -0.211332366 -0.215267137 0.00910299551 -0.123989426 0.149565369 0.250017852 0.0698216632 -0.165186048 -0.228587002 0.0165758654 0.18038851 -0.198395893 -0.154431805 0.0380494706 -0.244193539 -0.00929027144 -0.19395338 0.101425223 -0.0881685466 -0.0149119385 0.103497028 0.130531535 0.0830558836 -0.244330242 0.179394916
0.226201922 0.296797872 0.228265077 0.0596701875 -0.126399383 0.0200678743 0.0276112705 -0.261775076 -0.0124931009 -0.12347009 -0.292431533 0.0567874387 0.231196091 0.10584484 -0.218192413 0.00212642807 -0.101647541 -0.0437157676 -0.138510764 0.11438109 0.0265939813 -0.0525961928 0.0140644321 -0.0104434518 -0.0386287123 0.251488656 -0.161579162 -0.0417301394 0.17767629 0.0878732577 -0.218519792 -0.00758684613
0.222877339 -0.153107256 0.196343765 0.106046386 -0.0120034171 0.0230833236 0.0307504181 -0.168105096 -0.159564331 0.187503695 -0.19582811 0.187586486 -0.214840069 -0.358032495 0.0851724669 0.0105997464 0.0311955009 0.026876118 0.168033704 -0.0535812192 -0.0555210598 0.122457914 0.0175678059 0.235753834 -0.269857824 -0.172902912 0.181759626 0.104856171 0.0266302396 -0.14087531 0.0205493569 0.102466546
-0.00463106111 0.16423668 0.0238382164 -0.369569033 -0.176419169 -0.00640176376 -0.0498711094 -0.0416669585 -0.0546985567 -0.247622728 -0.201452032 -0.0996753499 0.0318331495 -0.168515295 -0.0564562529 -0.0124289254 -0.130234301 0.051267691 -0.0795674026 0.172259048 0.0875531584 -0.0519190766 -0.00335571775 -0.101497263 -0.156957775 -0.0607400462 0.109958135 -0.0794146657 -0.0138011156 0.247318804 0.311593294 -0.0330984928
0.101465374 -0.168680161 0.0262198411 0.0903426558 0.126498759 -0.101677611 0.0961985663 -0.129035532 0.126079738 -0.239799306 -0.0792768076 0.0525757857 -0.206512779 0.128216058 -0.0626954883 -0.24818252 -0.0780192092 -0.163156778 -0.00960867107 0.124122225 0.00714438409 0.34011358 0.0116002196 0.137405723 0.208892897 -0.0902932882 -0.173031792 -0.143304333 0.29660219 -0.124698229 0.056626942 0.122706935
-0.235836208 -0.175995395 -0.174442574 0.011338721 -0.166635588 0.0473412871 0.234184697 -0.0411296003 0.0324452966 -0.105268613 -0.0304953922 -0.345281333 0.0116412044 0.213917106 -0.0894938335 0.0572929829 -0.124058478 0.0280614439 0.103368849 -0.109863639 0.129310966 -0.0324709266 0.137614965 -0.0665562451 0.262854934 -0.0594196394 0.0945390463 0.0209919252 0.162610263 -0.143243253 0.339189589 -0.199515253
-0.000537777378 0.0711048618 0.081765227 0.0808435678 0.0475951806 -0.173840165 0.0793592259 -0.162053943 -0.255146921 0.223850325 -0.183749959 0.201332614 0.0961806625 0.0213698596 0.11890015 -0.0133452443 -0.041123528 -0.141853482 0.0121406792 -0.190875247 -0.145803943 -0.104665272 -0.0387837924 0.208203375 0.161319271 -0.225143954 -0.0476075709 -0.32185322 0.0968261436 0.0831361637 -0.0666246414 0.0434887223
0.0391470231 0.114748254 0.0618674196 -0.169012621 0.0623428784 -0.154522657 0.137697592 -0.217029437 0.12348637 -0.172749698 0.138124257 -0.240004256 0.0431766622 0.294539034 0.250408232 0.0923774317 -0.00842273701 0.0835758597 0.0803096369 0.0586730391 -0.147466794 -0.19796811 0.130801424 0.118277147 -0.0194849279 0.0879458562 -0.181375936 -0.108813085 0.0883896425 -0.0344185717 0.302701682 -0.246853739
-0.171153322 0.0818142295 -0.14146468 0.194789395 -0.189136952 0.0907127261 -0.00538907852 0.0142092202 -0.107073084 -0.055965744 0.0239656288 -0.248422816 0.0562999025 0.196547836 0.161456779 -0.0775096565 0.179307342 0.092720367 -0.0234535951 0.250246525 0.121995419 0.133265123 -0.155173585 0.240780771 -0.137552589 -0.216588095 -0.00814455003 0.0862580016 0.116783641 0.209427908 0.0987619385 0.0691927373
-0.168315604 -0.248401746 0.0669334978 0.103343852 0.0861920789 -0.075792335 0.117957324 -0.100192867 -0.121607617 0.195800111 -0.0641954467 0.311134279 -0.163353667 0.00473745214 -0.0322181731 0.0355551131 -0.1023442 -0.0516002476 -0.0149588324 0.10816136 0.0924363807 -0.0274602566 -0.144988626 -0.0679597259 -0.076926209 0.131048828 0.105810016 0.219373897 -0.100164302 0.208413392 0.0483748242 0.0273652729
0.0966803581 -0.0221485905 -0.128808498 -0.084854573 0.0697593316 0.0982517526 -0.0260083452 -0.0208857097 -0.0981877968 -0.0921045691 0.151594177 0.0697580948 -0.0913282707 0.0540621541 0.308987558 -0.152915731 -0.0158311501 -0.212352782 -0.0717408285 -0.015246084 0.095522061 0.0817410126 -0.0915377587 0.109689221 0.0486420318 -0.0789791793 0.0453577787 0.063923426 0.113535218 -0.094683975 -0.129068166 0.171201438
-0.233166188 -0.133120671 -0.178123683 -0.0717678145 -0.0244251117 -0.139696926 0.0720449761 0.0785382837 0.102307104 0.170153081 -0.0026359458 0.0417404771 0.0301625319 0.27757445 0.184909105 0.162295952 0.00513705425 0.151118681 -0.378884971 0.106606804 -0.0198600218 -0.0241811834 0.100796938 -0.174417824 -0.0642197952 0.0347872302 -0.178607896 0.137855724 0.116023682 0.0159821045 0.260533333 -0.108227544
-0.0259418599 0.111776896 0.0674723387 0.0944899023 -0.197285652 -0.0140309371 0.273424745 0.0353927836 -0.103628933 -0.108844861 -0.189120829 -0.0121586109 0.000334407203 -0.255850166 0.0368840694 0.088189438 -0.0129498094 0.119267166 -0.0156495254 0.0427591018 -0.130699292 0.0807777867 -0.199498013 -0.108338736 0.0441183299 -0.0748205036 -0.224742025 -0.248618588 -0.0486719459 0.115408309 0.14272505 0.113748915
0.15827471 -0.0230451263 0.194173917 -0.024759613 -0.0341010392 0.124075569 -0.103194207 0.0457288213 -0.109943628 0.274789125 0.174510241 0.176443279 -0.149778202 -0.214709684 -0.227589056 -0.0484483615 -0.0422347188 -0.162030801 0.27263236 -0.0334862545 -0.000253664359 0.174002364 -0.342939019 -0.00374994217 0.275808603 -0.251352429 0.0939059779 0.254211575 -0.0841922238 0.0404849052 0.0872314572 -0.134039566
0.0270306151 0.13906765 -0.343233913 -0.00281591504 0.0812189803 -0.0946639031 0.202683702 0.0636776537 0.208811522 0.122602366 -0.150345996 0.00650864327 -0.0831393749 0.0994632021 0.245657027 0.079766579 -0.0171426106 -0.128053218 -0.0124792513 0.0986651778 -0.0701600313 0.0984894633 -0.0179015342 0.103400752 0.0666141212 0.111806408 0.0421080217 -0.184596762 0.199429363 0.00155300391 -0.12601544 -0.0637745932
-0.301555216 -0.0542754792 0.143545568 0.24762553 0.311352849 0.228270262 -0.13277255 0.00877316575 -0.120784082 0.162480563 0.0311010424 0.409199387 0.0971779227 -0.255038112 -0.452387452 0.0475929007 0.0727476776 -0.0819549263 0.0169818848 -0.0850096717 -0.422139585 0.329342932 0.23506704 -0.0155957239 0.0280159879 0.0574747808 -0.228089303 -0.155487657 0.398082554 -0.00682788622 -0.0964940712 -0.259375781
0.0465224721 0.00485492498 0.0412777625 0.0674940273 -0.142487854 0.402217835 -0.274596274 0.108317301 -0.00834456738 -0.259988457 0.258742571 -0.192190379 -0.113119222 0.33904016 0.390904546 0.286361963 -0.141272143 -0.0631231666 0.00726090325 0.0111507196 0.158423245 0.11965695 0.0741643012 -0.174957469 -0.0160324909 -0.0305226706 0.273794413 0.0948230252 0.18469429 -0.293754995 -0.0265122466 -0.00536008691
0.175048068 -0.14535819 -0.0278723724 0.138390794 -0.0192335583 -0.146518767 -0.184939161 -0.0987621024 -0.113885485 -0.136350393 0.0974839926 0.188456103 0.0987093002 -0.180315778 -0.034847144 0.0691071004 -0.20631589 -0.0877774805 0.15248701 -0.0208822787 -0.128281489 -0.0521012098 0.00447951583 -0.0105516752 0.0466145352 0.241298929 0.0973537341 -0.124697313 -0.0325668603 0.146157488 -0.0840279758 0.108684041
