# shape: 32 32
0.0771548972 0.0738420412 -0.0523767918 -0.109910697 -0.0612419769 0.126606196 0.17772603 0.117571376 0.0874288678 -0.0770569965 -0.00819369219 -0.00513335736 0.0686848462 0.0478382707 0.120089933 -0.0249873269 0.184800357 0.0592028163 -0.152112812 0.171376899 -0.0827861205 -0.322787941 -0.114640266 -0.210649356 0.114442915 0.00620154757 -0.0200462807 0.0333570801 0.194555119 0.000152111665 0.063577503 -0.0505398698
-0.117307402 -0.0820665509 0.104262359 0.0740419403 -0.158954129 0.102227889 0.139208034 -0.309894294 0.376240373 0.164709613 0.262321264 -0.164093867 -0.22936292 0.1943288 -0.22219637 0.0118060531 0.026003344 0.14467603 0.130413473 -0.00668325927 0.260765374 0.120465077 0.166256696 -0.0628370419 0.193808913 -0.111750074 0.12524046 -0.167364925 -0.0122822104 -0.117724501 0.151836514 0.0996260867
0.14268665 0.16005446 -0.0960041061 0.0432580784 -0.0367503874 0.244159013 0.0056269085 -0.0756364316 0.321313232 0.0297467932 0.0720972121 -0.105410822 0.129395962 -0.266808301 -0.164204165 -0.201188207 -0.202360868 0.0928349197 0.29299283 0.0885687843 0.0708838403 -0.0571607314 0.0556331314 -0.000336959696 -0.101079099 0.0143656777 0.13980189 0.121334933 -0.0159835257 -0.0267928764 0.236685649 0.211013541
0.143233567 -0.187929556 -0.0668357462 -0.0133444304 0.119416751 -0.100604996 -0.0141561665 -0.0669908673 0.0505519509 0.0641397238 -0.0369699262 -0.152745783 -0.232095271 0.0317828618 0.0890048444 0.0999165475 -0.24384962 0.187122837 0.106038973 -0.038012132 0.0480674766 -0.0589776263 -0.167544857 -0.357324243 -0.170168877 -0.0617115349 -0.0618876331 0.0785103142 0.222995505 0.287094086 0.110535324 0.17562072
-0.144344449 0.202941269 -0.195828944 0.18108651 0.106934234 -0.0976992026 -0.0661856681 -0.0920989439 -0.100500405 -0.167824611 0.130969301 -0.0347504728 0.23801209 -0.0034859695 0.115991078 0.146510929 0.10741666 0.167828396 -0.125731453 -0.152330428 0.262506396 0.196490452 0.0664276928 0.016235359 -0.0487279147 0.136721626 0.00905890856 0.221364915 0.0753593445 -0.169302046 -0.00914102979 -0.294225067
-0.147840723 -0.103183307 0.093287006 -0.0555550866 0.247864276 0.0137358001 -0.0595474131 0.0918536931 -0.056832958 0.126949444 -0.0966308489 0.0132785505 0.0074861194 -0.0792780071 -0.126183003 -0.0311316382 0.107436337 0.0591913722 -0.117542833 -0.223457202 0.0474359244 0.130527034 0.0777374357 0.174802721 0.042660635 -0.0122848619 0.058898665 0.0362320617 0.0754767135 0.13313356 -0.310957819 0.031639047
0.152353793 -0.117882855 0.0313629396 0.0152663533 -0.194703355 0.0147503614 0.0943014771 -0.294566453 -0.0983329341 -0.0478826426 -0.0669815391 -0.189637542 -0.0852158368 0.0917519853 0.0133244591 -0.0157517046 0.375660092 0.195557684 0.157865718 -0.139193878 -0.117915608 -0.00482215779 0.126166433 -0.196418017 -0.14594458 -0.106115617 -0.0759188607 -0.081660226 0.130537882 0.0352972746 -0.077278398 -0.0428997576
0.128718153 -0.206933945 -0.284897536 0.122945309 -0.233654186 0.230641514 -0.0358364247 -0.230618924 0.135825619 0.157594174 0.0319095887 0.212721646 0.0969279855 0.142989859 0.10445974 -0.0667268708 -0.135394603 0.149750844 0.240188569 0.006821841 -0.263964653 -0.113814056 0.086462386 -0.224010602 0.241418228 0.0212916322 0.210513413 0.181115687 -0.0582865067 0.102471434 0.0811150149 0.229310215
-0.201168284 -0.160538927 -0.0682465434 -0.0884912834 0.244045511 0.144010305 0.112587303 0.0808794573 -0.197765276 -0.083499372 0.212845221 0.0264139045 -0.198605806 -0.0712863281 0.160959572 0.167296365 -0.164358974 -0.0640031993 -0.196091309 0.171224609 -0.138319924 -0.108077623 -0.103341155 0.0949292779 0.15470323 -0.166168779 -0.0487320311 -0.113107346 -0.06107869 -0.191735879 -0.1837264 -0.0207151473
0.107415594 -0.0751794949 0.11514651 0.137709066 0.11161869 0.134384528 0.0482483357 0.127347142 -0.276298374 -0.10545785 -0.0663678497 -0.00431545684 0.0149597954 0.0320253633 -0.0582574159 0.160487264 0.0809793845 0.00543778157 0.153904185 -0.204937756 0.0953497887 -0.00636434788 -0.174186453 0.142979383 -0.00746198418 0.175713465 0.122684665 0.0184727795 0.17461516 -0.0422518589 -0.0109821325 0.028687859
-0.20571585 -0.149286047 -0.126971692 -0.0667738095 0.0709738508 -0.12816529 0.232679635 -0.234249532 -0.282972008 0.0198909659 -0.10086152 0.0535744503 0.0806316063 -0.0155227305 0.0463132523 -0.0605687983 0.0190870687 0.00481446739 -0.105151981 -0.0786506161 0.124407217 0.137840018 -0.0836190358 0.157550231 0.0966362655 0.223859727 0.0514430776 0.0948514715 -0.068228595 0.258162349 -0.00681547588 0.0193536691
-0.0660214499 -0.0372103453 0.0463427976 0.217994601 0.0744163617 -0.0832215473 0.0350827724 -0.210202172 0.196238622 -0.00133418827 0.121810526 -0.0678962767 -0.0552466512 -0.0572753996 -0.0643717274 0.0149916746 -0.150900334 -0.0424431451 0.0362521484 0.0723725483 0.0435650647 0.0589924417 0.039348729 -0.0811702758 0.12663576 -0.0621181838 0.141813949 -0.335900784 -0.0194447879 -0.328917772 -0.0423093438 -0.0470707268
0.0535043627 -0.137660682 0.209816203 -0.00840609241 0.0244979952 0.0679776594 -0.0201485772 -0.0447205529 0.0394283161 0.104487322 -0.213008642 0.155311018 -0.0649427325 -0.183484584 0.231632069 0.0751652718 0.119565912 0.157564551 0.228564307 -0.156099916 -0.0517869145 -0.022062635 0.20421581 0.15636161 -0.143710166 -0.152033299 0.311318815 -0.0728831589 0.115788653 -0.0607858188 0.0161033534 -0.14456813
0.264882416 0.333633482 0.243022785 -0.105412446 -0.0117765721 0.222821683 -0.0702790543 0.216245353 -0.283373147 -0.110490754 -0.0174952 0.106368631 0.139890537 -0.197037563 0.306888908 0.102757074 -0.155198753 -0.178990945 0.160999149 0.0831000358 -0.28574568 0.000997662428 -0.0681235045 0.0487944782 -0.0780292973 0.0323299766 -0.0991736203 0.470502257 0.0814779922 0.0875653997 -0.258284152 -0.250443637
-0.131029665 0.0432837866 0.0575573519 0.086680606 -0.00172811805 -0.0931330174 -0.0201296136 0.133273914 -0.242924258 0.177375257 -0.257734597 0.02808447 -0.0231671855 0.129537851 -0.168276042 -0.162477091 -0.0638971031 -0.129172713 -0.148910239 0.0240261033 -0.231876582 0.104526632 -0.0244997125 -0.10701862 -0.138870016 0.178646326 0.0614927188 -0.131255046 -0.050037954 0.105877385 -0.0796007961 0.0570071712
0.055874221 0.230615228 0.00348421675 0.0978914872 0.0721196979 -0.0672392696 0.222306356 0.104816914 0.057147529 0.0740162581 -0.295446396 -0.214517429 -0.050374262 0.124259137 -0.120373555 0.103200264 0.0176066048 -0.331290007 0.234145179 -0.0270374063 0.0193603449 0.174395561 -0.248769999 0.10863778 -0.165356442 0.104571007 -0.308334291 -0.00483573601 0.0506359562 -0.118076302 0.00851629954 0.279375017
0.25729239 0.147694156 -0.0776166767 0.196549222 -0.15100494 0.212668091 0.255110681 0.0651094019 -0.0567201562 0.103862353 -0.0794168338 -0.0496542417 0.279451549 0.0639324412 0.182730183 -0.0680701584 -0.129340187 -0.0374964848 0.262952775 -0.0229693484 -0.0688412413 -0.133283734 -0.0686759874 -0.138494223 -0.0509448089 0.0357086696 -0.0762855038 0.0267644282 -0.211625904 -0.083564274 -0.146920562 0.0238366611
0.170126036 0.0648720488 -0.0937587395 -0.0729402676 -0.133699015 -0.0208426826 0.00666077528 -0.0490151048 0.0515066981 -0.0877419338 0.159769028 -0.0151793258 -0.0138394795 0.153303534 -0.223394901 -0.00479113078 -0.159984171 -0.0925256684 0.115970947 -0.241975754 0.105273686 -0.192955822 -0.188679606 -0.12058647 0.222112179 -0.21187298 -0.0162599068 -0.169259742 0.173144579 0.0155563047 -0.200641632 0.106519021
-0.222278535 0.235772267 -0.0345692635 -0.0858273059 -0.0551054403 0.097431533 -0.0387573913 -0.062720418 -0.0812171027 0.172617063 0.046113465 -0.0206470657 -0.0446097963 0.103090242 0.12936151 0.263628632 -0.138602629 -0.026988009 -0.214648724 0.018533675 0.200468987 0.0992929786 -0.189602807 0.255569428 -0.220920384 -0.110030331 -0.0587718599 0.0861146599 0.115062132 -0.172415435 -0.259571224 0.243730769
-0.155760661 -0.116940245 -0.041197367 0.18836534 0.240241513 -0.184133798 -0.14528273 0.0349110588 0.152859077 -0.0938548893 0.0645703599 -0.000261667999 -0.0119227478 0.245178834 0.107471757 0.0541685149 -0.0196218155 -0.142661825 -0.0768577754 -0.170009747 -0.149915352 -0.011270646 -0.203287095 -0.167396531 0.138524875 -0.188413948 -0.106601045 -0.115098529 -0.0335422009 -0.0114487801 0.0541998297 0.129652023
-0.0298508834 -0.0117343934 0.183505625 -0.205775186 0.0456880219 -0.146074191 -0.242615849 0.122998357 -0.25173384 -0.0314435698 0.127713084 0.145056576 0.0937529653 -0.0110069159 0.0610236153 0.156352311 0.143939108 -0.146967158 -0.0478245988 0.187589705 0.0472646765 -0.07105349 -0.162468746 -0.0895868838 -0.227188244 -0.00774813117 0.0548378862 0.323574811 -0.0858354792 0.0104796523 -0.154702842 -0.0648544431
0.130426958 0.0445365086 -0.159725502 0.255418152 0.0429133289 -0.154848397 -0.0727225915 -0.145667002 0.186918169 -0.0317066126 0.111553013 0.0708861575 -0.0139425322 -0.0822216198 -0.0570105836 -0.234631062 -0.145759284 0.0460697934 -0.0246410109 -0.0537456349 0.325163066 -0.24140662 0.0050731115 -0.203592539 0.141442358 0.218787238 -0.0983530134 -0.075700134 0.0813373551 0.199037045 0.220144376 0.101745389
0.0975367501 -0.0125837354 0.1066643 0.127813071 0.0565850772 -0.115949549 0.0755291134 0.101536743 -0.184417993 -0.176468596 -0.0548867621 0.148561373 0.0598650761 0.187823161 0.103605069 -0.0377183296 -0.0891195536 0.0117427995 0.0293666851 0.143629447 -0.302050114 0.187276661 0.0946808308 -0.0968313068 -0.10172639 0.0418407656 0.0689634904 0.193448484 0.243061051 -0.038586475 -0.089269191 0.0308720618
-0.00768196257 -0.0646612868 -0.0985520557 0.197596222 0.173259318 0.02473066 -0.00833662227 -0.00410490343 -0.211142257 0.266909033 0.0348715149 -0.0440406688 0.0405548438 0.119486205 0.137869313 -0.160849422 -0.0527979322 0.140739039 0.0165292677 -0.10297896 -0.120661736 -0.210619777 0.198350951 0.168047443 -0.124705732 0.0374004319 0.124987751 -0.16842176 -0.181879476 0.216269299 0.0783503652 0.143964127
0.232219473 0.0153582077 0.0656359196 -0.11990466 -0.0730077848 0.0447107106 -0.133319288 0.0568084568 0.0220907088 0.0492988043 0.155292526 0.139613152 0.185123786 -0.171478763 0.082762979 -0.234012499 0.155583516 -0.0875800699 0.148235738 -0.248831093 -0.143869385 0.181137383 0.0222005621 0.111940019 -0.0721944571 -0.0653550699 0.148933664 0.208381101 0.117441729 0.0134206694 0.0992838964 0.120647088
-0.108629234 -0.111572966 0.078477487 0.0276551861 -0.00277389796 -0.180782944 -0.159547493 0.197827384 0.195267484 0.0306427814 -0.0901773348 -0.137344554 0.0853719562 0.0201912299 0.044099167 -0.0925232992 -0.0365036465 -0.114079297 -0.0376036763 0.0375613458 -0.0229313485 -0.0681189075 0.0015079031 -0.314458638 0.264195591 -0.0774822012 0.190986648 0.262906253 -0.198347509 0.0261550955 0.079597041 0.111290447
-0.18257603 -0.0208813045 0.0675214902 -0.130993336 0.0342470445 -0.0817470178 -0.114731185 -0.12219809 0.320678592 -0.0132697811 -0.00998235028 -0.129405513 0.0551764816 0.15144141 0.136843532 0.0709647983 -0.159916341 0.0521753691 -0.129328981 0.25941357 0.221228674 0.150025889 -0.109842338 -0.251705468 0.0840812027 -0.148681849 0.0480122343 -0.0321526229 0.0230904222 -0.0592517294 0.0426565036 -0.0543308295
0.180828929 -0.233772546 0.0687719509 -0.0865902603 0.119395167 0.0696064532 0.107191041 0.112076119 0.0523670316 -0.0407316349 -0.0115150353 -0.0659713447 0.0588588193 0.0180961043 -0.19229506 0.139154702 -0.146099284 -0.217536256 0.198746309 0.0320969783 0.0598110519 -0.107370868 -0.0577242598 -0.0846769214 -0.111244701 -0.10192021 -0.102681935 -0.00969042629 0.105722874 -0.0299349912 0.07355351 0.07972572
0.293682545 0.126736894 0.150000945 -0.0140694715 0.0976283774 -0.0241598841 0.161646441 -0.137545973 0.225617006 0.226809636 0.039519392 -0.0584385507 0.275862724 0.297932595 -0.0274140518 0.0876727998 -0.163997129 -0.0933186412 0.108194515 -0.0603100806 0.0906817541 -0.207893461 0.15554671 -0.138687432 0.010957296 0.0798176676 -0.149631798 -0.0176828392 0.278055012 0.14134644 0.0233439356 -0.0828844607
0.307884455 -0.0421901718 -0.16300793 -0.215542704 0.0820637643 0.107662186 -0.0715062469 0.203611612 -0.156816572 0.206227452 0.0615803003 -0.110022403 0.313340425 -0.022538282 -0.0479864702 -0.0652430952 -0.238260314 -0.205260143 0.17116867 0.00104355277 0.138642475 -0.245783448 0.196141154 -0.065030843 0.053785231 0.274222881 0.216923788 0.186156064 -0.0354854092 -0.178507164 -0.274946272 -0.263428211
-0.1254296 -0.111311741 -0.239922896 0.144697234 0.0200814158 0.0985883027 0.225093126 -0.167947143 -0.154394314 -0.18005766 -0.113039233 -0.172988951 -0.173832104 0.237837747 0.189046085 0.0508295596 0.329499364 0.212484479 -0.161474198 -0.165344521 0.187904626 0.0701098666 -0.32156831 -0.205607295 0.0632343367 0.151473969 -0.204926282 0.10146375 0.00554787368 0.0829153135 -0.158932343 0.0668623522
-0.0324569196 -0.1320059 -0.0941787586 0.0162223838 -0.173945874 -0.0314311869 0.191788077 0.131919116 0.0737133622 -0.182106718 0.00787586067 0.219975099 -0.0235383138 -0.0496257618 -0.0345942453 0.425930858 0.224457622 -0.0586601086 -0.105812073 0.0630612746 -0.140982226 0.242358938 -0.276600599 0.365863681 -0.171190038 0.203536704 0.398805946 0.235314697 0.152895719 -0.194100156 0.105983078 -0.322196931
