# shape: 64 32
0.126390204 0.0464594327 -0.0287544876 -0.00560085382 0.161605179 0.0582935847 0.0321719088 0.214512646 -0.0750180408 0.142614782 0.0369113423 0.11705754 0.0142063377 0.0654288232 -0.260777205 0.0307444409 0.147731036 -0.109491944 0.124524504 0.138810292 -0.0341687426 0.253444046 0.109557703 -0.135781735 0.00157453213 -0.253909051 0.18793723 0.0960351378 -0.0292013921 0.0290740393 0.134444848 -0.198074847
-0.203238294 0.195802435 0.0795297176 0.133641124 0.183805048 -0.105444886 0.0287324116 0.0289244894 -0.119573958 0.0698858798 0.343127728 0.23221916 0.204457656 -0.0437791012 -0.338173628 0.0178186093 0.0599065535 0.116377123 0.041754663 -0.245549411 -0.27515462 -0.215667009 -0.21181497 0.14230448 0.404521763 0.0558234081 -0.217602029 0.0798678324 -0.156392306 -0.231057942 -0.361063004 0.099401392
-0.116599903 -0.0192361902 0.0674536154 0.2392326 -0.0576545671 -0.0938865319 -0.0108699743 0.136197656 0.0555082299 -0.0179375727 0.168040857 0.0279131997 0.0425809473 0.0942469537 0.0266616512 0.0191115681 0.184758186 0.223749757 -0.167761698 -0.0962092578 0.108811617 0.211384341 0.253936112 0.22972171 -0.302583516 -0.203310519 -0.176416591 0.173244759 -0.287669033 -0.0260631964 -0.0880665928 0.0902332813
-0.231097385 0.0807601288 -0.203072786 0.032137204 0.238598138 0.2703076 -0.260798663 0.219762817 0.185183793 0.17591913 0.0308643263 -0.151342437 0.00492832297 0.241694033 0.0598401316 0.213412791 0.121828303 -0.0694500282 0.232299343 -0.0292450096 -0.287787944 -0.0471139252 0.0502811819 -0.31139189 0.272119075 0.147488192 0.081215106 -0.0950619802 -0.112624943 0.22317487 -0.163978308 0.0672260597
-0.196416408 0.282759428 -0.250599086 -0.0502839722 -0.123355977 0.201634169 -0.102382086 -0.185172707 0.299436361 0.186830759 -0.0607255399 0.161418155 0.0349257998 0.0140427463 -0.00327254971 -0.098758325 -0.537608981 0.0177564602 -0.0713976249 0.118266523 0.0381071977 0.346021444 -0.00388820563 0.18223618 -0.209240943 -0.0291412808 -0.192466587 -0.477747351 -0.457114697 0.270494401 0.225169599 0.206476837
0.105266944 0.267580003 0.202527031 0.201028228 -0.0814112201 -0.397416621 0.307794124 0.12084645 -0.361581266 -0.0740383416 -0.346949816 0.170748234 0.056979727 -0.479941696 0.339071572 -0.0202175323 0.347762018 -0.304690599 0.0736594945 -0.193315044 -0.0135279745 -0.0619448759 0.22549206 -0.0305669643 -0.0112746898 -0.100512877 0.327480048 0.141147301 0.192846745 -0.15084672 0.420879453 -0.496895581
0.321069062 0.0646957234 -0.310737878 0.0481816344 0.121753789 -0.00936494861 0.168957978 -0.124063216 0.170542732 -0.331807137 0.191503912 -0.150819078 0.0126056559 -0.124186575 -0.198515132 0.406353563 -0.130233049 0.177937448 -0.0011420449 0.117408589 0.0976056829 0.0167016666 -0.1985645 0.117961213 0.083798863 -0.175400406 0.0156323593 0.00455660466 0.150406137 -0.385449052 0.136671454 -0.198533326
-0.0937211737 -0.156396434 -0.0998635218 0.169037044 -0.227927208 -0.0653077215 0.324536026 0.116813295 -0.118248843 0.121876709 0.27270788 0.229481965 -0.0190984234 -0.00275293016 0.120619796 -0.242398024 0.136165053 0.0932696611 -0.0289591514 -0.103178293 -0.134895578 -0.217750922 -0.143575713 0.0641915798 -0.135951668 0.171201333 -0.100840271 -0.370962054 -0.0909938812 -0.252545059 -0.070110403 0.284786016
0.0678313076 -0.208157554 -0.48973757 0.143448204 0.123351544 -0.289350569 0.294527858 0.289644331 0.025184704 -0.395318002 -0.0817871466 0.092008613 0.131815374 -0.471069843 -0.342419535 0.355798006 0.080224961 0.0865740851 -0.168317631 0.0169884302 -0.0501786768 0.0519279242 -0.106149942 -0.244700089 0.06923417 -0.0202657487 -0.223107547 -0.29511863 -0.244403958 0.0476044789 -0.153483883 -0.0757303759
0.0745876059 0.336030453 -0.0378357545 0.297055304 0.0867368579 -0.0539636202 0.0937747955 0.0674278811 0.283085585 0.318509936 -0.0159960631 -0.0801905245 -0.0401075669 -0.197956815 0.0332634561 -0.355180353 -0.302845001 0.0328741185 0.203268409 0.285906702 -0.298058689 -0.25752458 0.193051159 0.178688884 -0.143131778 0.0415955521 -0.149654523 -0.0245176647 -0.0109555852 -0.279819697 0.0411198586 0.118489124
0.325809091 -0.260418475 -0.0923964158 -0.330542415 -0.146862701 -0.437354624 0.185606465 -0.0688103288 0.373013198 0.122383311 0.23600325 -0.230523735 0.0192075614 -0.00224272371 0.24137336 0.069984071 0.264424205 -0.0816277117 0.412606597 0.203671426 0.264299184 0.113342166 -0.439466834 -0.360744178 0.0856083483 -0.0287503712 -0.134185642 -0.0887017325 0.378308475 0.155350804 0.0682354346 -0.0286875907
0.313239664 0.435922861 0.274953008 -0.123718888 0.12889412 0.0722791776 -0.199186027 0.199493855 0.0198698007 0.0164213777 0.0416175053 -0.263691038 -0.234418914 -0.384916067 0.161431223 -0.229441106 -0.212361351 0.07197164 -0.334951729 -0.0633592531 -0.370059788 0.197910264 0.420941114 0.00705825537 0.220452696 0.0856161192 0.243301392 0.0993892848 0.16151689 -0.0482271276 -0.162829608 -0.113838226
-0.030953316 -0.238445207 -0.141314104 -0.237990737 -0.157480821 -0.476870835 0.171611056 0.150502652 -0.233327463 -0.523528039 -0.0104223294 -0.173017994 0.00889124069 -0.0680573881 0.379340827 0.212555021 0.0526008978 0.0259176511 -0.0265629049 -0.316079199 0.206117272 -0.0198846515 -0.00396815082 0.174906015 -0.203916281 -0.200812683 -0.101475358 -0.0947420299 0.225734204 -0.0369382165 0.00263748644 0.0612572245
0.353578627 -0.192679152 -0.28625378 -0.262062222 0.278247118 -0.139088064 0.150538117 -0.030304011 -0.359141827 -0.00790918712 -0.0150125083 0.0924185887 -0.00218901015 0.152255714 0.320290685 0.188072562 -0.00933625363 -0.278055221 -0.0301570017 0.047354009 -0.227716029 0.0252313334 -0.0168820284 -0.148346081 -0.163345978 -0.0243283864 0.0499067567 -0.11057879 -0.180513516 -0.106627271 0.219307825 0.0317322984
-0.328475356 -0.194900095 0.166233093 0.0739664435 -0.106301486 0.273805767 -0.325176895 -0.0479955412 0.158404171 -0.250104934 0.193721265 -0.110173061 -0.27352196 0.408237487 -0.114925399 -0.267226726 -0.106691755 0.16831407 -0.253339171 -0.0751844719 -0.308318257 -0.154709205 -0.0665861219 -0.152478606 0.0266045257 0.0986175463 -0.203062668 -0.300919682 -0.29666841 0.10139443 -0.147283345 -0.190300256
-0.142658204 0.0463060997 -0.0737605616 -0.0995961353 -0.0968287215 0.150155723 0.111231007 0.164903775 -0.00803066976 -0.0278099142 -0.199517578 0.161329582 0.243375242 0.255823106 0.0359063372 0.156261027 0.199584469 -0.367524147 -0.0771269724 -0.381237268 -0.0800748914 -0.0843044147 0.0165963769 0.147087902 -0.255780071 -0.119226962 0.217722327 -0.1762086 0.0819644332 0.125850037 0.310151786 0.18891874
0.239361778 0.018787628 -0.32959646 0.166977823 0.32926029 0.16038233 -0.0741580054 -0.290427506 0.231647581 0.0697131976 0.179168269 -0.0654882565 -0.045008231 -0.0128333848 -0.0267092083 -0.0511163399 0.0516086891 -0.187438175 0.061198514 0.21310392 0.014136143 -0.0184296817 0.22357969 0.122576095 0.192502514 -0.139785975 0.277545452 0.173846796 0.0112040276 0.0553459898 0.0448024236 -0.178575099
0.190267131 0.0363418274 0.00204202067 -0.0348863006 0.239129424 0.236493647 -0.147958681 -0.0426705554 0.267083317 0.0698337331 -0.130154252 0.197344124 0.0154822432 0.179045111 -0.0112295598 0.224121362 0.0674695969 -0.06385272 -0.247238994 -0.151654512 0.0488628261 0.219321176 -0.0590944774 -0.233026907 -0.275962442 -0.178101435 0.1705046 -0.250197381 -0.343660742 0.143173322 0.0510771722 0.0964191556
-0.235077739 -0.0343099385 -0.0834043622 0.266875803 0.224862337 0.0453828909 0.250658512 -0.0611069016 0.292300195 0.075159587 0.0470142439 -0.185892612 -0.113980368 0.0171991512 0.14300184 0.169930562 0.0567793809 -0.275090665 0.130415931 0.244469017 0.0433587618 -0.204851121 -0.371619314 -0.041877564 0.260963559 0.401795864 -0.143294662 0.15183121 0.146974862 -0.0226822905 -0.316611767 0.144690648
-0.0612717271 0.140596852 -0.0271211322 0.0216315389 0.137811542 -0.14868556 -0.260364056 0.00982564408 -0.246205389 0.11784701 0.11496494 -0.310017139 0.0876090229 0.166555434 0.106495097 -0.253350616 -0.3029719 0.0316629708 -0.0232463274 0.240681723 -0.0417588912 0.208088338 0.266811281 -0.300879121 -0.202979967 -0.0161402598 0.162295103 0.0528578833 -0.146203816 0.187709779 -0.160910964 0.356160194
-0.0121231349 -0.350828648 0.126333058 -0.19396542 -0.118205242 0.170655921 -0.150134116 0.0859992504 0.232763037 0.16812329 0.00545865623 -0.0748742372 -0.149403676 0.350207597 -0.00211023213 -0.272708297 -0.174382135 -0.239123613 0.257548094 -0.184617579 0.00587787619 -0.124743499 -0.274179459 0.216758862 -0.117322497 0.079038009 -0.119201832 -0.241473943 0.274589896 0.0803228393 0.0814671293 -0.0680611804
-0.128590822 -0.0587073341 -0.0576743372 0.0322812982 -0.107085191 0.274130225 0.0156300738 0.0299183559 0.285489112 0.375214368 -0.133390158 0.300295681 -0.152874544 0.104028456 -0.378959984 -0.258193761 0.0644614473 0.173438385 -0.123137623 0.202470988 -0.0256107915 -0.226513818 -0.165425926 0.454250455 0.0854955241 0.0341612548 0.00183240057 0.0901141688 0.0380364545 -0.137089491 0.0902741551 -0.199751288
-0.172500968 -0.259845346 -0.117788881 0.0523356311 0.0884163752 0.346804678 -0.100172043 0.00847732089 -0.489223212 -0.0791521966 0.0846979097 -0.102383062 -0.0440137014 0.402688712 -0.27749905 -0.216463476 0.252769589 -0.188661754 0.125186488 -0.315748572 -0.108915798 -0.276936144 0.220074952 -0.0644015744 0.233883277 0.297005504 0.0957024246 0.290851235 0.010312954 -0.014529068 0.083987847 0.235351875
0.269420624 0.0565575697 0.151664004 -0.173414335 -0.0421222746 -0.026928043 0.0358699262 -0.226144776 -0.0418165103 -0.110628024 -0.12426459 -0.24942337 0.357869476 -0.18695727 -0.0431372896 -0.110752344 -0.304057151 -0.393858165 0.0308379363 -0.0681407377 0.106199361 0.0989795476 0.0356319621 0.0383190811 0.00412045233 -0.346226156 0.330584913 0.408107758 0.139651731 0.105250113 0.161560625 0.0143990964
-0.0528161824 0.384586066 0.219806075 0.169085339 -0.0451994836 -0.296886772 -0.0647204518 -0.246981218 -0.0138244908 -0.0114343381 -0.176845446 0.0872155428 -0.184890956 -0.28289476 0.327165037 0.0719233751 -0.0456117988 -0.28382653 -0.133068308 -0.15127492 0.226605192 -0.0730396658 0.0393157043 -0.00785246585 0.144678622 -0.240484998 0.220241413 0.201621637 0.00390630635 0.284535855 0.117833868 0.0509691164
-0.0184899047 -0.0768603459 0.293830961 -0.356000125 -0.0575601496 0.06876003 -0.0276631787 -0.144449338 -0.191705629 -0.246623665 -0.0282549094 0.193237349 -0.0922793224 -0.0921755657 0.0193292312 -0.386588424 0.0401056223 -0.387602568 0.106880568 0.207330331 -0.136120856 -0.177217349 -0.0191678908 -0.139896721 0.147265211 0.0986155942 0.0946510211 0.060238637 0.179453373 0.00737942709 0.268993855 -0.0146968663
0.181085512 0.069225572 -0.487583876 -0.0652407929 0.12938264 -0.135012403 -0.295433313 -0.149464816 0.286522537 -0.126165479 0.38062951 -0.261719525 0.213218689 0.164749742 0.116758801 -0.149681404 -0.170141354 -0.0562676825 -0.0749130845 -0.00912985206 0.150093496 0.269120753 -0.0122310789 -0.217803791 0.0218406636 0.436831445 -0.0653371736 0.0362756029 0.510779202 0.325709105 -0.372288704 0.179962277
-0.231058389 0.253429532 -0.0378657877 0.30513376 -0.0219863001 -0.148718834 0.187064618 0.132850334 -0.392176688 0.0129851876 0.049339328 0.109537698 0.296007663 0.156738788 -0.0142597174 0.323128402 0.144151047 -0.0681978017 -0.10328567 -0.325706422 0.0130386176 -0.368113548 0.069952026 0.144859076 0.0623882599 0.339412898 -0.162253469 0.0571816191 -0.0202158354 -0.252606541 0.086629279 0.142501816
0.028571479 0.0929026976 -0.00751931127 0.273878008 0.176183209 0.330529958 -0.060520377 0.280988395 -0.155580997 -0.0740198344 0.106051169 0.123809956 0.133487955 0.165327206 -0.181939647 0.278963447 0.0772024766 0.245473042 -0.402252406 0.130584165 -0.281432152 0.221794978 0.415670604 -0.190545097 -0.15741834 0.277160525 -0.0440317579 0.324735612 -0.29068163 -0.0158978663 0.204459295 -0.0756590441
-0.271255225 0.0510174297 0.149841487 0.25343895 -0.0159180928 0.164666966 0.029600827 -0.147024363 -0.27974695 -0.127933517 -0.00125421362 0.186303526 -0.348128825 -0.157293722 -0.198617861 -0.542399287 -0.176450416 -0.163466409 0.000456448586 -0.187486112 -0.187164292 -0.284665078 -0.0629922003 0.0382360779 -0.113021322 -0.086596489 0.126386732 0.168074563 0.217000932 0.106284469 0.209300429 0.182804883
0.141641885 0.0322322063 -0.155156612 0.00980015285 0.289009482 0.314760298 -0.0912712887 -0.0785526931 -0.0929771811 -0.184834078 -0.0629599839 0.0756487697 0.309018821 0.0684598684 0.0935287401 0.17470479 -0.144175872 -0.392551959 0.00866030622 -0.277143657 -0.198950753 0.176678643 0.312313974 0.290466249 -0.0571886934 0.14301388 0.04366602 0.0175847262 0.233386189 -0.0795278773 -0.193012178 0.0228443723
-0.273735553 0.0830235183 -0.385971606 0.344257206 0.275416583 0.0162264146 -0.109908931 -0.160294995 -0.091422379 0.0945983753 0.0736292824 -0.259421498 0.232904702 0.138537958 -0.107549235 -0.0226871576 0.018919671 0.431817889 -0.107289568 -0.223136887 0.143857285 -0.112814635 -0.223569617 0.0258667525 -0.10188181 -0.0586089157 0.0382992588 0.0443441384 -0.2273065 -0.197587729 0.0427075066 0.181984201
-0.367371798 0.536429882 0.0793528482 0.0735629871 -0.135395989 -0.0714883879 0.203676254 0.140221924 -0.363373727 -0.412136376 -0.262457281 0.100647427 -0.188451156 0.0568278842 -0.0336440951 0.324061662 -0.0521296449 0.207987353 -0.204379484 -0.224110737 -0.0385801755 -0.087514475 -0.137521863 0.245666131 0.110741243 0.14360024 -0.104360759 0.279264897 0.069649674 -0.0953945667 -0.251240462 -0.0588921905
-0.0552735031 0.292432696 0.435501069 -0.389281124 -0.251206607 -0.0945942551 -0.028278498 0.0075118877 0.22090964 0.274919122 -0.0730494484 0.0788016021 -0.136137888 0.378388673 0.430511981 -0.403279096 -0.0639573708 0.0795550942 0.143564165 0.00970011018 0.00638781674 0.247567162 -0.0690003932 0.10178493 -0.430685967 0.0671998411 -0.0104800574 -0.132930204 0.194868773 0.0712430105 0.209771201 0.212255463
-0.0201415494 0.0290949754 -0.238010466 -0.176603675 -0.00014784628 -0.0985880792 0.0224194061 -0.288660794 0.0480847135 -0.0784178674 0.0508082658 0.113301642 0.243523598 0.366832167 -0.10512086 0.109221555 0.0634245351 -0.399298638 0.252482772 -0.128720716 0.226685762 -0.228503779 0.0261850022 0.21617499 -0.233361915 -0.199490294 0.0365404822 0.139022708 0.0364217237 0.0812507793 -0.0458209142 0.111024737
-0.124011464 0.0423911996 0.180204585 -0.0144940969 0.012693041 0.0832604617 -0.0163741633 0.0819504932 -0.199358195 0.101544924 0.0977912173 0.0373654999 -0.080493331 0.0325039998 -0.376057148 -0.127463087 0.149107128 -0.306520313 0.268229544 -0.186279088 -0.0674213246 -0.291079134 -0.305147737 0.31295234 -0.117267273 0.131086424 0.141341344 0.0647233725 0.189295724 0.138115019 -0.0776546523 0.208662525
-0.0256497264 -0.252466679 -0.0809435472 -0.108447425 0.094889909 0.0413722433 -0.305648208 -0.0284471344 -0.136433914 -0.154867455 -0.401074022 -0.163980708 0.0737875924 -0.0211606584 -0.178359434 0.0229309797 0.19076483 -0.0515943654 -0.296838909 -0.0263314378 0.0867315158 0.00579381874 0.300188899 -0.0382021703 0.0217047688 0.064068377 0.340930969 0.128511116 0.133096397 -0.203852847 0.202909991 -0.199182525
-0.0397134908 0.224945173 0.0141982203 -0.13052462 0.0215787534 0.00738526369 -0.18634592 0.389589489 -0.162415639 -0.278182447 0.319346517 0.0023460323 -0.106205851 0.0105388137 0.315645128 -0.285473138 0.0922204629 0.0458511412 0.111864418 -0.404817164 -0.31610024 0.186053887 0.187244773 -0.15601024 0.172577903 0.0602373853 -0.149889514 0.281236947 0.311982006 0.292238563 -0.385430455 0.0178897884
-0.160305962 0.052648522 0.0428801253 0.0432375707 0.124283798 0.0179328565 -0.116831601 0.0612383746 0.139756948 -0.176151186 -0.0588649437 -0.00286289374 -0.418147296 -0.247782424 -0.165207565 0.174806967 0.00107735849 0.281607866 0.24492991 0.0220119469 0.0729007199 0.300351083 0.0190874375 -0.118238688 -0.0611180961 0.126584724 -0.204128295 -0.0419398062 -0.369376421 0.186538443 -0.100482516 -0.299059063
0.126651525 -0.159004673 0.0586517602 -0.280052871 -0.149523795 -0.210141599 0.0910627395 0.105030239 0.428858519 0.194723904 -0.203118086 -0.121815234 -0.146171212 -0.17705974 0.0388783962 -0.0699977428 0.063599892 0.16520068 -0.0857976004 0.142232642 -0.0997830331 -0.0432186946 -0.13479048 -0.01867125 -0.0499995984 -0.0250107311 -0.293305695 -0.30467847 -0.0660906807 0.322209448 -0.17362459 -0.277187854
0.0740113109 0.213391885 -0.0337059423 -0.0835980251 -0.0834653229 0.00318047893 0.151948273 -0.182089344 0.305326194 -0.00695599709 0.168268085 -0.061708007 0.0370341726 0.162820742 -0.0748624727 -0.358679116 0.182845607 0.340922832 0.238976181 -0.103580743 -0.090698339 0.325375766 -0.368783116 0.04084621 -0.185617507 0.153733179 -0.192876205 -0.16551277 0.240613163 0.210324124 -0.00165883685 -0.0898407921
0.0225042123 -0.120245397 -0.176132888 -0.148820192 -0.259223372 0.0519240499 -0.246008933 0.248267829 -0.092934534 0.0924050212 -0.171736538 -0.0651574209 0.0266018994 0.392891139 -0.0628208071 -0.289650768 -0.029408088 0.192617625 -0.397976398 -0.248252898 0.212297812 -0.0447962657 0.213250995 0.032852862 0.176037475 0.304065287 -0.248999074 -0.041677285 0.124096729 0.252939403 -0.0407857373 -0.105329819
0.317109823 -0.083351858 -0.274537981 -0.249000311 0.145982891 0.0657604486 -0.117724113 -0.207337216 -0.121625245 -0.0634931996 0.032832697 0.185702592 0.0724476874 -0.0360208228 0.0408144407 0.0858642533 -0.209366351 -0.0316656455 0.101712815 -0.227585524 -0.002993481 0.310828984 -0.129630089 -0.0306367408 -0.196034908 -0.37884444 0.107366934 -0.0723038018 0.134156421 -0.129298344 -0.0727148354 0.274418175
-0.135995567 0.0390393063 0.153356761 0.158341914 -0.103576005 -0.198053196 0.174935684 0.328339785 -0.144520789 -0.081744127 -0.11889565 -0.276388258 0.147855267 -0.0597861297 0.217996821 -0.0890910402 0.151502132 0.0946998 -0.138069764 -0.0731978565 0.253669232 -0.0925763696 -0.0884156823 -0.20064798 -0.0564610995 0.0831131339 -0.02105348 0.207939655 -0.131594107 -0.107164316 0.0429469422 0.0716102123
-0.0608610213 -0.111431494 -0.0601419918 -0.296493471 0.128493905 -0.28837657 -0.0581987873 0.428985775 -0.407442182 -0.0679576248 -0.213615894 -0.125172362 0.0724138394 0.207436591 0.353338599 0.0287852846 0.274296016 -0.0431144536 -0.0683577657 -0.0141410455 0.144046366 0.299050301 0.00347004319 -0.343141615 0.130793273 -0.0631216392 -0.192528158 0.0912652388 0.29483813 -0.108378522 -0.0961681902 -0.151796132
0.324568957 0.05366062 0.0752149895 -0.230193943 0.171651304 -0.210887715 -0.0983252078 -0.330665678 0.436166137 0.36745894 0.184373453 0.187005416 -0.0710884929 0.147923753 0.0412502773 -0.269113392 -0.131059289 -0.0172338318 -0.0182009917 0.0948694721 0.344133437 -0.0967187434 -0.199031875 0.020659741 -0.0228684973 -0.0736413896 -0.0528134853 0.0188093539 -0.0468802117 -0.139004812 -0.108266234 -0.0659494251
-0.0836859196 -0.00557509437 -0.263991416 -0.166153133 0.0838841796 -0.105690591 -0.203667372 0.28390795 -0.311119109 -0.281625032 -0.0899519399 -0.0798860639 0.153821945 0.0815676898 0.325114816 0.147365749 0.401502132 0.0777210817 0.0793738738 -0.0102307769 0.235316917 -0.162340954 -0.352068335 -0.0472115986 0.497234732 0.00383916264 -0.117546685 0.185024157 0.451936305 0.175329164 -0.413813442 0.00973507389
-0.164372221 0.127881289 -0.0532449968 -0.0741159469 0.181581616 -0.1946325 0.176243767 0.239684269 -0.262951642 -0.228259414 -0.0833467767 -0.0879959837 0.339342803 -0.0947466642 -0.0149495769 0.288709998 -0.0974547192 0.0807745233 -0.207253009 -0.23088783 -0.386279404 -0.11149136 0.239957616 0.201397315 -0.00156814465 -0.0693584979 0.147045121 0.0279035568 -0.00277431612 -0.254820377 0.303061247 0.330042005
-0.261930585 0.0875724927 -0.0419399478 -0.029946072 -0.271105528 0.0799031034 0.0801590681 -0.241232768 -0.127444044 0.0468012616 0.139832661 0.175844297 -0.142953485 0.0154056838 -0.222587213 0.141240969 0.226564929 -0.333908141 0.132895827 -0.247707173 0.308240116 -0.032578811 -0.0936594531 0.451075226 -0.178228915 -0.0969401971 -0.0689889044 0.293388844 0.128586575 -0.12821272 0.421715319 -0.264093935
0.236103386 -0.114603624 -0.325562924 -0.172344252 0.117820255 -0.073107779 0.423754156 -0.112310275 0.240245983 0.212020412 0.37725687 -0.019257715 0.0709789023 -0.117611535 0.119907327 0.258923799 -0.180686384 -0.118023589 0.0499208458 -0.162370771 0.0289814062 0.109554633 0.0211758018 -0.0498060286 0.093191646 -0.145070955 -0.252178729 -0.411057234 -0.164776847 0.197620332 -0.430850327 0.209210113
-0.138155341 -0.221621051 0.405696809 0.0435611606 -0.12319158 -0.1903999 0.0775631443 -0.100767203 0.167050108 0.0745498314 -0.327279896 0.100047372 -0.10107974 -0.104385324 -0.0140413698 0.0228691567 -0.0381412171 -0.0900614336 0.211835027 0.103673063 -0.00133841694 0.0711842924 -0.0676261932 0.100260861 0.179178417 -0.21058324 -0.0466746576 0.127271414 -0.0441186912 0.251118779 0.0810076222 -0.349088371
-0.250491381 0.15341872 -0.309504539 0.318535 -0.34319222 0.343852758 -0.0306830984 0.337606877 -0.0507037379 -0.168371186 0.166283593 0.00309790531 0.0595185868 0.141463116 -0.39748168 0.055877842 -0.022088334 0.428686112 -0.342554867 -0.133512124 -0.0799763948 0.063196674 -0.107359909 0.0627421215 -0.231352851 0.226849183 -0.0166805796 -0.158333629 0.101874664 0.0825076774 0.0856576115 -0.207066953
0.0608660057 0.0790814087 0.282723188 0.152701885 -0.121749185 0.171887234 0.00192249916 0.164285302 0.377181023 -0.0326535776 0.0269570556 0.114003472 -0.162740648 0.0569202453 -0.0812923163 -0.186670989 -0.0679640695 0.351907551 -0.0264222622 0.17516163 0.309536576 0.278609812 -0.220436931 -0.252614558 0.013533419 0.238214776 -0.118764527 -0.0187826324 0.103774369 0.483109832 0.0339888111 0.102607392
0.0882021114 -0.105385602 0.0447220281 0.13496244 0.176667392 0.0210332926 0.0670770109 -0.112694353 0.203128576 -0.102927767 0.122463658 0.0492519327 -0.211187959 0.0959587172 -0.0110997427 0.272993714 -0.0141262235 0.0826239511 -0.218630761 -0.00556291267 -0.148952812 0.137388036 0.288862586 0.0390008166 0.162669122 -0.0639775842 -0.192941606 -0.0855025053 0.0491884127 -0.0151204346 -0.00596274482 -0.0204875693
0.056266278 0.178942055 0.29935804 -0.0185568091 -0.207250148 -0.363498181 0.270913571 0.0265526194 0.0417284705 -0.230596706 -0.15973407 0.00577640766 -0.251518518 -0.0921997577 0.464182884 0.143669844 0.228837758 0.00671716174 0.307818919 -0.289200634 0.109637901 0.0342375152 0.0223602708 -0.0243138354 -0.0574069582 0.00749931298 -0.341314912 -0.256583899 -0.0615182817 0.28847903 0.291129619 -0.208768249
0.051445365 -0.399730444 0.073255986 -0.252869636 -0.168662488 0.20096606 -0.0939049274 -0.303801566 0.450264394 -0.178413928 0.0324334092 0.0565331951 0.0397907533 0.111251019 0.189822987 -0.0377958938 0.019295143 -0.119113669 -0.0265437048 0.259881794 0.132162839 0.154439017 0.0926738903 0.219172344 -0.0713462159 -0.0947854742 0.048189152 -0.289191008 -0.131922632 -0.0249467287 -0.123125695 -0.137224838
0.00825292338 -0.167517334 -0.052189365 0.0906832144 -0.188255563 0.313534498 0.105878673 0.0437117592 -0.0296585131 0.10587962 -0.0470747575 0.0431237854 0.148813725 0.426968992 0.0149033731 0.100850679 -0.203575075 0.104644381 0.141873121 0.0912641436 -0.23391971 -0.270972133 -0.135690019 0.260855436 -0.105837919 -0.0771366432 -0.179182574 -0.0410494469 -0.18910794 -0.0393885858 -0.0298321508 0.145856947
0.011210436 0.266740263 0.0851201937 -0.0847651288 -0.236205429 -0.0820173994 0.311787009 0.0284032542 -0.0130767943 0.195734784 0.0860203877 -0.219470531 -0.211052671 -0.413335562 -0.0938343853 0.299038947 0.363298595 0.220457926 0.174256086 -0.203102767 0.252087772 0.0405711718 -0.138181761 -0.0164181571 -0.187002793 -0.486571372 -0.219030499 -0.255941272 -0.521011055 0.0292839278 0.355142683 0.0315502547
0.0551616922 0.375242949 -0.0307015572 -0.167902991 -0.0622177646 0.0384083577 0.205062345 -0.0330401845 -0.133383214 -0.283068806 0.185424715 0.134635672 -0.252069354 0.162504882 0.0930775627 0.0492379218 -0.369886696 0.281570822 -0.184540763 0.404875368 -0.195127636 -0.281627655 0.0347550549 -0.133657083 -0.116340324 -0.00252280873 0.111608364 -0.329638422 -0.33298865 -0.106229492 0.0287736617 0.0791006982
-0.00351352477 -0.00447697844 0.507977843 0.153484344 -0.469855964 -0.255717427 0.0534911081 0.0573894754 -0.0167344995 0.38134113 -0.118939117 0.152673095 -0.242374152 -0.0996769667 0.241628706 -0.112583034 0.0378927849 0.00828993786 0.186722413 -0.206960484 0.324441433 0.0716206506 0.165219113 0.25257507 -0.123209342 0.0528647117 -0.01501715 0.136822611 0.276247501 0.402899623 0.288339555 -0.285869867
0.253815085 -0.298629612 0.0203882232 -0.267733365 -0.106184006 -0.179722279 -0.029711213 0.252884686 -0.0908017457 -0.225328058 0.20468311 -0.216868445 -0.231542826 0.0837931782 0.3210316 -0.0444018431 0.0743191466 -0.0696040243 0.00203603297 0.0828692168 -0.208641082 -0.0995367691 0.0885312557 -0.328672945 -0.125331491 0.145999447 0.000263007503 -0.0961805582 0.0348212905 0.155347422 0.297887564 -0.185298517
0.050857611 0.178388774 -0.170297474 0.278814763 -0.0822794214 0.141559586 -0.000270215416 -0.0497434214 -0.00182537816 0.165437505 -0.0169662461 0.0453517362 -0.0523846373 -0.449853629 0.10266038 -0.0861381069 0.0510211438 0.0652013794 -0.196637586 0.275190681 0.114941813 -0.201898992 -0.0119124027 -0.0704254359 -0.163118273 -0.0885813087 -0.444043845 -0.306105107 -0.210417762 0.138817325 -0.319852054 0.206731498
0.122570224 0.274258643 -0.10055314 0.146811694 -0.0771903247 0.0715409517 0.163401708 0.122133829 -0.15223296 0.286532193 0.044714056 0.466689646 -0.037722595 -0.32114923 -0.00375330634 -0.0427494869 -0.133409053 0.132935196 -0.120081328 0.366323262 0.152739868 -0.208231568 0.0925614238 0.0581750609 -0.00328337424 0.0958626345 -0.0985059738 -0.193480134 -0.230716988 -0.332612544 -0.278585017 -0.0189119726
0.010145599 -0.155482739 -0.0115871653 0.156999186 -0.0116821807 0.0732602552 -0.219861522 0.0420700572 0.00794562232 0.234015018 0.283552855 -0.0339433178 -0.109848365 0.208187714 0.0843796134 -0.0477711372 -0.0324035548 -0.207499489 -0.09101215 0.127226219 -0.227284059 -0.239214242 -0.29481566 0.0292670671 -0.166886121 0.0247858297 0.0367909819 0.225831002 -0.176350132 -0.0473147035 0.0823241919 0.152677029
