# shape: 32 64
0.124843501 0.0566407293 -0.0204776917 0.0641416982 0.110958718 0.301181555 0.0598280281 0.077029787 0.425800472 0.339030743 0.0862148181 0.0725214332 0.119347803 -0.161654428 -0.311792731 0.343366116 0.103032179 -0.187531561 0.311366588 0.0647692233 0.132522061 -0.10845051 0.233457044 0.0443920828 0.30569911 0.232515216 -0.32117179 0.294647425 -0.0850416645 0.287612289 0.458553553 0.299725473 0.184108272 0.00749147451 -0.0408284739 0.110737145 0.216699898 0.207212552 0.0937962979 0.0915973261 0.168480083 0.108207494 0.0573642552 -0.100323536 0.140057459 0.218409613 0.338086993 -0.0960549489 0.172354445 0.305582881 -0.0295074545 -0.0197590906 0.371272027 -0.16133742 0.144646034 -0.0166701339 0.0430600494 0.0280610826 -0.0990299433 -0.181030378 0.14532055 -0.214919403 0.227190614 -0.113361038
0.0725278109 -0.107357241 0.247633234 0.389003456 -0.128746197 0.157908663 -0.156159833 0.178103581 0.0454997085 -0.265416026 -0.137658879 0.104739629 0.181597352 0.0162036158 -0.355785161 0.105693407 0.0295360927 0.420954198 -0.186029539 0.69441694 0.24481447 0.365588486 -0.172842935 -0.0964730158 -0.0327746421 -0.0460587256 0.272775382 0.18675679 -0.237175405 -0.0101471376 0.299364388 0.138503179 0.032360442 0.391848117 0.264118671 0.461108983 -0.000404711027 0.359613389 -0.0219054539 0.43830663 -0.225674421 -0.246375218 -0.264061242 0.401338488 -0.0725683495 0.133883163 0.408744633 0.0838626698 0.0463365465 -0.206194371 -0.114477634 -0.236804172 -0.178847447 0.122655667 0.0120982071 0.052581843 0.104727954 0.0399771258 -0.0126366755 0.238085836 0.443310618 -0.060591992 -0.2337946 -0.175861165
0.0892862454 -0.0813441351 -0.260454744 0.133912578 0.177046135 0.195049345 -0.407609254 0.284825534 0.0452975109 0.275196046 0.365297884 -0.0602759942 0.0639277622 -0.0692751184 -0.0355932228 -0.29306668 0.3115758 -0.0259232875 0.140329316 -0.189179644 -0.0736614391 0.0999813452 -0.123264134 -0.0075970972 -0.165108874 -0.405273765 0.00340868137 -0.0309174154 -0.300222486 -0.0136590097 -0.00895179808 -0.0512594469 0.102158614 0.112664782 0.154130042 -0.0556675605 0.0496821515 0.13021715 0.0519824922 0.24216038 0.419406831 0.208622858 -0.189948469 -0.103271738 -0.361991137 -0.313849062 0.103910364 -0.0715942085 -0.305515021 0.200279444 -0.351580173 -0.182966322 -0.164247349 0.0478979908 -0.320452482 0.0609266981 0.0659168065 -0.280046493 0.323079914 -0.141624957 -0.0716591105 -0.0661060289 -0.198178738 -0.255285591
0.0398806706 0.0291636679 0.167524889 -0.153733343 -0.109874032 0.310594767 0.381776094 0.465345681 -0.306354582 0.0723198801 0.175792649 -0.517971098 0.0660992265 0.0622684732 -0.328533322 0.239818379 0.23654224 0.110687509 0.288145602 0.387587488 0.0403361358 0.0233840309 -0.0465492941 0.167162523 0.174567133 0.12876758 0.105918199 -0.0720701888 0.450967729 0.563922703 0.0749291927 0.0426785797 0.382817239 0.0197746903 -0.0792052969 0.0675412118 0.110566877 -0.0991767198 -0.341756433 -0.0298665315 0.162446856 0.192310691 0.055611793 -0.285437822 -0.00981646031 -0.354063451 -0.335662454 0.24331674 -0.180906475 0.13153179 -0.132813409 0.173143178 0.34977755 -0.155015603 -0.0668802857 -0.190002978 -0.0406734496 -0.100464903 -0.190165445 -0.251770765 -0.327786297 0.102711454 0.0409480371 0.142018661
-0.290105492 -0.233884558 0.159519523 -0.129039034 -0.0203884337 -0.285076201 0.13611567 -0.0810411274 -0.442500621 -0.197857633 0.184248075 0.144663081 -0.114550062 0.13106145 0.178494692 -0.180444017 -0.211046025 0.0039535542 -0.166311026 0.115453072 -0.0958440751 0.0159442294 -0.220220238 -0.0641738102 0.00753575936 0.0232670903 0.165543839 0.29643622 -0.0403811112 0.116859131 -0.503436983 -0.328850567 -0.039164342 0.106228612 -0.0156584941 -0.153129205 -0.162433952 -0.152799457 -0.127230674 -0.703200519 -0.171501875 -0.131459042 -0.133726761 -0.527216256 0.134311497 0.0359793156 -0.302301496 0.0605325177 0.142165825 -0.000132085857 0.327737272 0.285769731 0.182487383 6.86050407e-05 -0.0290038828 0.134894818 -0.146839276 0.100888401 0.0947232619 0.30847919 -0.179309383 -0.00401965715 -0.00263062515 -0.248904586
0.142944276 -0.0792603344 -0.0956154689 -0.237279639 -0.10981103 -0.153966188 -0.0870937929 -0.00996188354 -0.0245567784 -0.11344026 -0.448138803 0.142140478 -0.287050575 0.213865459 -0.0200136788 0.0104885558 0.152300969 0.116535865 0.0990652218 -0.000871873344 -0.0713991672 0.0357229337 -0.133550897 0.425125003 0.336317599 -0.0672909841 -0.42516005 0.138546005 0.149401248 0.314234406 0.126154661 0.257373661 -0.283208638 -0.214955702 0.321588844 -0.11679887 -0.158869341 0.143149078 0.0213682838 0.0115250414 -0.0363429561 -0.0249918588 -0.158852085 0.208047882 0.324584633 -0.0640614703 0.33559677 0.0158342142 -0.0237116199 0.462427855 0.0535134077 -0.285095572 -0.0523201078 -0.0765871778 -0.171350673 0.116847716 0.0270396881 0.322047681 0.00605072686 0.0239655301 -0.267081827 -0.238297328 0.00976634771 0.108607695
-0.0483343229 0.0619950332 0.25509727 -0.0131117813 0.0768682659 -0.204621807 -0.258552551 0.237786755 -0.100292079 -0.10299138 -0.207715049 -0.517058849 -0.156401515 -0.193895534 -0.401789367 0.386939704 0.118441798 -0.124397062 0.195226923 -0.174239382 0.0224714018 -0.0762916729 -0.159964278 -0.0615454093 -0.502770662 0.0092051113 -0.133344337 0.395230174 0.242566228 -0.107437998 -0.265905887 -0.156985864 -0.277086377 -0.16031383 0.213361144 0.379072428 0.050157208 -0.366875023 -0.0750882179 0.0421130024 0.123304099 -0.160866976 -0.0722624809 -0.437782407 0.283341676 -0.296962738 0.246268883 0.0616488233 -0.0822995976 -0.142474622 0.0298207719 -0.26803121 0.349452317 -0.0920761451 0.190220013 0.0735737607 0.298347801 0.114487536 0.226405069 0.0331995413 -0.0971090347 -0.145568207 0.047707364 0.101974241
0.257080823 -0.0994013324 0.124210127 0.284945488 -0.119481102 0.128959477 -0.0411268994 0.0355189852 0.171668351 0.0303511042 -0.302580208 -0.202246889 0.129407138 0.0695117861 0.207915694 0.118458837 -0.323969156 -0.0254210792 -0.243705347 0.0279802289 -0.552986681 -0.110509709 0.177034423 -0.00176065846 0.117208764 -0.121171191 0.270601749 -0.208498776 -0.0844449773 -0.229649261 0.188930571 0.117656678 -0.197241277 0.0139441108 0.0822438225 0.099761568 0.221887589 -0.197794393 0.175809085 0.262469143 -0.0491663888 0.212801978 -0.0466376953 0.0500140339 -0.0912050083 0.171391457 0.104878873 0.179446965 0.128665701 -0.399951756 -0.327673197 -0.0805069432 -0.47018972 0.432720214 -0.320744425 -0.219485924 0.274785578 -0.128393084 0.0878170207 0.180965021 0.137417823 0.0940842628 -0.13106519 -0.224869326
0.215047479 -0.0205990169 0.147371456 0.0983468667 0.0453910008 0.277851313 0.0135515546 0.337916672 0.00417259196 0.136579275 0.0588332526 0.268065155 0.234653965 -0.1286235 0.04023863 -0.0252416264 0.11021556 0.40179193 -0.255616575 -0.154018685 -0.347106099 -0.22573781 -0.0615135282 0.230974138 -0.204674929 -0.180775523 -0.304866314 -0.328018308 0.0482212268 -0.0929500386 0.483527482 0.179602623 -0.377332985 0.038816046 -0.228158742 0.323080808 0.118830688 -0.121972926 -0.0574564151 -0.202720478 -0.0350329094 -0.0486702397 -0.0300773997 0.184869364 -0.0799788833 -0.013637173 -0.0993811712 -0.0427501425 -0.259525567 0.329330087 0.209664047 -0.122602619 0.112610385 -0.0619038157 0.25925073 -0.130095989 0.0806624964 0.203177318 -0.405838042 0.366681308 -0.0172069781 -0.163370848 -0.0594007671 -0.273852587
0.0801388472 0.104535326 -0.254122496 0.0407415852 0.24171865 -0.178928807 0.397585899 0.175358534 -0.00607523182 0.00573806791 0.179475859 0.0810816512 -0.190882444 -0.117836177 0.143061399 -0.00336232688 -0.243769914 0.256657243 0.230252847 -0.300243944 -0.179566845 -0.00496066734 0.180376008 0.0911493897 -0.160274103 0.0727672875 0.133391127 0.0962086543 0.0657919347 0.0815924257 -0.170071572 -0.304665416 -0.116408132 -0.192452937 -0.110134788 -0.126321867 0.0438228063 -0.0256253686 -0.111685827 -0.301130682 -0.0295638815 -0.0200050734 0.296972185 -0.292039841 0.0199370142 0.141657785 -0.0737383068 0.0469496064 -0.22485815 0.247854427 0.0388454124 0.330473155 -0.0915235281 -0.0240837075 -0.178552493 0.0255466178 0.102080323 -0.126322448 -0.231563017 0.409092247 0.0436674617 0.15444912 -0.0905247256 0.36642465
-0.502908885 -0.14094989 -0.270934939 -0.235749573 0.117301606 0.16481711 -0.29461056 0.0181490351 -0.266848832 0.0933690965 0.142667279 0.0165634658 0.274226904 0.354398668 0.0756766424 -0.0425795242 -0.131240904 -0.172351331 0.0851064324 0.182363257 0.282780141 -0.0823753551 0.313248634 0.0129033551 0.0620146953 -0.110168375 -0.187743887 -0.222648427 -0.260341704 0.0365548357 0.00313784089 0.0468511954 0.1529641 0.0755647272 -0.406768501 -0.260090917 -0.0751772225 -0.113760002 0.305595577 0.000620352163 -0.114115782 0.0278549902 0.0421316065 0.105256319 -0.486856371 -0.040584702 -0.167521566 0.222332537 -0.0976694077 -0.294193834 -0.0997298062 0.0819595307 -0.195804402 -0.0316944309 0.195870012 -0.498143345 -0.396039724 0.33346355 -0.297924548 0.229530275 -0.0646163747 0.0255994257 0.23419489 -0.0147086335
-0.190767542 0.416240722 0.177556127 -0.231497794 -0.327288359 -0.0941670164 0.0879546031 0.0485976003 0.183522701 0.238901466 -0.203630969 0.259506315 0.277070791 0.0319448039 -0.271547288 -0.172012746 0.215411291 0.441730499 -0.321678579 0.0101064648 -0.0713584647 -0.485181481 -0.154779851 0.121747218 -0.321785331 0.222408578 -0.248398632 0.301062495 -0.13052249 -0.146988973 -0.0821666792 0.0829036683 0.0417565964 0.0727721155 0.202363566 0.102908172 -0.0717772171 -0.173699245 -0.171424299 0.216191784 0.116438232 -0.131447464 -0.44942081 0.0281258393 -0.187333643 -0.0536906794 -0.296485692 0.14796418 0.367315263 -0.128173664 0.116006225 0.131682634 -0.127929285 -0.496852756 0.199980602 -0.145116284 0.186823338 -0.0446852148 0.309155256 -0.452419251 -0.0990693644 -0.155292064 -0.400533199 -0.0294775032
0.286085159 0.056219697 0.0398052 0.190123603 -0.31258142 0.120062493 -0.302491277 -0.219400123 0.0970366299 0.397822469 0.168780804 -0.309620798 -0.0629665628 -0.068253167 -0.203917235 -0.423334509 0.0866399109 0.243163824 -0.207053706 -0.0605837591 -0.113905199 -0.0398157202 -0.341655791 -0.203294083 -0.365751177 -0.150488168 -0.324508399 -0.0913745686 0.298519969 -0.317731917 -0.650960267 0.314504087 -0.585778952 0.206040278 -0.0832291916 0.269775301 -0.0959548429 0.0361713544 -0.114328481 -0.148017853 0.175003245 -0.233560696 0.0491777211 0.222144067 -0.101737775 -0.152058318 -0.425336599 -0.186005652 -0.163387641 -0.119357742 0.00422710925 -0.261060745 -0.195408821 -0.0376352854 0.231075987 0.153845429 0.139030755 -0.296563685 0.0289005134 0.1098084 -0.0332137682 0.069612354 -0.0983265415 0.0738656595
-0.079379335 0.21606718 0.376655936 -0.296717703 -0.00452015875 0.231094867 0.344782472 -0.251133025 0.106889836 -0.220318258 -0.036134012 -0.0661117285 -0.332766593 -0.230057999 0.0237002093 0.283322096 -0.0777272731 -0.0394495726 0.107251853 -0.235299379 0.043539349 0.441043139 0.32058695 -0.16648832 0.0886221305 0.258483469 0.229393765 0.157619342 0.110139042 0.163342491 0.0140108503 0.297889739 0.0718479455 0.0482687689 -0.174254045 -0.321765453 -0.269240022 -0.210155889 0.440906435 -0.0579228923 0.161108524 0.0546911731 -0.065514937 0.178837642 0.523803413 -0.307712257 0.311521083 0.291815758 0.267901838 0.109142728 -0.174028233 -0.153605446 0.173469484 0.309957922 -0.140503168 -0.188318714 0.190145329 0.332924902 -0.0344749764 0.025574591 0.149935246 -0.187208697 -0.266073316 0.0890878439
-0.142750382 -0.117178053 -0.338336647 -0.357353598 0.0317860879 0.0313855484 -0.413455963 -0.0105677778 -0.152899727 0.0577164069 -0.136653945 0.0238973126 0.026982652 0.0986285135 0.28993845 0.150368705 0.282983691 -0.106415421 -0.2338925 -0.125128523 0.326251686 -0.306417137 -0.0916475952 0.318518251 0.351950496 -0.231536895 0.281320393 -0.0100965155 0.231503755 0.0671795458 -0.105302565 -0.0420564152 -0.000442970631 0.373768151 -0.137902007 0.0840642899 -0.316061795 -0.00236395793 -0.0728101432 0.278111815 -0.188547492 -0.195602894 -0.168515146 0.180015922 0.188555479 0.0924631432 0.224326432 0.0672488511 -0.355260193 0.234517023 -0.150418475 0.0281895772 -0.154027283 0.300032675 0.284689844 -0.222311556 -0.22807689 -0.261650681 0.239396021 -0.464706123 0.187638789 0.0352063999 0.0378330015 0.15124248
-0.202524096 0.125805438 -0.149944693 -0.266794235 -0.258401215 0.0121569708 -0.121413067 0.174039289 -0.160392627 0.103316478 -0.0770346001 0.00352510414 -0.193206951 -0.0493162833 -0.213368475 0.0224523284 0.375208557 -0.0884280503 -0.0647221208 -0.337429255 -0.0479091741 -0.161084965 0.0977032334 -0.0742333308 0.0236026421 -0.262416065 -0.027198324 -0.197557613 0.0950930566 0.107707001 -0.0139025729 -0.0332735665 -0.36228171 -0.0814995393 -0.30365634 -0.0518863313 0.285297602 0.155109599 -0.132788941 -0.00944150612 0.0734594986 -0.0449065827 0.001685914 0.166828245 0.0943591744 0.069073543 0.17510502 -0.180055857 -0.361076176 0.161929205 -0.26706025 -0.14755933 -0.113402627 -0.270925701 -0.0291076228 -0.429515719 0.086085692 0.100614518 -0.121578306 -0.215370655 -0.445026666 -0.270736605 -0.024764685 -0.124781005
-0.139470428 -0.47372818 0.31036669 0.206253529 -0.146267787 0.1893664 -0.341575921 0.0109151276 0.160666019 0.10317152 -0.319681078 -0.304581076 -0.463075012 -0.27582112 0.194573432 -0.210552707 -0.1469547 0.11420656 -0.122937791 0.102913551 0.0427262634 0.00746576674 0.237723038 0.134117484 -0.179987803 -0.120875396 -0.151327476 -0.0731736943 -0.323886752 -0.0755777434 -0.347084671 0.117761686 -0.131722897 -0.140781447 -0.116714068 -0.161241949 -0.216523021 -0.531358242 -0.19977884 0.0135932164 -0.216015086 -0.235354915 -0.147333279 0.132029861 -0.0223395769 0.0361230224 -0.0502788387 -0.593858361 0.317493469 -0.0165266693 0.01235402 0.178743437 -0.191810787 -0.281444311 -0.356912434 0.0904429629 0.01989487 -0.312440515 -0.307466716 -0.160838336 -0.105865292 0.15890646 -0.135694593 -0.0698737651
0.021203842 -0.00520037021 0.00138191076 0.0220979471 0.0316558592 -0.371307641 -0.0550712496 -0.196649849 0.456468165 0.0904837102 0.356745124 0.428507656 0.0717325807 -0.0422809869 0.24059847 0.00935045071 0.271577179 0.383903861 0.167944044 0.106894366 0.206585959 0.235068351 0.198007226 -0.21978417 0.574174941 0.100385748 -0.304406464 -0.070627436 0.295568019 0.0541677624 0.00789212249 0.385609746 -0.205740154 -0.0150796752 0.0625010207 -0.14193587 -0.107278131 0.139643922 0.26386258 0.10547249 0.156009927 0.22858049 0.437640041 0.0682741627 0.102870516 0.0370957963 -0.131854713 0.298488259 -0.387840062 0.0446264446 -0.124578878 -0.13098529 0.00208988856 -0.0033919483 -0.00825278275 0.0604899339 0.133308634 -0.107581928 -0.464141637 0.0523314886 0.17600356 -0.23586835 -0.0231972747 0.00763460808
0.00395815214 0.320496708 0.19044514 0.13852933 -0.0609522164 0.0429065041 0.0668653473 0.0295400862 -0.102067724 -0.1029642 0.318571568 0.0980194286 0.232547134 0.280417144 -0.144137636 0.240827084 -0.138911203 0.102104858 0.119157821 0.0466808192 0.443929464 -0.0616629645 0.075212054 0.0116215544 0.0158716738 -0.329162508 0.267883748 -0.123729095 0.114006259 -0.184810326 0.120475158 0.0403236002 0.0188804492 -0.475959778 -0.370093435 0.150246263 0.0887380987 0.398862988 0.131743819 -0.0692576021 0.215139136 0.128116816 -0.298508674 -0.15252687 -0.257137388 -0.243225902 0.0266491119 0.00854540709 0.0286874268 -0.110378951 0.174242422 -0.0332900919 -0.0771083757 -0.0650845543 0.162577704 0.173568487 -0.0698601902 -0.108711772 0.0241929758 0.025088096 0.197927207 -0.0294371322 0.207895532 0.206491932
-0.137206718 -0.145429894 0.0661294609 -0.0113239111 -0.33213073 0.110808596 0.330168217 0.234853655 0.471194208 -0.0589271784 -0.0455383658 0.0295557771 -0.150895998 0.308845758 -0.191005394 -0.290656537 0.223534614 -0.0731471777 0.163596749 0.0711665526 -0.054308489 -0.163528576 0.0224349163 0.0282551795 -0.0108549315 0.320260316 -0.268231034 -0.122204207 -0.084636271 -0.220329598 0.391525596 0.037279509 -0.154684946 -0.134105578 -0.242593363 0.00231681135 0.230440572 -0.28332597 0.180017725 0.177950248 0.204201758 -0.0181087852 -0.133511797 -0.316120446 0.301651418 0.247191295 0.20424436 -0.433745265 0.161843419 0.114698581 -0.0838835761 -0.0873987079 -0.203877583 -0.0283154827 -0.312616229 0.12313588 0.164603233 0.165319577 -0.181148022 0.247071609 0.329561293 -0.261461109 -0.11202617 0.0850959197
-0.0700191855 -0.179791436 0.169320077 0.0764904693 0.516550958 -0.239884436 0.10236723 -0.0365747735 -0.135784522 -0.27207619 0.0195259899 0.149714261 -0.155837074 -0.0214469433 0.211996555 -0.0834810436 -0.455004603 -0.541524589 -0.194122314 -0.00690719392 0.280894727 0.107160129 -0.0687951297 0.0539586246 -0.073288478 0.106670365 0.167013317 0.0333017632 -0.206938058 -0.350280941 -0.0502311029 -0.301802486 -0.0275338758 0.0815949365 0.0193611011 -0.175453857 0.191616043 -0.204899535 0.281781524 -0.391750425 0.204968959 0.213206217 0.116890155 0.2240787 -0.382121623 0.182070941 -0.38651672 -0.450089544 0.0598499924 -0.129592136 0.283044487 0.172323793 -0.312718898 0.0602824762 -0.156846806 0.00121126126 -0.483530015 -0.0248922501 -0.157758921 -0.0851287395 -0.0728699565 0.244713441 0.33537516 -0.174972758
0.227712542 -0.122412518 -0.0296685621 -0.127929255 0.156891361 -0.318808258 0.00661869021 0.0207067803 -0.299015999 0.0713295788 0.0915996954 -0.253885388 0.0947377309 0.444572926 0.0661429539 -0.00685035158 -0.111344606 -0.132797584 0.106010303 0.567784309 -0.0411562733 -0.0120856101 -0.0159888398 -0.186416477 -0.00592544535 0.0372268818 -0.171549797 -0.255302221 -0.277080476 -0.205943301 -0.109956436 0.312239081 0.29218021 0.40028578 0.290302992 -0.0486568958 -0.121805973 0.186689556 0.152587384 0.0440802127 -0.324823678 -0.17901966 -0.029382715 -0.0993589088 -0.135462359 0.0465150625 -0.0156213269 0.18665725 -0.300026953 -0.300977349 -0.0157202035 -0.191452727 -0.196079686 -0.0856212229 0.133313939 -0.311233759 0.151852205 0.0909602642 -0.00681884307 -0.488277078 -0.242706075 -0.088750802 -0.181994841 -0.52043134
0.0637018606 -0.10526789 0.0552808568 0.0205179695 0.289897501 0.194399595 -0.17737706 -0.11524044 0.054700844 0.094254747 -0.300896287 -0.0198197924 -0.0434742346 0.0677961707 0.260618508 0.296499938 0.0027402984 -0.152318537 0.154560551 0.0900009498 -0.314560294 0.0778179392 -0.184661284 -0.133288816 -0.497559488 -0.15997991 0.137530863 -0.359560162 -0.225056663 0.215240002 0.130131051 0.0736385658 -0.281310648 -0.0846061632 0.16044268 0.396672249 -0.0369266607 0.121672183 0.247913972 -0.19765906 -0.105608337 -0.0882351026 0.185786769 -0.0409658402 0.0787925199 0.0300730057 -0.028299002 -0.0492524169 -0.296962887 0.193506032 -0.247811064 0.285141289 0.148074165 0.0726271272 0.201992899 0.100292034 0.265208691 0.245751515 0.431367487 -0.204780146 -0.139949828 -0.132245734 0.266228288 0.0640113726
0.011068712 -0.0208583213 -0.173540398 0.205650702 0.137850791 -0.159647152 -0.320725739 0.164146781 -0.16213356 -0.0227158871 -0.230702102 -0.240773022 0.123349592 0.00178321591 -0.169354737 0.0407054722 0.12442711 0.19798784 -0.252731651 -0.013244329 0.274219424 0.00355313183 0.353644669 -0.107493356 -0.304778218 0.17622079 0.106312968 0.325684398 -0.0467973351 -0.107254587 0.214577392 -0.158490345 0.119741 -0.241409719 -0.299178153 0.286839366 -0.440637231 0.0912713632 -0.0536388718 0.14493005 -0.120786279 -0.308685303 -0.0710669234 -0.0214155074 0.0905026048 -0.0843916684 0.150801629 -0.169461563 0.0567444377 -0.128828675 -0.309920788 -0.217893362 0.0589843169 0.0204958394 0.0478419848 -0.115838178 0.1463653 -0.0764773563 0.127483413 -0.0107687945 0.162644729 -0.0303139277 0.111942261 0.144210935
0.176064894 -0.0104439016 0.282754838 -0.107118458 -0.184291616 0.128644705 0.0365778729 0.102698289 -0.0041198926 -0.110709101 -0.0205240175 0.0977484658 -0.0403581411 0.00786082074 -0.0814054906 -0.00191787211 0.0612855144 0.0175177976 -0.614139259 -0.368194163 0.0160879362 0.0430045575 0.111658849 -0.208602861 -0.240045235 0.260571837 0.197011828 -0.0140945977 -0.181419805 -0.134531483 -0.221392319 -0.114610754 0.0927076414 -0.0499732532 -0.0724791959 0.159984097 0.277165443 0.319448978 0.172363564 -0.273296863 0.0722850412 0.0976858884 0.246534258 -0.165017724 0.0683591589 -0.21115233 -0.00429647462 -0.0482636429 0.0875008106 0.190167114 -0.0646522045 0.0196502395 -0.0832861438 0.00408081524 -0.257017165 0.285150707 0.184240952 0.0818524063 0.181448132 -0.0375978015 0.0754174292 -0.0475690775 -0.15591453 0.109757997
0.182372063 0.341141492 -0.249282852 0.327063203 0.0211742986 0.285939693 -0.306703329 0.200209156 0.228854761 0.243949965 -0.0571904108 0.086819306 0.115823612 0.0322837457 0.230780557 0.0851743147 -0.0811941028 -0.0553218946 0.0962170139 0.465229571 0.286429226 -0.200109601 0.446427315 0.231815383 -0.073905535 0.341229886 -0.197954714 0.0767437518 0.266937971 -0.0347980261 0.143544734 0.0115267523 0.21846278 -0.0133047281 0.0212641992 0.120904349 -0.0241838284 0.00294034998 -0.164214894 0.452983946 -0.148949921 0.324825823 0.244192943 0.250730097 0.104525559 -0.278483331 0.241407812 0.140567929 -0.0773744583 -0.0714411587 0.339655519 -0.347919047 -0.188619316 0.0763784051 -0.01474215 -0.197925925 0.245766282 0.0193446074 0.300568879 0.0384722725 0.0326499194 0.157803267 -0.257630944 -0.15603523
-0.0816666707 0.335699201 0.149046168 -0.176608115 -0.0386258215 -0.291828692 0.163703099 0.150398895 0.166714653 0.123017505 0.0518633947 0.154312834 0.160926744 0.225323156 -0.387367219 0.507757545 -0.089158237 -0.380519301 0.215557531 -0.0753349885 -0.466825873 0.294662774 0.0772080496 0.115553468 0.289782107 -0.169104591 -0.0375777669 0.172980547 0.177440062 -0.00558845 -0.247124135 0.103344336 0.20478721 0.228363454 -0.102641717 -0.394816607 -0.00174444483 0.212713793 0.0719450414 -0.219134167 0.106154844 -0.269668102 -0.170335844 0.224570513 -0.349277377 -0.403763145 0.0694819093 0.197792232 0.0263619125 -0.47130549 0.101054162 0.246156096 0.17140469 0.428967744 0.18712306 -0.0312495884 0.0665070787 -0.107997976 -0.347145766 0.138985336 -0.0888286754 0.248928055 -0.0114413165 0.491253048
0.185804963 0.195302546 0.113020062 -0.142799482 -0.170608506 -0.0578515157 0.057306271 0.224890023 0.242243215 -0.340598941 -0.0255007781 -0.0119998734 -0.134759784 -0.0564084388 0.102977917 -0.120795049 0.0922044516 -0.332969934 0.0354464762 -0.0397539735 0.0320634469 0.0570139363 0.120599829 -0.0459557734 0.283596277 0.309660673 -0.00012576372 -0.0802727342 -0.266211748 -0.108504571 0.131873012 -0.183320925 0.152694538 -0.0327718779 0.474098623 -0.0020737662 0.115637921 -0.294840723 0.0360699445 0.079707928 0.200542063 0.151903331 -0.0602706596 -0.03917896 0.242961496 -0.272034943 -0.131054118 0.0941699222 0.0522821769 -0.149997517 0.306518346 -0.0751521215 0.170573577 -0.112521738 -0.0586651713 -0.0230983049 -0.151747704 -0.277888566 0.121399932 0.0854139104 0.0893642306 0.153505072 0.071032919 0.125741035
0.0504633747 0.166270956 -0.246228397 -0.223357067 0.19902207 0.113702789 0.320388585 -0.459524363 0.0662570074 -0.107739598 -0.267990291 0.269559711 0.109038807 0.0201863926 0.0203555059 -0.0492356047 0.0413971953 0.0619027503 0.200841352 0.116448879 -0.131901443 0.517575324 0.300810337 0.277062058 0.184820592 -0.18002367 0.0504418239 0.051976461 0.260609716 -0.30030176 0.0211704802 0.0244504474 0.139129519 0.00402074168 -0.0726756528 0.156622797 -0.0198956057 0.017997168 -0.197313741 -0.227299482 0.110236749 -0.158087492 0.0850548968 0.201291442 0.0190668851 -0.0570406318 0.237123594 0.318376839 -0.123497449 -0.111540437 -0.126012295 -0.348332226 -0.0884513035 -0.0400083512 0.398884952 0.128772587 -0.0847089738 -0.364521772 -0.0874106511 0.030864181 0.135625169 -0.15127641 0.327376008 -0.100645237
0.114982598 0.0759530813 -0.32439518 0.284798235 0.0483254641 -0.652207851 0.221976116 -0.341750026 -0.217478931 0.290975839 -0.0380573273 0.105109148 -0.0244936403 -0.406395555 -0.0970085934 0.107342713 -0.185234517 -0.162011802 0.0703819543 -0.0196206421 0.30736059 -0.191258013 -0.332838058 -0.150191814 0.150400639 -0.438475579 0.0085110236 -0.280336767 0.0801770985 -0.124610409 -0.450781375 -0.249305338 -0.0595574528 0.0255068019 0.0753702074 -0.409197539 -0.188309357 -0.16683057 0.264377058 -0.460229486 -0.0645391494 0.183136716 -0.345805079 0.0310040396 0.204160348 -0.452224165 -0.41260463 -0.217257708 -0.0544957258 -0.425063759 0.0950917527 0.0278908536 0.122352071 -0.158154875 -0.0455973186 -0.00362932635 -0.45833835 0.010368539 -0.0772925839 0.0874546841 0.253983408 -0.00751553895 0.03783907 -0.151202768
0.0348593816 0.0195604134 0.122569054 0.000452968146 0.395801127 -0.229380697 -0.0992416218 -0.189792931 0.259283811 0.183371767 -0.0240440387 -0.139918476 0.0828403533 -0.0339279249 0.217193782 0.0633828342 -0.356770039 -0.0460604876 0.0493387394 0.155858308 0.249482289 0.240422964 -0.0360660255 0.0242316462 0.113734521 -0.0737835094 -0.0788222402 -0.121219479 0.215072811 0.0152632454 -0.0519180857 0.0822835118 0.11450883 0.246464878 0.404286981 0.258345932 0.0933532193 -0.35190171 -0.00420150207 0.409833491 -0.212862089 -0.191845611 0.0367244929 -0.167689845 0.266956061 0.213781655 -0.0373136066 -0.117306314 0.359624147 -0.291460395 0.12897709 0.297802746 -0.0530136526 0.062616311 0.0834282711 -0.0514749028 0.176256269 0.150117517 0.218476117 -0.161387742 -0.00999255478 -0.0569452494 0.149561957 0.309606791
0.650942683 -0.352390438 -0.222138509 0.225490928 0.616242945 0.372658789 0.0231920779 0.118659936 -0.171931922 0.443082958 0.00209946069 0.291576028 -0.113165855 -0.0647887439 0.193469912 -0.0230656266 -0.381984353 -0.189109758 0.0883857682 0.212550506 0.0348786078 0.107611828 -0.174657032 -0.235040575 -0.0858761966 0.343340248 0.0998702049 -0.160845116 0.0939016491 0.296843201 0.116357207 -0.355416119 0.128863364 0.129298389 0.217117086 0.0741857961 -0.0150042102 0.333360344 0.26087299 0.00420111138 -0.389324963 0.344310105 0.273955286 -0.176668257 0.0728005767 0.0109281847 0.110747419 0.077993609 -0.10227704 0.242930815 -0.0955929458 0.154989004 -0.105281293 0.38828823 -0.334503621 0.230562285 -0.168054238 -0.12348529 -0.146274313 -0.0269962791 -0.176094547 0.321800262 0.183962807 -0.0687394887
