# shape: 32 32
-0.0915617421 -0.0338370502 -0.114158556 -0.060221564 0.0355700627 -0.244994447 0.268200666 0.047029689 0.0988392234 0.109080143 0.0779939294 -0.175924331 -0.0482835136 0.196006864 0.357481152 0.00616944022 0.102385856 -0.013316446 -0.0834838524 -0.00757072866 -0.144516289 -0.0369282849 0.117460229 0.00445247581 0.00936602149 -0.216289386 -0.0743896812 -0.146146268 0.0657985806 -0.118784353 0.177341133 -0.0106954491
-0.101533659 0.196742415 0.115999348 -0.263987243 -0.113848187 -0.0599945821 -0.0896469355 0.0401627049 -0.121714696 -0.11274983 0.216101333 0.0012994014 -0.106189959 0.218577951 -0.0169396102 -0.165257111 0.101219103 -0.199265406 -0.184828475 0.0277030338 0.0830375478 0.0028614956 0.0795518383 0.0296596792 0.211173892 -0.00616261875 -0.126194939 -0.263734728 0.135282427 0.088223353 0.00537029328 0.144781485
-0.299280614 -0.0452415235 0.157261506 0.181511059 -0.0312199481 -0.10568016 -0.0594688728 0.0345661789 -0.189430341 0.0432740748 0.0275298823 -0.000675887743 -0.0889286101 0.062819548 -0.295223564 -0.148991853 -0.0533090122 0.00412683981 0.0921495333 0.0071421098 0.0282108374 -0.0589731559 -0.000376854819 -0.175308421 -0.0236245859 -0.0926370472 0.0758470297 0.0122000193 -0.0088965809 0.179065794 0.0781036317 0.0223893169
-0.0193026513 0.180352494 0.166983977 -0.329106092 -0.265589565 -0.2300044 0.0537953563 0.23106651 -0.145778313 0.0464163199 -0.125141889 -0.0669522732 0.0383421443 -0.0539919883 -0.183446035 0.347763628 0.11813388 -0.22675173 0.0373416133 0.0356415398 0.0332193114 0.11393185 -0.277284384 -0.102477267 -0.188238293 -0.0918906629 -0.129329637 -0.20960559 -0.11986354 0.174825639 -0.195241451 0.0804863423
-0.0748370364 -0.006871928 -0.00369845494 -0.0614192523 0.312225372 0.130323529 0.25104773 -0.123738036 0.0456730947 0.00984479766 0.103984542 -0.128773049 0.0519475415 0.0378329493 -0.0686194003 -0.171017438 -0.0692523122 0.119780868 -0.0246885587 -0.0270468052 0.0376410224 -0.142603815 0.154012606 0.0307219215 0.0526040979 0.11589653 -0.0857877657 -0.0505520217 -0.108476512 -0.192323089 0.204773441 -0.453942508
-0.033771012 -0.225543499 0.121391259 0.0204244964 -0.282485336 0.0459508821 0.0603072979 0.0317890309 0.177731186 -0.0582936555 0.105619058 -0.345104903 0.188944891 0.0655690804 -0.0679613873 -0.153628528 -0.0427337438 0.152523607 0.0723453909 0.0829214007 0.247756615 -0.132452607 -0.197884351 -0.00284895953 0.187532112 -0.297995925 0.0519063585 -0.0382009223 0.0702404454 0.0358442962 -0.0251023564 -0.0497799143
0.237438872 0.170868993 0.0928269327 0.0298985187 0.0605443679 0.105520412 -0.393020242 0.193648174 -0.105357558 -0.0991458222 0.213969514 0.168901071 -0.0261004865 0.13244608 -0.150430158 0.178840309 0.137427405 0.170043737 -0.0769246593 0.0195171349 0.12825869 -0.0730906576 -0.0180278309 -0.120399512 -0.0743081495 -0.0996306092 -0.287155062 0.0439419188 -0.250895828 0.00588781759 0.283512414 0.0633218288
-0.135113508 -0.125370473 0.0933034644 -0.0404583812 -0.00498474436 -0.0610310733 0.00710092764 -0.114352241 -0.119060524 -0.210345641 -0.106352091 -0.137264952 0.153226286 0.0364561714 -0.328437418 0.223370999 -0.0656447709 -0.0985289738 -0.0514550135 -0.141832888 -0.0342240892 0.131976768 0.148781046 -0.0672874525 -0.144350171 -0.118744306 0.111078992 0.194263458 0.00227235188 -0.281794697 -0.0442946479 0.174029693
-0.0309337731 -0.173756823 0.080129765 0.0105806058 0.201157838 0.199810326 -0.122089513 -0.18597278 -0.279531479 0.0814822763 0.138394207 -0.0385173112 0.222079113 0.202815309 -0.0239297673 0.115945011 -0.214341268 0.0709481388 0.156115219 -0.00177679269 -0.360827446 -0.0923033208 0.196875259 -0.0902375132 -0.0262150615 0.0107504455 -0.0469734594 0.241971314 -0.0498176403 -0.205660462 -0.184195131 0.0275429096
0.0741031691 -0.0778171122 0.0286161024 0.00224777358 -0.0956389382 0.00521850633 -0.138462573 -0.104077026 -0.084065102 0.0386252627 -0.0348019712 -0.0350114293 -0.146671712 0.0822468624 -0.218634844 -0.0195640326 0.276502788 0.0118913595 0.331540048 -0.169693381 0.00400756067 -0.304670423 0.173796058 -0.0187179763 -0.127120495 0.068849057 -0.188035443 -0.293938041 0.128586695 -0.082600221 -0.0341248289 -0.0467757657
-0.0344055146 0.256284326 0.233999893 -0.0179067347 -0.026890453 0.051066909 -0.126429051 -0.264610291 -0.178716883 -0.245006099 -0.249302328 -0.0909476131 -0.172491163 0.000208011057 0.108264342 0.0304400027 0.0165017061 0.0987672284 0.0753274187 -0.0839958861 -0.11020349 0.214290798 0.0340959691 0.0763167068 0.0093905637 -0.0887225568 -0.0886897147 0.118088439 0.101278864 -0.081541419 0.0544352382 0.0619637407
0.0807436779 0.249885008 0.1013714 0.0360242687 0.020319486 -0.100297861 0.0857270211 0.151949942 0.0150953373 0.0302747395 -0.0351240374 -0.19220306 0.0143612726 -0.136879593 -0.0493103415 0.214029402 0.00420349138 0.146329924 0.0220431071 -0.00989593565 0.167717516 0.127164274 -0.0979428217 -0.0901771709 -0.00812998507 0.238004223 0.0518860854 0.186939344 0.135247737 0.0280205049 0.164219543 0.0149649112
-0.238473967 0.00921592489 -0.0503817424 -0.0591609702 0.0322140306 0.117959782 -0.0352620222 0.0194699932 -0.119410776 0.00874344446 0.00701141171 0.170993537 -0.249533355 0.0802769586 0.0796840116 0.0363079458 -0.000219405425 0.114745729 0.0772224516 0.0808489919 0.184425727 -0.178708166 -0.178301141 0.249501988 0.0943831131 0.194058269 -0.250152379 0.189698711 -0.0148714287 -0.213916719 -0.317355454 0.00364719424
0.175193965 -0.0342017859 0.135273516 -0.168206975 -0.00249803718 0.0483896509 0.262474358 -0.0961081684 -0.0326004215 -0.145710781 -0.0579598323 -0.209590182 0.0551548079 -0.135596558 0.287083924 0.18147105 -0.224929988 -0.0597450957 0.0970521346 0.158160344 0.0995714143 0.305851281 -0.0509016477 -0.0902390331 0.134192541 0.0465606786 -0.0388822071 -0.12402232 0.0648776367 -0.112414218 0.201957121 -0.10100098
-0.189056814 -0.253743678 0.0322974771 -0.197646156 -0.00147386908 0.0462346673 0.0953554362 0.00915557239 -0.084837243 0.0695015118 -0.0484868251 -0.0987414047 0.00733569451 0.103619352 -0.0168105103 0.230683893 -0.0739889517 -0.142003521 -0.0575707071 0.257727414 0.0660620406 0.10896226 -0.130119309 -0.0817593262 0.198974386 -0.0427952856 -0.11010512 -0.099351272 -0.186515898 0.0788103789 0.116312176 0.248132572
0.0138366241 -0.15879181 -0.0780358687 -0.426993072 0.0947672352 -0.22621873 0.0807596222 -0.09557347 -0.157094344 -0.062963888 -0.188123792 0.294086903 -0.144656718 -0.0952147543 -0.238551632 -0.293445915 -0.145355612 -0.255833596 0.0247101113 0.111264713 -0.0293942261 -0.10888309 -0.0604558103 -0.260899067 -0.0905202851 -0.231424809 0.329867035 0.0187238436 0.0988392308 -0.0430215038 0.272493482 -0.276138306
-0.273737192 -0.112448305 0.0478629433 0.169571757 0.0552862398 -0.137262836 -0.107508041 0.174458325 0.157605588 0.262248576 -0.107819758 0.391028196 -0.0946852192 -0.233778179 0.000205244549 0.0722289756 -0.204919338 -0.0638277456 -0.204546109 -0.0373797938 -0.100610331 -0.139543504 0.315516889 0.258505106 -0.143202156 0.0765682459 0.229122385 -0.30011341 -0.0161601566 -0.195891783 -0.145188361 -0.183301762
0.218810856 0.182510123 0.187180445 -0.0544897057 0.0167939067 -0.123171039 0.153819039 -0.107397214 0.0420225672 0.0896800235 -0.101360567 0.158846423 0.245529622 -0.179553241 0.204072863 -0.264683694 -0.0437228493 0.0170715898 -0.0171320345 0.051118359 -0.121154882 0.0361886509 -0.100555979 -0.143156379 -0.163966313 0.228740901 -0.091717042 0.0573117621 0.159740433 0.0455517732 -0.150441676 0.124122977
-0.0291528236 -0.166387916 0.26903823 -0.0178467259 -0.0531206578 -0.0649852529 0.11578346 0.0642039105 0.263240874 0.339973629 0.129655242 0.100720733 0.0285060611 -0.324611902 -0.241186514 -0.0832160786 0.0718695149 0.113099568 0.152357459 0.0242749974 0.0508301742 -0.0558457002 0.0861893445 -0.0876516998 -0.0662174597 0.24644281 -0.0830476135 -0.0253354535 -0.0782472193 0.0287999474 0.0524797924 0.0814253539
0.19354023 0.215934485 0.190365225 0.00628318125 0.17554152 0.102505527 -0.0369279422 -0.0498377308 0.0698936805 -0.0363953225 0.0687517673 0.0310624372 0.062925607 0.312736154 0.0709773079 -0.048725795 -0.0606975146 0.109318778 -0.0288640335 0.136652425 -0.136677697 -0.114491835 -0.0158406273 -0.183031037 -0.112555102 0.257292271 -0.223184824 0.20872356 0.0232047886 -0.00484657194 -0.0280745979 0.086201556
-0.0225853063 -0.16138576 -0.14570573 0.0805081874 0.14990133 -0.103574082 -0.331047326 0.241078898 -0.0878142267 0.0545059033 0.230544582 -0.0878036991 -0.227214366 -0.198126137 0.187382981 0.00955481548 -0.0867269412 0.0460937545 -0.284031838 -0.101784997 0.0515653305 -0.2233392 0.141135842 -0.0788890421 0.146174029 0.107563257 0.140359551 -0.210982069 0.048326917 -0.1010205 -0.0470282882 -0.0817207396
-0.117465213 -0.194508687 0.155101568 -0.124316014 -0.188485101 0.19612664 -0.130451262 -0.155252934 -0.0112189101 -0.0293558016 0.139755413 -0.16617164 -0.0315563157 -0.0819022134 0.112815686 -0.142460257 -0.0316454805 -0.0208166409 -0.0489869416 -0.117005192 -0.109686941 0.15330781 -0.079159528 0.0934547037 0.101628922 0.140609443 -0.00985384639 -0.15066433 0.0824300945 0.224546567 -0.275432616 0.208995372
0.211911827 0.0421996377 -0.0840449631 0.212755501 -0.0496262051 -0.0895960182 0.0488621257 0.161575481 0.215534851 -0.211069569 0.0701728687 -0.140255615 -0.164233938 -0.0326979049 -0.126178607 -0.0740422159 -0.0271053053 -0.060689114 0.274760038 0.150433123 -0.196370453 0.0258607715 -0.00820677448 0.194306329 0.149831325 -0.137800559 0.00356993498 0.144449666 0.0132181542 0.0456764624 0.0405849591 -0.0903134122
0.243447676 -0.0364418961 0.0154640917 -0.0870662779 -0.00216801674 0.0652941987 -0.0607442968 0.0561307631 0.197135344 0.0928670987 -0.0644571632 -0.212731495 0.337360263 0.117627874 0.0914774463 -0.12737678 0.0856321305 -0.0597306602 0.144579083 -0.165123269 -0.167657226 -0.0260422323 -0.0492295362 -0.0963287801 0.268263847 -0.108642541 -0.0744869336 -0.13553305 0.0128404088 -0.12195415 -0.256518573 -0.0810816884
0.183418795 0.105373561 -0.27000165 -0.147297308 -0.127872661 0.0872051418 0.00186477753 -0.159091622 0.102368847 -0.00342309591 -0.0894724727 -0.0901783928 -0.0298235677 0.00302091823 -0.0729964152 -0.0998621732 0.0820048749 0.130847812 0.115597956 -0.0501712076 0.141781136 0.0322998203 -0.151880026 -0.124700017 0.17142731 0.114893079 -0.0791123137 0.0413748361 -0.225615188 0.00104895676 -0.372078329 0.237982601
0.0532597639 -0.375697374 0.25617674 0.264623463 -0.0398799255 -0.103879809 -0.135671079 -0.0706848875 -0.168798268 0.056130439 0.267534077 0.0687069893 0.153519794 -0.129569858 0.092853345 0.0488101617 0.00735310512 0.239431709 -0.0533741489 0.228130415 -0.0287245195 -0.0316423215 0.0501671731 0.0271388665 -0.306639135 -0.0345929936 -0.00497647701 -0.108891241 0.126247987 0.0152469603 -0.227388382 0.16559504
-0.100436628 -0.028342247 -0.0132497465 0.0420492142 -0.000326744339 0.0757044256 0.181047782 -0.00222257734 -0.0334348716 0.0211126637 -0.160456851 0.151706249 0.301818937 -0.0321620852 0.145987228 0.22757484 0.0247606579 -0.180971354 -0.179270506 -0.066966556 0.0994615853 -0.050918933 -0.224127561 0.164814904 -0.00288390787 0.0920712724 -0.0159823112 0.1420739 0.117164172 0.0276401043 -0.0450510457 0.193973273
0.166653439 0.0296398699 0.16201672 -0.074767068 -0.125933379 0.114036411 0.0506801009 0.0853585824 -0.223198429 0.0444555804 -0.266783535 0.28402701 -0.103735484 -0.267540902 0.109554522 0.259596527 0.207180366 -0.00997793674 0.00546541763 -0.0330454595 -0.0562525168 -0.156055808 -0.102253556 0.175366968 0.0444381163 -0.364765942 0.196264088 -0.0804341286 -0.0629753917 -0.193826467 0.0749113858 0.15165931
0.139332563 -0.101147018 0.180031478 -0.0400019251 -0.131119147 0.0368082412 0.190229043 0.117097788 0.00464236271 0.0773670152 -0.00333951507 -0.130280107 -0.34264034 -0.126101375 -0.0246395282 -0.0883528218 -0.126753926 0.109599032 0.0635808036 0.0106729846 -0.0388614722 0.0282291491 -0.107687488 0.0986906439 0.122318245 -0.239196986 -0.08845184 0.0488461033 -0.052957993 -0.126355439 0.199271932 -0.179800957
-0.133427665 -0.0159867946 -0.0299688615 -0.191464275 0.0609203726 0.06210123 -0.202081069 -0.150715649 0.111200429 0.190093994 -0.0691524968 -0.173092768 0.0569152273 -0.00897916034 -0.0232250392 0.236436591 -0.214597672 -0.180011064 0.139049485 0.0256841704 0.127606586 0.287376344 0.0496300273 -0.074834168 0.0114560416 0.211084366 -0.0489384271 0.105933569 0.245367646 -0.07694792 -0.113252804 0.174663857
-0.0021206066 0.133220404 0.0519170202 0.0236148871 0.0276310332 0.0716669112 -0.14662081 0.154952362 -0.0880478323 0.0923053846 -0.0975753218 -0.225010723 -0.0304915886 0.266424507 0.024972681 0.29297474 0.0852950364 -0.136659682 0.336272568 -0.150378451 -0.173300147 -0.0373733267 -0.123457707 0.0095477514 0.0350465477 0.0659661144 0.0119011514 -0.156055108 0.0245173946 0.125168756 -0.109977573 -0.121205114
-0.0851143077 0.12807332 -0.125957802 0.179749236 -0.0682955012 -0.02849501 -0.0137361074 -0.170458376 -0.0975370705 0.0105699338 -0.102570854 0.151488155 0.0747943893 -0.0839047581 -0.00148672319 -0.136657804 0.171738625 0.161528185 0.0523292646 -0.000987940934 0.159065858 -0.201196894 0.151838467 0.0437015593 0.0547036715 -0.153783798 -0.263581306 0.292374462 0.003635464 0.163443834 0.0103332177 0.0525630303
