# shape: 32 32
-0.0921603441 -0.0346292667 0.0285148807 0.101228319 0.249915108 -0.154991433 -0.201444849 -0.0681402013 -0.0939023569 -0.148882657 0.326400816 0.224264383 0.0248088259 -0.134672225 -0.0095979711 0.171558127 0.127097324 -0.0842330232 0.17667979 -0.0340126604 0.165589243 -0.10330192 0.109794877 0.0359575078 -0.18682079 -0.107207425 -0.0976895243 0.110202007 -0.00493523199 0.050124485 -0.117234834 0.104552552
-0.130756974 0.170728028 0.0489992946 0.085872367 0.105135523 -0.0350923464 0.1021448 -0.0669156909 -0.11967618 0.13953422 -0.0240833294 -0.0326415338 -0.152259022 0.270895988 -0.0670334995 -0.0639992878 0.0953291804 -0.0590526573 0.190796718 0.343210101 0.1771487 0.0827365741 -0.367076248 -0.0369180851 -0.246770814 0.0383423604 0.185664505 -0.0731222332 -0.0347269252 0.0261708647 0.329559267 -0.176235154
-0.0367993601 0.121573471 -0.165037245 0.114653297 0.0349870734 0.0708101094 -0.080381237 -0.175730869 -0.0446150526 -0.105896361 -0.0798623338 -0.121049315 0.0962698311 0.149096116 -0.120233849 0.0408274494 -0.0264830906 0.222613007 0.0156291053 0.0168361068 0.265298247 -0.0416229181 -0.126610711 -0.0309237204 -0.42549032 0.240966886 -0.0726207346 0.205316857 -0.12780872 0.145005107 0.314971924 -0.222801909
0.0423379168 0.1369984 0.205619171 -0.307884187 0.237664685 -0.0993203297 -0.0114644486 0.0754141808 -0.171577439 0.163352877 0.276123703 -0.03487942 -0.0883462355 0.33950755 0.0434958376 -0.0267260727 0.269123077 0.0389829837 0.0905492976 0.307017654 0.0581789874 0.019047441 0.035649538 -0.168992758 0.017665714 0.294650882 -0.200013503 -0.066429019 -0.0455471762 -0.398774773 -0.2084077 0.118427724
0.0665558502 -0.00836978666 0.0166761689 0.056398835 -0.178665191 0.123648308 0.21471487 -0.139246047 -0.0566311814 -0.0878647417 -0.218837276 -0.141671702 -0.0493153185 -0.180606663 0.124966294 0.0741722137 0.0275259987 0.0875218213 -0.0618153363 -0.092202276 -0.044084616 0.120665833 0.146474987 -0.277700603 0.00303483405 -0.208323151 -0.208784863 -0.161112219 -0.101182014 -0.16324763 -0.145575792 0.286322743
-0.073777087 -0.136777908 -0.169425532 0.115327246 -0.0244991668 -0.0741125941 0.272250861 0.0207951348 0.118186213 -0.139747903 -0.060724888 0.0670116097 0.152687043 0.047041744 0.0165780243 -0.0310074817 0.125175655 -0.00387098291 -0.25767076 -0.18826963 0.113008536 -0.0201487076 0.369324505 -0.366227984 0.0641394258 -0.265248895 -0.381573081 -0.0140804574 0.204294533 -0.041143328 -0.114928976 0.128130361
-0.00463602459 -0.0582762361 -0.0544539243 0.0520650782 -0.0509175397 -0.257876873 0.221893221 0.145091534 0.0884595364 -0.244523451 0.295462906 0.233984515 0.103703208 -0.186204463 -0.0826094002 -0.0381236151 -0.0949650332 0.281394899 -0.0956411883 -0.048627533 0.0113355499 -0.40655598 0.0490084104 -0.194186002 -0.0817695037 -0.0311549865 0.0144009693 0.0915881172 0.204585329 0.217696086 -0.181771174 -0.0788448006
0.0619880557 0.211084962 -0.114079893 -0.224906042 0.150198728 -0.103903897 -0.279445291 0.270618081 -0.139894843 0.260656208 0.139160797 0.31703499 0.245610982 0.253316611 -0.132795304 -0.0414965898 -0.189091459 -0.198542744 0.214091077 -0.111767828 -0.230585471 -0.128354192 -0.220240057 0.191879436 -0.263284683 -0.0793235749 0.138587415 -0.132876605 0.066708684 -0.0295275562 0.183252826 0.067278862
-0.0305145159 0.181613043 -0.0446746722 0.138750002 0.114257954 0.180420697 0.0703954622 0.168206006 0.222960621 0.193870082 0.0763822645 -0.00415291451 -0.0505828597 -0.0254038554 -0.0763397738 0.132574484 -0.0885250941 -0.267949939 -0.0647310391 -0.00425240491 -0.00643425575 0.0839001015 -0.0377425849 0.0638785586 -0.0698338598 -0.0716530904 -0.0871693417 0.0828068703 0.242588773 -0.223902926 0.077376157 0.0184319708
-0.0688152909 -0.133175999 -0.174780428 0.0344473273 0.0183566138 0.0852027014 -0.219488904 -0.177856266 0.286688536 0.137641683 -0.195087701 0.0445145853 0.0380231775 -0.163709879 -0.0121350382 -0.225577608 0.0120799663 -0.00196219888 0.159036309 0.0937633067 0.200364903 -0.0330963805 -0.17915222 -0.0314138494 0.236600295 0.109182194 -0.0639275983 0.27792266 -0.0684073567 -0.0889813155 0.221976995 -0.074011296
0.0993255898 0.263398707 0.00728782499 -0.0905227363 -0.28309992 0.191388145 0.054159496 0.121903203 0.098852329 0.152584627 0.0576674007 -0.231170878 0.0279653762 -0.220090806 0.147975773 0.136644349 -0.153409362 -0.0766040832 -0.0658905283 -0.0774349049 -0.0842769891 0.197027579 -0.214939773 0.135538578 0.00120059203 0.282243103 -0.250552624 -0.0853094682 -0.284311503 -0.0753864124 0.0280251931 -0.11752443
-0.0368388146 0.124943174 0.0579674095 0.0723192021 0.175519586 0.0497080684 0.121269867 -0.115566134 0.169057891 0.0511954799 0.233304366 0.146669522 -0.101459786 -0.0129903676 -0.221396089 -0.0468181595 0.0743025616 0.0677163377 -0.149098963 -0.237336755 -0.237773895 0.0179890953 0.227171764 -0.265290618 0.279427767 -0.0296215098 -0.0927815884 0.143588632 0.119384155 -0.228930444 -0.189114437 0.0299547557
-0.171609417 -0.0689878389 -0.257709354 -0.18385908 -0.0347197279 0.0403641351 0.202836812 0.100641534 0.00851739198 0.15398851 -0.00933300983 0.0363760367 0.0988929793 0.0368550867 0.0721272901 -0.211731583 0.0700415075 0.0723303035 -0.251868278 0.166219637 -0.160500869 -0.195743546 0.329264015 -0.284422219 -0.0833111703 -0.111901194 -0.121756919 0.0315322652 0.0152174421 0.168183789 -0.109530531 -0.137304708
-0.139608666 0.0298345443 -0.0521394685 -0.263375998 -0.0355376117 0.147493973 -0.0457660519 -0.271734208 -0.168792486 0.00124283752 -0.17621702 0.168315232 -0.287793517 -0.195115581 -0.0833313987 -0.166191295 0.00480549922 -0.097074084 0.0883831829 -0.131506681 -0.150831759 -0.142246395 0.296923846 -0.149865523 -0.0362012982 -0.0178860761 -0.132036597 -0.180296838 0.123127654 -0.203850791 -0.100549482 0.00566818938
0.101200059 0.0317158028 0.0114766685 0.136604324 -0.0492483713 -0.137090817 -0.0865252167 -0.250914454 0.134448409 0.0488106832 0.0106584346 -0.0713155493 -0.0522780903 -0.249142915 0.247429222 -0.14418228 -0.228803709 0.0324390642 0.1808189 0.0287510026 -0.0947899073 0.232256547 -0.188458607 -0.109368496 -0.0762643144 0.150343508 0.0931444466 -0.179154336 0.152407721 0.105592638 -0.0236830637 0.168494508
0.322416097 0.117393129 0.176932007 0.262859941 -0.134184703 0.172215134 0.0601175614 -0.0351093523 0.0222865175 0.103613451 -0.0769614056 0.0648154393 -0.0311113596 0.0659590587 0.184911057 0.127790257 0.0812365338 -0.048251871 0.117362425 0.176794276 0.0628021359 -0.178606331 0.0650003031 0.163786069 0.0369318239 -0.187389225 0.114098795 -0.0480030887 0.109484687 0.193092018 0.267206073 0.25919199
-0.251091659 -0.295367062 -0.000399970653 -0.0739066824 -0.128830329 -0.138493851 0.318078548 -0.0310753956 -0.149068415 -0.292344451 0.0412683338 -0.113129199 0.0538070798 -0.125416905 0.0663672462 0.0211933628 -0.283152521 0.0820539966 0.101355575 -0.075205043 -0.0347761065 -0.239121124 -0.319905698 0.0299639348 -0.317799449 -0.0341400839 0.0687369406 -0.298093051 -0.401722789 -0.00916718971 0.141553089 -0.104230613
-0.22387521 0.0965847299 -0.262647539 -0.105868466 0.299144953 -0.226840496 -0.100492992 0.0690507218 -0.1790241 -0.0229696333 -0.085101977 0.169640362 -0.0930672362 0.169561759 -0.274620086 0.0496324152 0.0908456668 0.053175278 -0.207596108 0.17208378 -0.143781826 -0.198857486 0.0647647306 -0.199444354 -0.0159645565 -0.18140243 0.124688692 0.0612727441 -0.121811934 0.176873714 0.0697762296 -0.00326402416
-0.00613771612 0.353528827 0.262930274 -0.0334884636 -0.22360304 0.162996694 -0.193962693 0.228158727 0.300100386 0.222310662 0.167419001 -0.0641148537 -0.136086047 0.091625087 0.228839025 0.0610609278 -0.131204531 -0.0742383301 -0.119580917 0.108227395 -0.0221823398 -0.0529839061 -0.112131409 -0.13287133 -0.214049488 0.0746448487 0.104769774 0.121206425 0.0577782318 0.240625009 0.0110243298 -0.257425666
-0.226088986 -0.169735759 0.0569096431 -0.0647592843 0.068951793 0.0761934891 -0.130706862 0.119046882 0.219980314 -0.121917874 -0.0629622787 0.237108096 -0.0226945486 0.212431177 0.125014052 0.156261548 -0.0982033238 0.311558425 -0.182062805 -0.0753226355 0.140756324 -0.268404961 0.0875931382 -0.0568890683 0.0419941582 -0.0409276821 0.239425868 -0.135032505 -0.10320235 0.0656525195 0.142457575 -0.138956621
-0.0140506811 -0.20958294 0.251801044 0.245289877 0.0696866438 0.00283390936 0.104214236 0.104411483 0.0412609763 -0.0217298791 -0.118968502 -0.201807305 0.0377661474 0.10572622 -0.0710863322 0.00321701495 -0.110952407 0.0943465903 0.33160466 0.113507129 -0.0511815622 -0.135697082 -0.158898368 0.0688107833 -0.0148745198 0.0545132831 -0.0443800278 0.0667756647 -0.022532681 -0.0444868281 0.18833302 -0.00530252792
0.186334699 -0.125134945 -0.126738742 -0.268980384 0.0367230251 -0.0573964939 0.305822164 -0.224871382 -0.132101402 -0.252124816 0.234533474 -0.0139275519 -0.192811072 0.0565293245 -0.0990942419 0.156696633 0.274203479 -0.247189879 -0.185163751 -0.244136363 0.057300508 0.194614053 0.189579725 -0.280454218 0.0987780914 0.00425001094 0.0669964552 -0.171415299 0.162552208 -0.278867364 -0.245824724 0.0922818929
0.267146409 -0.0418477133 -0.0932499319 0.0711459443 0.137281463 0.262598842 -0.0646660775 -0.17929551 0.0831598416 -0.0449059978 0.0204964187 -0.114301763 0.0716005936 -0.0391702317 0.150428012 0.247661039 0.0930765346 0.129615679 0.157609001 -0.073471643 0.116474494 -0.222266555 0.0760458037 0.0774154663 0.310650349 0.0454337336 0.131083623 0.0578985475 0.00351036922 0.0184045862 -0.210410833 0.0826006085
-0.236353248 0.144208699 0.0341454782 0.0158829968 0.15359062 0.162453189 -0.0665774345 0.142321482 -0.132146746 0.125017151 0.0867998153 0.051765088 -0.101925656 -0.0417282693 0.0426985733 -0.0104730437 0.0524279326 -0.295801491 0.230918244 0.0837508515 -0.117069513 0.250367254 0.0203944333 0.304326206 -0.211862385 0.0816428959 0.131089702 -0.0291114133 -0.0323379189 0.14790009 -0.0343688466 0.0445679948
-0.0433128923 -0.0759896711 0.0535378419 0.0440719575 0.210633844 -0.0875677019 -0.17341283 -0.0718232095 0.0638827533 0.0910069421 -0.157815188 0.164427549 -0.0752133578 0.233215407 -0.248056009 -0.102571167 0.178061947 0.246993259 0.0417446531 -0.102105916 0.0654129237 0.00385981146 0.0302752443 -0.179317474 -0.0438604765 -0.128736168 0.179577813 0.175350815 0.0699064881 -0.000947475899 0.0566016845 0.104253635
-0.180083379 -0.0212810133 -0.239069745 -0.124855146 0.0766472816 -0.109548248 0.0321024582 -0.0777726546 -0.28852728 -0.0301600453 0.0653934032 0.015074444 0.0528944731 0.0802555978 -0.2478095 0.0213372428 -0.0289506633 -0.0141481394 -0.238891214 0.107378669 0.191441491 -0.104270749 0.25267911 -0.0307913851 -0.187575027 -0.101942413 -0.155946836 -0.0791056827 3.02351527e-05 -0.0796887428 -0.119357057 -0.209226251
0.0479381345 0.0217318647 -0.0235408805 0.00311859022 0.0236710366 -0.0820286721 -0.227256373 -0.0108776698 -0.0153304655 0.060802225 -0.0631728545 -0.0465500765 -0.192955703 -0.0306009911 -0.00365809095 0.0910655186 0.135869533 0.121360347 -0.0502790958 -0.276168317 -0.369627059 0.0246018171 -0.0791245624 -0.0307373684 0.00361737725 -0.109890938 -0.140964568 0.175012112 0.121683381 -0.219123036 0.136872128 0.127984583
-0.110208534 0.0378043801 0.0798250437 -0.192513153 -0.12364652 -0.0849136338 0.0778470188 0.200403154 -0.163322791 -0.0593869463 0.128450885 0.129105613 0.0644723922 0.114361249 0.0233694576 -0.191945463 0.16948618 0.130345941 -0.0915471911 0.0397985503 0.0744300336 0.0266388524 -0.0362212583 -0.0554220416 -0.159944847 0.0939715356 0.035290163 -0.152068272 0.268113554 0.0755298734 0.11463239 -0.0648120642
-0.187500954 -0.30232662 -0.195272639 0.0159273352 -0.0773423687 -0.250257492 -0.0101935025 -0.23452948 -0.223753452 -0.125731021 0.0431908444 0.248020276 -0.0501402952 -0.164937317 -0.219354466 -0.0195521042 -0.19335191 0.0157097913 0.0497248918 0.0228650346 0.0228709653 0.367362618 0.125007987 0.0225237962 -0.0102596711 -0.254766554 0.00923643075 0.277057469 -0.145322889 0.11194098 -0.0397491306 0.189751625
-0.203206822 -0.381134808 -0.0551457293 -0.269196898 0.0616551153 -0.109733105 -0.0066532311 -0.00613132771 0.0320957936 -0.281837732 0.00628394075 0.279775321 0.114409022 -0.170398995 -0.252320528 -0.178420484 -0.223423436 0.205343366 0.0541753285 0.275867909 0.198472589 -0.0495603085 0.00219717459 0.0625933707 -0.391977251 0.141665593 0.179007098 0.0432343334 -0.159726083 0.237892792 0.0979712978 -0.0471533537
-0.00853111409 0.0827128291 -0.0909435824 -0.111993983 0.0488251448 -0.137549594 0.00379858585 -0.0233752709 0.101221964 -0.0142861633 -0.099237211 0.14916566 -0.168916613 0.0250683296 0.118538447 0.0405096114 -0.0122250989 -0.0826998428 0.106496289 -0.168393165 -0.118634172 -0.125299439 0.168020576 0.170552447 0.0458556041 -0.172855005 -0.0380387492 -0.021458542 -0.198548391 -0.16959469 -0.304090917 0.224780798
0.260501325 -0.0114406962 0.230111435 -0.144361198 0.0619270764 0.00569163356 -0.347567976 0.257826626 0.259853095 0.0732758343 0.0272888169 0.0921709314 -0.0148379989 0.118039027 0.118266925 0.306957126 -0.126301348 -0.165459126 0.350081474 -0.335098147 -0.0215819143 0.210928544 -0.142560363 0.108670682 0.120368533 -0.0521718636 -0.14458105 -0.303579152 -0.0622156858 0.112005658 0.0264399461 0.0955122039
