# shape: 32 32
0.0902868807 -0.0204266012 -0.143005043 0.114174664 0.0686561614 0.19396852 0.0591987111 0.0516061932 -0.0882200897 0.152306288 0.0847971886 -0.0376092531 0.0299554635 0.0683363453 -0.0133000677 0.277813882 0.0494355261 -0.221597925 -0.0184440892 -0.161395818 -0.105937734 0.464251786 -0.0167257357 0.0848712027 0.199348211 0.0562173873 -0.00504026888 -0.0548322871 -0.140497923 -0.22726807 -0.0345835164 -0.00401530648
-0.0746293366 0.0249202438 0.0943793803 0.146715865 0.058424443 -0.0946070999 0.330292523 -0.304236621 -0.203202471 -0.0920842141 0.0594314858 -0.185725927 -0.108407862 -0.058252003 0.165401176 0.00476025883 -0.0437780954 0.114259169 0.0884307325 -0.0595975816 0.134051353 -0.247101665 -0.29499349 0.0685318857 -0.263599217 0.0148727754 -0.269253343 0.0563656054 -0.17515035 -0.0954399854 -0.0227728188 -0.0460991226
0.000545677613 0.199763164 0.0723592415 0.0299359597 -0.0764242113 -0.174777627 -0.147363275 -0.233212441 -0.248175919 -0.151954591 0.172923893 -0.165978044 -0.0274225585 0.013231473 -0.197538555 0.00221284782 0.0455200039 0.067512691 0.067700386 -0.0210472066 -0.0374977514 0.0885316357 0.215544894 0.104629599 0.128672108 -0.0347853675 -0.0422482453 -0.257287413 -0.116726302 -0.259914398 -0.34334746 0.237915933
-0.110383682 -0.0164193287 -0.211574629 -0.102210365 0.395329326 -0.0167729519 -0.00103398634 -0.107370719 -0.0768391192 0.0134829544 0.147322491 0.346567392 0.163998157 -0.210354656 0.00737220841 -0.0589927025 0.230791837 0.17293638 0.155611008 -0.079702206 -0.103132337 -0.203809902 0.0096578924 -0.00584745407 -0.298207372 0.235411406 -0.165678039 -0.127394959 0.104055502 -0.0958517119 0.000791241589 -0.211059988
-0.0942202285 0.0658289045 0.135522977 0.136777863 -0.148872137 0.0711462796 -0.0970687717 -0.11997851 -0.102011487 0.0801041797 0.168522105 -0.0234774984 -0.181811661 0.0070865876 0.157902971 0.0478318147 0.139836088 -0.237495348 0.136059716 -0.155425057 -0.284958601 -0.0897894651 0.0576183237 0.113398246 0.269068301 -0.149266899 0.298898667 -0.370574564 -0.203957617 -0.0144760292 -0.216604903 0.215923712
0.00112803571 -0.107089013 -0.0446054302 -0.179145575 -0.0784337595 -0.277892381 0.182006434 0.111372769 -0.247633874 -0.0339998826 0.176330805 0.199510828 0.018409038 0.0767870247 -0.255335599 -0.212995321 -0.0545230433 0.195455611 0.247493029 0.379586846 -0.436621666 0.219474852 0.00194033061 -0.0848443657 -0.173590511 0.193671122 -0.361616343 -0.134826124 -0.137550592 -0.141521871 0.17315957 0.19914259
-0.199464753 0.346678823 0.180266932 0.120783456 -0.0663820282 0.0481892005 0.0428431518 0.16904825 0.0107992422 0.228229359 0.108880855 0.0903180391 0.138411403 0.116932809 -0.0874983668 -0.135236621 0.0284294207 0.0766490176 -0.0985267609 -0.233523533 -0.125347689 -0.0802853107 0.0864840746 0.132467195 0.040476691 0.0603352934 -0.0782957524 0.0716144517 -0.242374748 -0.124799468 -0.0152925299 0.222728878
-0.0746418461 0.15354912 -0.113674067 -0.14024429 0.00715630921 0.0114440834 0.0586904176 0.12726371 0.0863676369 -0.015071637 0.211464658 -0.320669889 0.139674351 -0.093430005 -0.125602424 -0.134981811 -0.047205925 0.202339262 -0.201831043 0.0723870844 -0.141841233 0.0221776403 -0.185833246 0.162854195 -0.126195863 0.0970803797 -0.119483128 0.150821969 -0.0538682118 -0.338224053 -0.0172674321 -0.0306912214
-0.0348512381 0.239028767 0.121218324 0.134649843 -0.183099434 -0.129227042 0.0883307308 0.038001135 0.112382159 0.0397368409 0.0436477661 0.00663354201 0.104314625 -0.0276521631 0.245188251 -0.0719688982 0.0801819637 -0.0550298877 -0.0599511042 -0.198334605 -0.0867648721 0.162860408 0.224586815 0.0044333823 0.206495434 0.0154174725 0.0816445574 0.0272607356 0.00813876651 -0.00802040193 0.0907454491 0.0839329362
-0.122945279 -0.0733410716 0.111921147 0.235504642 -0.139705226 0.147376671 -0.228584573 0.0207514148 0.0862174705 0.203895494 0.15636912 0.104723498 -0.217200011 -0.040461719 0.27481097 -0.0284516346 0.00923254155 -0.224235162 0.0267026499 -0.0620337985 -0.0333685614 -0.130457431 0.112668321 0.000805770047 0.130468577 -0.13368547 -0.0940892324 -0.00108121056 -0.0440857224 0.04024693 0.032042969 -0.167534202
-0.0689711049 0.00861565489 0.00530862529 -0.128084794 0.100489914 -0.0242376328 -0.174870893 -0.143439025 -0.00848114584 -0.0677855983 0.0800191909 0.149743259 0.0438080169 -0.0445159636 -0.146655545 0.119009607 0.059142489 0.200816244 -0.145638496 0.00854094885 -0.0547701754 -0.0193253309 -0.0418887287 0.0073024435 0.197076425 -0.0372582898 -0.116550773 -0.0674273893 0.363315463 0.232502431 0.0805881023 0.104706034
0.226789221 -0.116868965 -0.17461668 0.217168197 0.0634643883 -0.0147505319 0.113568343 -0.256479591 0.137379095 0.099837549 -0.0787420869 0.0847991407 0.0878708065 -0.0910558552 0.0146048358 -0.135379106 0.00529401144 0.169945344 0.200885624 -0.208910748 0.0542074889 -0.0568359084 0.0141138807 0.0404136889 -0.260132492 -0.219756424 0.0747272223 -0.244019181 0.285484672 -0.0771204382 -0.157225817 0.0993055403
0.172397375 0.219222263 -0.107848331 0.0139840608 0.15481925 0.302733392 0.0607301369 -0.188091993 0.0421926416 0.00944930222 -0.0664086565 -0.227414057 0.1469993 -0.213896841 0.0415590666 0.0279913694 -0.0386300907 -0.191332445 0.376664907 -0.317310721 -0.106838569 -0.0490820035 -0.109464124 0.308234274 0.211655796 -0.107147843 -0.172503397 0.0941120014 0.0351417065 -0.117932983 -0.20923616 0.279592007
-0.0593731254 -0.0617534816 0.0185239911 -0.0244391914 0.0297481306 -0.148314938 -0.00341477874 -0.0875430331 -0.0947720259 -0.177063227 -0.242870048 -0.151921377 0.0744333342 -0.167177528 0.161702842 -0.115107432 -0.303740859 0.0178036392 0.276086986 -0.0899739489 0.00137124851 0.0491940305 -0.170075983 0.163226247 -0.084857896 0.0787525326 0.0856780335 0.0707949772 -0.0273809768 0.237676591 0.177125305 -0.0857397318
-0.139816418 -0.24095194 0.0559028722 -0.114705145 0.201875106 0.0633344874 0.0892053768 0.0518317558 0.0879736394 0.0758325383 -0.310786337 0.274039686 0.0499728583 0.170088276 -0.178376272 -0.132587075 0.0173730776 0.274854571 -0.15967457 0.0245491881 0.191138968 -0.00041756875 0.0485971458 -0.0427246466 -0.221555933 0.161496326 -0.183530718 0.0972200483 -0.338856071 -0.0486752987 0.31807363 -0.136556298
0.0993964896 -0.0169293582 -0.0718782023 -0.0738768801 0.145093977 -0.147047535 0.00370385451 0.0659683943 0.107056983 -0.131624565 0.123919524 -0.121367976 0.0876373202 0.175590187 -0.203054443 0.0848113522 -0.00056205393 0.101359569 -0.0461369492 0.122497804 -0.015341118 -0.0123209739 0.0732552484 -0.145371407 0.153998435 0.168914199 0.01542114 -0.0392330661 0.080384478 -0.154702529 -0.182317853 0.0282980371
-0.239342377 -0.039519731 0.114302658 -0.175791726 0.18315284 -0.137652904 -0.276456773 0.14437522 -0.00308081438 0.0160288028 0.00609967252 0.0674108118 -0.0176132806 0.0295301769 -0.0628007054 -0.0448992625 0.00109544001 0.331121624 -0.0453567505 -0.205785066 0.242104128 -0.294406414 0.145476773 -0.273260593 0.0661990792 -0.210943282 -0.0863020271 -0.104564071 -0.107196458 0.14422138 0.0444547161 -0.174782112
0.103237689 0.0611607991 0.181640431 0.12058273 0.169146627 0.216655239 0.305709869 0.065189071 0.160746381 -0.101051822 0.0252590328 0.0124871749 -0.186208308 -0.0145450355 0.237866551 0.0996646956 0.116035886 -0.031629689 0.00467483932 -0.0659674704 -0.0283676516 0.225833237 0.174608648 -0.090938054 -0.0372623429 0.082279481 -0.0681309775 -0.130438402 -0.0284550674 -0.191657797 -0.212362006 -0.0379347242
-0.103316665 0.150593624 0.0345565975 -0.19248642 0.168669567 -0.205814928 0.166088611 0.179708272 -0.257542193 0.0284033585 0.267118961 -0.0316029191 -0.223393515 0.0706222057 0.0740273669 -0.0654452741 0.189655557 -0.225143254 -0.0261377413 0.144211099 -0.0375594087 0.0223915949 0.175285295 -0.125451118 -0.170737073 0.170011953 0.0283123422 0.220774695 -0.00160470943 -0.0208162386 0.000408786087 -0.0111721726
0.122871704 0.129176214 -0.0249348413 -0.0625947341 -0.196747869 0.0968692228 -0.14810133 -0.00242242031 -0.243492395 0.336007506 -0.0483808257 -0.141335279 0.086869441 -0.108858079 0.125309318 0.213129431 0.0446517207 -0.15770182 -0.0245502051 0.0774001181 -0.0388459936 0.0372226126 -0.0737963691 0.173913464 0.0202823393 0.125500217 -0.172419548 -0.273395061 -0.0742314011 -0.168257654 -0.169364855 -0.0216502212
-0.0113021201 0.0749817416 0.195954159 -0.307711303 0.0714827776 0.0949276611 -0.016040761 0.0555324964 -0.133835435 0.0525704958 -0.169461653 -0.132671356 0.134965092 0.123289831 0.0699708238 -0.0572564974 0.0339878686 0.0035007149 -0.165619254 0.0209774319 0.025524471 -0.156783253 0.220489144 -0.158849522 0.00819886848 0.0109092752 0.218997449 0.0677138641 0.162967384 -0.1069718 0.149569869 0.0713417158
-0.165968031 -0.0590051822 -0.234377027 -0.0485396162 0.000953014474 -0.106740452 -0.146132514 -0.0571254306 0.324961543 -0.022828199 0.0589390099 0.136929631 0.129204065 0.270794094 -0.231414929 0.0352120064 -0.051590126 0.157695055 -0.0452337265 0.172991276 0.205362111 -0.255816013 -0.0778315142 -0.0703865364 0.20467639 -0.0479255281 0.293509573 -0.0796195194 -0.131230429 0.0319569148 0.172979265 0.113205306
-0.0907224491 0.0203277953 0.204535842 -0.0427599587 -0.0949343517 -0.0450334251 0.0288627874 -0.0443262272 -0.0535414256 0.0132360943 -0.428176939 0.0241423175 0.0558947101 0.140287325 0.0126986904 -0.113357373 -0.0921532735 -0.135021284 -0.00954460446 0.0795291737 -0.102218613 0.278889298 -0.00602244865 0.107847735 0.145475641 -0.208451912 -0.10853678 0.108738922 0.199145526 0.163097501 0.00326918485 -0.146415278
-0.227037251 -0.274197638 0.0506376028 0.0512701422 -0.0484487712 0.0141244587 0.123335578 0.0721030086 -0.140576467 -0.195833638 0.0386480428 0.0581727326 0.0884198621 -0.0170480832 -0.165177792 -0.0908580497 0.150707111 -0.0537059717 0.0551696494 0.219270855 -0.0311620012 -0.109872855 0.0839827582 -0.0279909577 -0.231886908 -0.0801821649 0.0837793499 0.200209394 0.0953828767 0.167074114 0.248838097 -0.249795467
0.0275524799 -0.0357811041 0.156655133 -0.178613454 0.119343378 0.154969171 0.0492971875 0.0795985982 0.06696444 -0.225247279 0.140233397 0.127154768 0.183502525 -0.163781673 -0.0277562402 -0.151526272 -0.0995830819 -0.0299168993 0.220351323 -0.0514806882 0.106324308 0.0772010982 -0.217282847 0.0144320428 -0.0630895719 0.103204839 0.103381321 -0.141009375 0.0387844294 -0.0763099492 0.010798879 0.0493361838
-0.1413894 0.220969781 0.0423521586 0.0285312459 0.102321118 -0.00760696828 0.220111802 0.0467925481 0.0751899779 -0.0820726678 0.139043137 -0.07970725 0.0495062806 0.135160357 -0.00533387996 -0.00499760639 0.182271957 -0.13854821 -0.346812218 0.0850054622 -0.0513617471 0.0975502878 -0.0109406486 -0.171749339 -0.197409451 -0.0299848374 0.0653841197 -0.0730439126 -0.0581634641 -0.234444857 -0.0609361604 -0.193153545
0.142683268 0.0787257403 -0.373737961 -0.176856175 0.063673757 -0.0673303455 0.0951123387 -0.190173566 -0.166717738 -0.078641884 0.255737096 0.232925683 0.0801838934 -0.157007769 -0.13686119 0.0205375999 0.0029819198 0.00354659115 -0.0306306705 0.0309183262 -0.156098053 -0.186450467 -0.0497930385 0.00990018342 0.0660383552 0.221390605 0.134977281 0.169029638 0.225988969 -0.0675385445 -0.152805701 -0.105485633
-0.0513312109 0.0370701775 0.0355985686 -0.158783406 -0.0770982876 0.0544168986 -0.0330410339 0.127433836 -0.341033936 -0.152564585 -0.127862126 0.0063235499 -0.0126882512 0.140241101 -0.0319888964 0.00209013955 0.214614585 0.302666426 -0.206705734 -0.0015948083 0.059437044 0.0864768401 0.081190832 -0.136130929 -0.325399429 -0.11933469 -0.0524924099 -0.0566743501 0.10365922 -0.178390011 -0.0485405624 -0.182989389
-0.260515779 0.0564719774 -0.149784863 0.0788806677 -0.00404686341 0.0116546527 -0.0267425906 0.068091087 -0.321635187 -0.118199445 0.185397461 0.0325087458 0.147592813 0.0122977225 -0.00848024804 -0.145426705 0.207792744 -0.110497802 -0.121415406 0.154590204 -0.167899325 -0.0739064291 -0.175106049 0.136422932 -0.0662098005 0.154337451 -0.0349662676 0.0327213742 -0.273414522 -0.16851601 0.026344955 -0.0461853109
0.231667981 0.0127588827 0.0960062221 -0.0396008715 0.165367782 -0.213110656 -0.0397795811 0.0836609527 0.0245603286 -0.124275722 -0.0560990013 0.064113006 -0.0302986968 -0.0355585888 -0.177397817 0.415938109 -0.266230762 0.204222932 -0.0647718236 -0.108664088 -0.0399798416 -0.250590026 -0.100353628 0.218278036 -0.183002666 -0.00123608799 -0.0652652681 -0.0253411755 -0.403600037 0.0892069042 0.0985341892 -0.0733389333
-0.091958493 0.248089254 0.194488436 0.182842717 -0.0153526254 0.150930464 -0.0455818288 -0.0647181571 -0.0584755354 -0.0539834537 0.0309752431 -0.000378128549 -0.336704016 -0.0693695396 -0.0377773605 -0.0224098805 0.152552694 -0.163873479 0.22127074 -0.108148731 -0.0916126892 0.41114828 0.0243666787 0.136999011 0.0386076458 0.124660932 -0.0711047724 0.0693236887 0.15131554 -0.0562221259 -0.078775622 0.126847997
0.026190646 -0.0485079251 0.141511753 -0.137738228 -0.193516597 0.240747094 0.086991027 -0.0145710083 0.223433331 0.0648298785 0.015639022 -0.268083274 0.0552076958 -0.28594479 -0.0427877381 -0.0497486107 -0.0868145004 -0.0974034742 -0.122263998 0.0402157679 -0.201812178 -0.0364028625 -0.217190951 0.125988469 -0.018912496 0.216995105 0.0214057434 -0.12307997 0.256834447 0.170477971 0.147603363 -0.256848216
