# shape: 32 10
0.470781118 -0.316687763 0.117700741 -0.182852566 0.20847325 0.0983568057 -0.234569564 -0.334177554 0.308297187 0.253510565
-0.115691468 0.59647578 0.621656835 0.278694689 0.221204698 -0.287514061 0.249706075 0.213073492 0.0789558291 -0.48770076
-0.221246988 0.451005906 0.306463748 -0.319434702 -0.164037362 0.0655190423 0.389958084 -0.672074914 0.313940614 -0.394746095
-0.607771635 0.185694426 0.439648002 0.187004641 -0.163548857 -0.335572541 0.0751962066 0.399480611 0.024770461 -0.355214924
0.335001528 -0.323058605 -0.288689345 0.128452584 0.0778914765 -0.0982121155 -0.15588665 -0.0284556728 0.0636157244 -0.320054531
-0.341043264 0.126822904 -0.412416011 0.316899717 -0.27203238 0.401853979 -0.0761367455 0.148761585 0.104594298 0.174271986
-0.193543032 -0.120928466 0.342346936 -0.567821145 0.674788773 0.254797935 -0.157293811 -0.0221909992 -0.206210628 0.002998485
0.561715782 0.211735919 0.176427707 -0.499285281 -0.524592996 -0.275356323 0.159076974 0.525333762 -0.413504332 -0.0248057432
-0.679513097 0.180789679 -0.202078015 0.213809401 0.214468777 -0.35164392 -0.520178258 -0.383215934 0.083690092 0.587088048
-0.312703043 0.152547151 0.168256879 0.132424951 0.274852544 0.259448856 0.187527806 -0.0737292245 0.323123753 0.371396393
-0.311659068 0.325414509 -0.431328297 -0.0613297373 0.570996225 -0.317554832 -0.0262534283 0.0269920845 -0.231984407 0.185921878
-0.21847032 -0.462999225 0.0322491229 -0.36388734 0.114699967 0.302417964 0.391040236 0.211353466 0.110494494 0.124086902
0.0887856409 -0.229399443 -0.102978356 0.467945427 -0.142847702 0.343805313 -0.162566081 0.0550178103 -0.230967745 -0.182811871
0.159577519 0.360338539 -0.625727832 0.430326939 -0.294069439 0.519736171 0.101082392 0.163379058 -0.332984924 0.415976912
0.807903171 0.634086311 0.0250660926 -0.419024706 0.270635456 -0.18364282 0.0964474827 -0.387156844 -0.459351242 -0.222863853
0.108899049 -0.674895823 0.36770156 0.360690475 -0.230644181 -0.102678902 -0.658976674 0.447535068 -0.272667468 0.0438713431
0.351566017 -0.583567321 0.418950588 -0.0505268648 -0.291283518 0.0889125094 0.348840326 0.173730493 -0.264782012 0.519054592
-0.153035849 0.204013199 0.146341562 -0.0358548611 -0.194992512 -0.483361363 -0.716942787 0.544832051 -0.174943447 0.461192697
0.0475900359 -0.27924642 0.0344841368 -0.322034776 0.246007428 0.267238259 0.414043903 -0.261277199 -0.261181772 0.300943553
0.0309817716 0.235550076 -0.293650359 -0.561599493 0.442047536 -0.305177033 -0.385546952 -0.0733460858 0.643448532 0.336758316
-0.0960731655 -0.256375521 0.560043335 0.448634475 0.170522362 -0.258738875 -0.461060524 -0.0155858323 -0.261312395 0.518908679
0.287568539 0.39672935 0.222986892 0.435662925 -0.277860224 -0.214122459 -0.457768887 -0.1748676 0.207012147 0.311828256
0.398814231 0.128825888 0.194445819 0.300452083 -0.403645694 0.0279207435 -0.0323972218 -0.126884788 0.307000875 -0.39452517
-0.383881599 0.000799810339 0.601255298 0.58238107 -0.101316735 0.278697371 0.14051412 0.228896424 0.00659779552 0.00715000136
0.390804052 -0.451581866 -0.162401468 -0.0273049455 -0.0221586637 -0.646304071 0.467812538 -0.00990407169 0.358273089 -0.0487257205
-0.0434300266 0.377131283 -0.424185872 -0.0858193412 -0.0154400291 -0.356428504 0.668280184 0.143995047 -0.213222578 0.135939837
0.045461677 -0.345208943 -0.170253083 0.304525197 -0.569662154 0.407720745 -0.187331066 -0.494927555 0.543532431 -0.147334978
0.0655234605 -0.405296981 0.258658499 0.490391642 -0.27999711 -0.121613525 0.21007207 -0.0663339198 0.137387156 -0.177000031
0.436183691 -0.531804919 -0.182730287 0.0176595207 -0.433262318 -0.173577815 0.429452002 -0.549361765 -0.15809679 0.160660595
0.0724317282 0.4279055 0.0229484513 0.0688199624 -0.00891997945 -0.36275515 -0.0628872737 -0.21132119 -0.450206757 0.419436157
0.0773202926 0.261094272 0.474966854 0.156834424 -0.711069465 0.608198643 -0.183464721 -0.0649335086 0.106620595 0.0459278896
-0.141826019 0.0939294398 -0.326990277 0.0819243565 0.0657923222 0.330915183 -0.237762749 -0.109276652 -0.516802847 -0.398538023
