# shape: 49 32
-0.0745209977 -0.0991276056 0.256876141 0.0220254939 0.0952174887 -0.0741006136 -0.201062009 0.122128889 -0.180665359 0.0352134705 -0.218557552 0.0735991076 0.0218426157 0.039763283 -0.00266928948 0.26094681 0.148695067 0.00200259173 -6.51727169e-05 0.161034107 0.0810423344 0.0260322802 -0.0187232271 0.156849548 0.0253423285 0.100778602 0.080326654 0.291358143 -0.0413809642 0.0300481115 0.0586495772 0.0220492799
0.196705565 0.168108314 0.220218539 0.228671521 0.0310860109 -0.146925032 0.277702749 -0.264546365 -0.175002351 -0.0330901295 -0.115382731 0.0950530842 0.0236010216 0.0756952167 0.211450607 0.0651767999 0.0843427405 -0.207204878 0.155943826 0.0146742454 0.181968331 0.275257915 -0.0861589983 -0.154934138 -0.0662317351 -0.0345952958 0.261061728 0.0115100667 -0.162173957 0.0536389537 0.0130224386 0.148423925
-0.0735464394 0.125356346 0.240265384 0.173084274 -0.0405909643 0.108120479 0.0715430155 -0.213565573 -0.352342218 -0.0797284767 -0.0995557532 -0.0636135563 -0.098145768 -0.152760953 -0.0613695458 -0.120232858 -0.196092173 -0.137638807 -0.0454739444 0.0675527751 0.169623837 0.0406920388 0.37979722 0.150529951 -0.0597414672 0.136283845 0.193698108 0.0213123877 -0.215259612 0.185870603 -0.0280466154 0.0516297556
-0.121999204 -0.129601091 -0.118400872 0.250045866 -0.0841855928 -0.099848412 0.143030599 0.0684814453 -0.0343020521 0.134513736 -0.0763961822 0.0994379595 0.218965724 -0.274628341 0.217999861 -0.230036929 -0.152870089 -0.132682309 0.247511774 -0.381398469 0.141789854 -0.182192996 -0.0918726176 -0.0988800973 0.0650189742 0.206135169 -0.0674440712 0.19265382 0.1276761 0.16483137 0.111775123 0.0612157099
-0.135388047 0.0417000502 0.248020291 -0.0692489892 0.309266895 -0.0818229169 0.130571142 0.0467009433 0.00021060271 -0.0521451831 0.298347145 -0.0346576273 0.145099908 -0.0471881852 0.0126684811 -0.228720874 -0.25444746 0.0431358553 0.124082983 -0.228400186 0.135967329 0.178742796 -0.0712696314 0.00330288359 -0.0216371622 0.0672989339 -0.104646668 0.0986832902 -0.116248451 0.162210643 0.19460465 0.101206124
-0.195545048 0.199656516 -0.127816811 -0.0236576684 0.202759817 -0.215462431 -0.060440544 -0.0123783965 0.0685501024 0.0752394944 0.236416504 -0.0152286356 0.104112163 -0.0826764926 -0.113175027 -0.228263661 -0.0926113948 -0.0374563038 0.0411044806 -0.243749946 0.29801634 0.177566543 0.101766281 -0.0264483355 0.104882419 0.207241684 0.00133526593 -0.149273336 -0.0267926678 0.101898082 -0.10571795 -0.170112416
0.0796905831 -0.0827376693 0.106348932 -0.113672644 0.434087336 -0.112786584 -0.0264547598 -0.121698007 0.362222195 -0.186992764 -0.107719146 0.236643866 -0.163956478 -0.377239615 -0.392063618 -0.217892647 0.182596385 -0.187160373 0.145504892 0.11543382 0.199195713 0.269508958 0.132107079 0.0335570574 -0.157760471 -0.199277282 -0.259730577 -0.0333097577 -0.204086199 0.283978254 -0.141666546 0.121480793
0.0368703231 0.0995692611 0.0610535517 0.0708498433 0.14439106 -0.162424073 0.0188614782 -0.0369633511 0.00874134619 -0.0424813069 0.175399676 -0.235686108 -0.0392499901 0.122195274 0.210516125 -0.0759492666 0.117866062 0.0837816298 0.0716551542 0.132608145 -0.0646386147 -0.0689870119 -0.236586869 -0.213307858 0.135420278 -0.0101619139 -0.263954461 0.187561661 0.0017470147 -0.154133454 0.0684974566 -0.0901976004
0.00986013096 -0.111661538 -0.0761346295 0.155958727 -0.0957462564 0.241319075 -0.0751888454 -0.0907686055 0.126899809 0.154946387 0.144142047 -0.0414839052 -0.220273793 -0.141083464 -0.193686619 -0.0740516409 0.0937022939 0.281331778 0.0929981843 0.0980357304 -0.0380630493 -0.161224395 -0.18147628 0.0274433643 -0.244665459 -0.299430519 -0.0882333964 -0.0575666465 -0.0896212533 0.0447136648 -0.14704971 -0.0209559295
0.0926864222 -0.0332185514 -0.0728347003 -0.0985950902 -0.186868891 0.116115004 0.0673040971 0.0783823505 -0.160480693 0.000463864184 0.18114543 -0.302040279 -0.109387845 0.222228259 -0.140099466 0.23987624 -0.02595447 0.297137767 -0.129184559 -0.0716958195 -0.200596541 -0.145205334 -0.183685735 -0.11633195 0.0097255744 -0.257864416 0.319518983 -0.00427262997 -0.180716068 0.017252164 -0.0471946672 0.103250548
-0.17155847 0.0183798969 -0.0825680941 -0.0586638153 -0.0585885569 -0.139661878 -0.0593292564 0.0830304474 -0.19670552 0.0461618826 0.150114745 0.00418643607 -0.0259364638 0.146226019 0.0956275463 0.0325042605 -0.198978275 0.259161383 0.157433718 0.0176223237 0.0609917231 0.00541634113 0.0158273578 -0.0429606363 -0.140141189 0.0870305449 0.174644321 -0.00604928378 0.0861819685 0.145568654 0.0163511354 -0.0138001954
-0.112926304 -0.19661139 0.0318867154 0.135627851 -0.0344629362 -0.0886402726 -0.214388087 0.0388283655 -0.0481979176 -0.210838869 0.0137212835 -0.0363610499 -0.0493269525 -0.0327780843 -0.133123413 0.0684533715 -0.0697421655 0.0477218814 0.0500341728 0.107879117 -0.0413469151 0.148022413 -0.0741232559 0.0418875813 0.0197590496 -0.09200643 0.0323577225 0.0949734822 0.131957248 0.10362158 0.106125355 0.13429229
-0.00934333075 0.0238364916 -0.119058393 0.00270301942 -0.0544034988 0.202145681 -0.25072822 0.216325834 -0.237496063 0.0503502749 -0.00114826753 0.049005527 -0.0283872038 -0.02891583 0.173026592 0.0490197949 0.055124186 0.190548822 0.106759839 -0.202216029 0.244842783 0.0289700553 -0.157147482 -0.176163003 -0.00577097386 -0.0935683697 0.0434850082 -0.101503842 0.0836203769 -0.0703064427 -0.00155041961 -0.0374896564
0.272237211 -0.115942717 -0.0824565366 -0.0469076894 -0.068172656 -0.218560845 -0.227068454 -0.145227224 0.114310764 0.266386181 0.0228541978 0.266070664 0.0756807029 0.107591271 -0.00207264768 -0.156547561 0.268621027 0.0788167343 0.0789639056 -0.0187190529 0.0359624177 0.0933427215 -0.286943704 0.210877538 -0.200249001 0.112555936 0.0595504567 0.167700782 -0.215939671 0.122388065 0.166678563 0.131239966
-0.133562922 0.115722939 0.0745816752 0.340076506 0.0715109035 -0.183290973 -0.0195665266 0.079948552 0.237235636 0.050072901 -0.00397893088 -0.128292158 -0.0386829376 0.125664622 -0.227343246 -0.00383082987 0.271910012 -0.229290292 -0.136500016 0.359174788 0.0754337758 -0.20452486 -0.168743163 0.173089415 0.126138881 -0.082277 0.0110648768 0.0441497266 -0.0680847466 -0.196759343 -0.140066072 -0.252484292
0.271618783 -0.1952658 0.0226418246 0.214312494 0.107531026 0.205741212 -0.123249732 0.19642812 0.191394836 -0.229773059 0.240923077 -0.0604015812 0.136388063 0.111604691 -0.250412494 0.159085974 -0.00376864173 -0.105734296 0.0718770549 -0.0431939438 -0.0712976828 -0.233918756 0.113248765 0.223732546 0.00865910109 0.00503826281 0.165925175 0.0993734598 0.14687337 0.0862066746 -0.0214245096 -0.0577266067
0.000722303463 0.000850077078 -0.0239998102 0.344948411 -0.165787399 -0.0926919729 -0.0203578398 -0.00183702353 0.100161731 0.114922091 0.198920414 -0.216579497 -0.0233426336 -0.00308595854 -0.129348308 0.0647874475 0.0132482024 0.0406180136 0.175140202 -0.218256786 0.0862931237 -0.0404269286 -0.0808940604 -0.0787730217 -0.075914517 0.179484546 0.190373018 -0.174059466 0.301692933 -0.157325491 -0.0458917357 -0.0932078212
0.0597039796 -0.148820579 0.219387636 -0.0947915912 -0.0120747108 0.0339033343 -0.0154912099 0.131900951 0.197034687 0.0437347777 -0.0689927861 -0.2288225 -0.247780025 0.208001465 0.108267829 0.105591692 -0.239798993 0.336167663 0.0529521927 -0.0448500626 -0.183892265 0.171373144 -0.127040565 0.00484138215 -0.118041307 -0.222767666 0.17572622 0.010192777 0.216106951 -0.222643539 -0.252153605 0.0841120258
0.307196587 0.172610626 -0.236662522 0.022379851 -0.138885006 0.091897957 -0.296658039 -0.0627654269 -0.0628187433 0.0694099367 0.0799565613 -0.214320689 0.0941321552 -0.106901921 -0.0791025981 0.184332862 -0.0309024584 -0.115701824 -0.100221537 0.0595358498 0.113658205 0.264298171 0.0691995174 0.0515116639 -0.0279615987 0.108064801 0.117864288 0.141860947 0.0715775639 0.0411521755 -0.13189894 0.295197785
-0.0959085152 -0.00200214307 0.0140577564 0.11407683 0.130369022 -0.0190099292 -0.214662701 0.126114473 -0.252003461 -0.122921661 0.254862726 -0.154167667 -0.307702094 -0.0172484145 -0.206555918 -0.0214684475 0.0470942669 0.135464802 -0.0312114414 0.172800422 -0.133323967 0.0434781462 0.162706584 0.0205735341 0.0589623488 0.143968359 0.0842523351 -0.0582368225 -0.0489546619 0.0527652651 -0.0760860145 -0.0220055915
-0.132553309 -0.100635573 -0.347232014 0.0320044309 -0.183608502 -0.0946076363 -0.111490615 -0.160998464 0.11039079 -0.172557056 -0.0335705429 -0.0367840007 -0.263339281 -0.0927544981 0.155784935 0.0407440253 0.126765415 0.117639177 -0.124673188 0.165353194 0.273843825 0.00652100379 -0.380916655 -0.0761507004 0.107530855 -0.0157681722 0.108825833 -0.0114862183 0.0119630648 0.0734040663 0.142654404 0.0189975221
-0.170825273 -0.0985582098 -0.0210761819 -0.231712565 -0.160517171 0.108245201 0.0732632726 0.329592943 0.0421134159 -0.0581408404 -0.188161343 0.215851203 -0.109885998 0.00447684387 0.0884600505 -0.0903434455 -0.0670801327 -0.0749440938 0.1558415 0.0891141966 0.0517007411 -0.13316527 0.183705509 0.282444745 0.0195762496 0.00656780228 -0.00712146377 0.0545416437 -0.196174711 0.142876908 -0.0159200616 -0.077134639
0.194260657 -0.14632459 -0.0693313554 0.144849122 -0.299234182 -0.217391074 -0.0489527509 -0.0102896616 -0.0513174273 0.135517448 -0.173879832 0.198175043 0.072113879 -0.107589886 0.120515652 0.106259406 -0.209287405 -0.180929333 0.231707573 0.0770717487 0.0249502007 0.0990683585 0.1563503 0.221250549 0.115934253 -0.0253853276 0.161292225 -0.0451152213 -0.0125384908 -0.120742366 0.00999224279 -0.162395254
0.199802846 0.0941582471 0.113874719 0.0682471618 -0.214952663 -0.0909644142 -0.0724039748 -0.162087843 0.19686459 -0.133862272 -0.154700264 0.274914503 -0.238041222 0.198027477 0.184419617 -0.0469124652 0.0527947471 -0.151328146 0.202365145 -0.101033725 -0.221974641 -0.164614752 0.200045928 0.0679077581 0.233001217 -0.0170736108 -0.214895859 0.155679464 0.126550034 -0.0515808575 -0.189864963 0.184061155
0.231642053 0.185527533 -0.023372259 0.0582495369 0.0913862437 -0.0642300025 -0.116012029 -0.00220603053 0.000540667621 -0.109270461 0.0647040457 -0.259296894 -0.164435342 -0.173179924 0.145465314 -0.0677743405 -0.0338904224 -0.0894225463 -0.00801841728 0.0496118255 -0.185867682 -0.102345854 0.234130338 -0.149204761 -0.0611407608 0.267034888 -0.17675069 -0.120571956 0.225232542 -0.129895106 -0.143678516 0.068221122
-0.0289596766 -0.14806436 0.131932542 -0.0531947464 -0.252981067 -0.0876891389 -0.126301393 0.241645977 0.0463856906 -0.216497391 0.137594044 -0.110660471 -0.222397178 0.216268554 0.245927691 -0.0881227478 -0.0946062952 -0.131311551 -0.0549607463 0.166324273 0.0831328854 0.198339179 0.124787226 -0.130234689 0.0776109248 0.0235538371 -0.157861829 0.141170278 0.0029159179 -0.0254961997 0.147518888 -0.127409145
-0.0251040924 0.0245694835 0.239738524 -0.118837684 -0.0117363185 0.255561113 -0.0943493843 0.244820565 -0.0602832213 0.053852424 -0.0339102373 -0.00968430005 -0.162977859 0.253612608 0.141486108 -0.189583868 -0.203869551 -0.156285897 -0.104439266 0.000338545913 0.172146037 0.0536333099 0.061567951 0.210424006 -0.0819543228 0.207804769 0.0516304523 -0.0391371697 0.200416744 -0.182296008 0.0494901873 0.0219518505
0.279093057 -0.145081535 -0.356436819 -0.0589724369 -0.159196064 -0.245355815 0.0747304484 0.00612675492 -0.0286922455 -0.337360054 -0.250591606 -0.225726679 -0.100363553 -0.103187539 0.132377818 -0.0387277491 0.000559976499 -0.0850296617 -0.135842592 0.0795332864 -0.160324827 -0.256591022 -0.160795674 0.106065474 -0.22102128 0.318061084 -0.0667895302 0.25819242 -0.117240079 0.250567138 0.253959984 0.126795217
-0.314589262 -0.0433659069 0.119792439 -0.20108287 0.030358389 -0.169688433 -0.175168484 0.176598981 -0.175683424 -0.191954032 0.0653825626 0.144340649 0.260133475 0.0311462395 0.117488146 -0.127430692 -0.0887683928 -0.192445844 0.0661582798 -0.212239102 0.0177075453 -0.19064267 -0.130848616 0.0340155177 0.0861068442 -0.0151560055 0.179477409 0.118086435 -0.0782035142 -0.110756516 0.127208874 -0.282672644
0.00507168286 0.0473553166 -0.15660204 -0.138293162 -0.144362956 -0.1898074 0.0991389379 -0.0449118018 -0.0640011802 0.0183944385 0.00633485662 0.0830360353 -0.0907068178 -0.165729895 -0.0328097828 -0.127027288 0.0227984767 -0.197011992 0.0690720677 0.118601695 -0.271352619 0.0541883409 0.0198388509 0.069177188 0.203675225 -0.00221155514 -0.0386757776 -0.192109019 -0.157904923 -0.0233515333 -0.280622751 -0.0265188422
-0.284208983 -0.00892316457 0.0395664796 0.198710278 -0.28660807 0.156778589 0.0756751671 -0.0203858037 0.208237648 -0.168256029 0.0662919804 -0.180066437 0.0276872292 -0.15901728 0.0614938661 0.120144412 0.0374624543 0.103727445 -0.273831964 -0.246790022 0.0142457727 -0.0242471062 0.0885184556 -0.0522068702 -0.025982853 -0.144714639 0.000669096364 -0.167198703 -0.199907064 -0.173401922 -0.172395498 -0.049831748
-0.192995235 0.0752870962 -0.0303860791 -0.0845228955 -0.0358773991 -0.163309515 -0.130371734 0.111624584 -0.00809750892 0.0644949824 -0.0359136388 -0.164219797 0.283395141 -0.194682151 0.0543723516 0.191928044 -0.0996189192 0.0328843184 -0.198530078 -0.098904863 -0.192895025 0.0247226041 0.258522451 0.195673257 0.0468406193 -0.0834911838 -0.22417821 0.178334177 -0.171716541 -0.122756004 -0.0938181654 -0.0168155208
-0.0389722958 0.110540763 -0.071340628 0.147555351 -0.226935327 0.0636168718 0.124924988 0.057048846 0.116097935 -0.117007218 0.0409399606 0.0300260074 0.117886767 -0.0617567562 -0.0804282129 -0.219729915 0.111593768 -0.132248998 -0.186166018 -0.12256217 0.0195526369 -0.157782093 0.203612641 0.130237296 -0.048489023 -0.0434079133 0.0931022167 0.0752407536 0.0758773685 -0.232481301 -0.220425963 0.228622407
0.297563314 0.0721971616 0.0910817459 -0.1249687 -0.0773178563 0.152816743 0.10759598 0.178224057 0.0993966982 0.118166201 0.182896435 0.0411090255 0.16464588 -0.0357610881 0.201496065 0.027675489 -0.029478889 -0.273980498 -0.27337727 -0.012223755 0.0532257669 0.104238227 0.0210975185 0.14561528 -0.115154602 -0.0782058537 -0.254431516 0.176640302 -0.0310611166 -0.036347311 -0.163340956 0.107773513
0.222085461 0.174951971 -0.0608487949 0.0824922025 -0.228334486 0.142143145 0.275149107 0.115801625 0.00699297618 -0.173557565 0.0955258757 -0.0984257162 -0.158251435 0.148185551 0.183786288 -0.2231161 0.160356894 -0.0573932156 -0.224425316 -0.153185323 0.0937709734 -0.179304346 0.0674251989 0.00305236178 -0.112730652 0.1859283 -0.00295589096 -0.186757505 -0.00193295104 -0.0463390201 -0.0551557541 -0.184603199
-0.0758457184 -0.131132007 0.147127405 -0.264402479 0.114197724 0.196549624 -0.174339086 -0.116387412 -0.0270430613 -0.245604828 0.180030391 -0.00773239462 0.0952697173 0.13657251 0.214556903 0.0649917647 0.105344296 0.0147483181 0.174613759 -0.0256752316 0.100561358 0.210747689 -0.21497649 0.207368121 -0.0567848906 -0.0932529643 0.0347651951 -0.0573667884 -0.101694308 -0.264776438 -0.0621947683 -0.196773618
0.268999159 0.0491197482 0.101553358 -0.0137329688 0.143597797 0.0190827996 0.230490118 -0.0700106919 -0.118383236 -0.212671205 0.137595549 0.245647997 -0.022654498 0.105456963 0.143626541 0.142443687 0.166989312 -0.0138118593 0.0800442845 -0.142685667 -0.0452968292 -0.0702968314 0.0882943645 0.172866642 0.0493631326 0.00366199343 -0.0109069878 -0.189185545 -0.113942951 -0.129668787 -0.154810667 0.0406247117
0.0426138714 -0.177070081 0.0539446883 -0.0280119497 0.0175504889 -0.328184128 -0.0569943823 -0.0809228793 -0.0437813476 -0.00190783758 -0.204402536 0.0710010156 0.119777299 -0.124816112 0.236019358 0.266507596 -0.167769969 -0.102398127 0.10868483 -0.0696564838 -0.199689254 0.104778737 -0.0492222868 0.168920055 0.00530641293 0.0841596574 -0.0920355469 -0.244719192 -0.144357875 0.169759765 0.245649397 0.0124689015
-0.100985624 0.0595316216 0.029744938 0.0782768652 0.0771863833 0.00212775008 0.0578257963 -0.20651342 -0.050190635 -0.188061848 0.0219271667 -0.0650841072 -0.0633103028 0.0212957095 0.164446473 -0.0912795588 0.162886858 0.239170283 -0.188681096 -0.225130841 0.138257861 0.213605881 -0.0343831703 0.211309403 0.230602369 -0.090796262 -0.208410397 -0.135472462 -0.274019033 -0.0984157398 0.0483773835 0.0736705363
-0.200174361 -0.128295809 0.333348751 -0.135894701 -0.0861487389 -0.0204201303 0.126385093 -0.0538798794 -0.24880141 0.189646885 0.239329606 0.160938352 0.00827217847 -0.0600009374 -0.0426812358 0.0625381619 0.155390665 -0.0124458363 0.00858490076 0.0252687428 -0.171559885 -0.0632012114 -0.0259483717 0.111789614 -0.208429366 -0.015086039 -0.219389871 -0.0215206407 -0.0176884979 0.0262279958 0.328653932 -0.0186906774
-0.0198753681 -0.182867631 0.00157173839 0.0618631393 -0.00423351303 -0.0408378802 -0.0522017218 0.158885881 -0.165163666 -0.170460746 0.0844402611 -0.0373836532 0.338078171 0.0133090178 -0.270304561 0.0339008905 0.197810546 -0.0807895511 0.092390649 -0.147495121 -0.143829912 0.211282596 0.0904245824 0.11974743 -0.0758491755 -0.222713575 -0.212907076 0.0527861193 -0.263582647 0.186366946 0.179585829 0.128094286
-0.166916385 0.211362287 0.0611326136 -0.208509743 0.31051302 -0.255564243 0.235287875 0.130975798 -0.172143921 -0.116727807 -0.0429592654 -0.160352543 -0.299556822 0.24523899 0.214395478 0.0151739921 0.0152062923 0.0592395328 0.0509812683 -0.312762171 -0.0364387333 0.0643672347 0.0493837185 -0.0808523372 0.05619343 0.0269496664 0.181066632 -0.312999457 0.0791227892 -0.150749311 0.375024855 -0.204989687
0.00480975723 0.40735209 0.221982509 -0.249466494 0.130433813 0.252894431 -0.17178379 -0.401585847 -0.0495539419 0.133234739 0.138854548 0.0446452834 -0.333520651 -0.191798896 -0.0797541216 -0.256967574 -0.02159773 -0.255560756 -0.163640961 -0.0471845865 -0.159401253 -0.135572001 -0.105913326 -0.175192073 -0.21721521 -0.342049807 0.0924247727 0.0247372072 0.241874516 0.0308757238 -0.206805378 -0.0772922486
-0.126475111 0.184988365 -0.26669687 0.0459680036 0.219693169 0.157516405 -0.163254246 -0.113311119 -0.0813714787 0.0374203734 -0.176559374 -0.0456998535 0.0027481874 -0.0897228718 -0.046905186 0.313325942 0.124074414 0.0111317048 -0.128473431 -0.173753321 0.0168424044 0.114103287 0.0256337281 0.0361056179 -0.235118389 0.12175256 0.134201601 -0.0169883985 -0.199633628 0.0449981801 -0.156658188 -0.0308403168
-0.170951173 0.0592331626 -0.120500922 -0.0634990036 0.159214973 0.176436171 -0.0699147061 -0.0630459264 0.151429027 0.26079455 0.153613299 0.0748248398 0.123538613 0.0249311123 0.216176897 0.0668494552 -0.210239768 -0.0883306488 -0.0477765054 -0.100918956 0.00722432183 -0.0194089413 -0.242401525 0.0489503071 -0.24375315 -0.050790906 -0.196155712 0.134413511 0.181685716 0.240555912 0.0346273296 -0.245395914
-0.208629414 -0.0940901563 -0.119067572 -0.0311191585 0.127629519 0.0640512481 0.0578720309 -0.0133482683 0.0513978973 0.283069879 0.0804032236 -0.00442580041 -0.120616682 0.0343545415 0.174239323 0.134439141 0.0956763774 0.0614636242 -0.0597560517 0.105717264 -0.0750941336 -0.0190790389 0.0299660787 -0.00764875859 -0.250936985 -0.204735905 0.116273925 0.0212233737 0.150044858 0.0881287456 -0.150603995 -0.089586854
-0.0709593147 -0.0594743229 -0.276935279 0.174602076 0.127089411 -0.165212631 -0.114851929 -0.0502085499 0.0216319934 0.199249506 0.208775878 0.102913938 0.0518726818 -0.000972753856 0.119154245 -0.108066484 0.170192078 -0.0254982058 -0.0175124872 -0.0317039452 0.00859490409 -0.0123028988 0.0158091728 0.146720916 0.0840777084 -0.122917257 0.0120932385 -0.13710542 0.219744399 0.196601704 0.0749943554 -0.157988399
-0.0826671273 -0.122957245 -0.0671091601 0.0967194736 0.327489763 0.171951115 0.0991084501 0.0413128249 0.0404267758 0.12875171 -0.00507685868 0.0380939655 -0.121098839 -0.113554165 -0.117899612 0.218586713 0.0931737199 -0.0317323245 -0.236325875 -0.013999112 -0.0345977657 -0.104059331 -0.193155542 0.180619016 -0.0510880798 -0.191934764 0.132077411 0.0430495851 0.28705433 -0.00398663012 -0.0510728322 -0.0272563584
0.0098407371 0.144150987 -0.211551577 0.253580689 0.00415654946 -0.260649145 0.233787835 -0.141629517 0.00133578887 0.134001285 -0.0596468523 0.0221063402 -0.0992941707 0.151626989 -0.0762430876 0.173548043 0.144760802 -0.228449792 -0.0306482445 -0.0838890672 0.192554057 0.126862839 0.217549562 0.0695626289 0.0524287596 -0.373550087 0.265596718 0.0343591236 0.120867461 -0.0995477065 0.0548079275 -0.058214929
